-4.090456757694482803e-03 2.806806471198797226e-03 -7.718529552221298218e-02 -3.481738269329071045e-02 -9.551413357257843018e-02 1.649898737668991089e-01 1.275486350059509277e-01 -4.369369521737098694e-02 -1.617796570062637329e-01 -3.690290451049804688e-02 -6.030345708131790161e-02 -7.143599539995193481e-02 -7.588899880647659302e-02 1.563074439764022827e-01 -3.146260976791381836e-03 -6.763114780187606812e-02 2.772432006895542145e-02 1.639686971902847290e-01 1.168455332517623901e-01 1.284433752298355103e-01 -9.269978851079940796e-03 -1.527305133640766144e-02 1.200220957398414612e-01 -8.290403336286544800e-02 1.073306519538164139e-02 1.158362776041030884e-01 8.461637049913406372e-02 -6.777048110961914062e-05 1.424897164106369019e-01 1.163276508450508118e-01 -9.270560741424560547e-02 -1.427154093980789185e-01 -9.362732619047164917e-02 1.566104739904403687e-01 -7.900465279817581177e-02 -1.137697473168373108e-01 1.034326255321502686e-01 -5.655228346586227417e-02 3.969414904713630676e-02 -3.536128625273704529e-02 1.252130120992660522e-01 1.300722211599349976e-01 7.336686551570892334e-02 -3.619419038295745850e-02 -8.129784464836120605e-02 -9.128411114215850830e-02 -3.641476109623908997e-02 2.081787958741188049e-02 -3.619302064180374146e-02 6.198310106992721558e-02 -1.472567468881607056e-01 -5.677194148302078247e-02 -5.472755432128906250e-02 1.758561097085475922e-02 1.685822010040283203e-01 -8.777781575918197632e-02 8.518869429826736450e-02 1.428516656160354614e-01 -9.894754737615585327e-02 -4.056700319051742554e-02 -8.786357194185256958e-02 -2.037905156612396240e-02 -4.822271689772605896e-02 -1.235574409365653992e-01
-3.481343388557434082e-02 -1.329237669706344604e-01 1.246197968721389771e-01 1.457499116659164429e-01 1.561929434537887573e-01 -1.091522723436355591e-01 3.914034366607666016e-02 2.020074985921382904e-02 6.950158625841140747e-03 -1.773998588323593140e-01 -1.062756255269050598e-01 1.597883850336074829e-01 -6.148995831608772278e-03 -7.075326144695281982e-02 -1.413738429546356201e-01 2.623562142252922058e-02 1.192907541990280151e-01 -3.903380781412124634e-02 -1.008648872375488281e-01 -9.933783113956451416e-02 -1.185663044452667236e-01 -1.274157762527465820e-01 1.103196386247873306e-02 -1.873129792511463165e-02 -9.820691496133804321e-02 -9.037159383296966553e-02 -1.279882639646530151e-01 -7.754130661487579346e-02 1.274249330163002014e-02 1.443220227956771851e-01 -1.457660794258117676e-01 -1.445586383342742920e-01 -1.648276746273040771e-01 1.549630146473646164e-02 -6.781085580587387085e-02 -6.416554749011993408e-02 4.750858247280120850e-02 -9.972117096185684204e-02 5.951708555221557617e-02 1.720990240573883057e-02 -5.008415877819061279e-02 -4.661549814045429230e-03 -3.801358863711357117e-03 -6.080429628491401672e-02 -1.590723730623722076e-02 -6.069221720099449158e-02 1.470607668161392212e-01 -1.010612249374389648e-01 1.807601749897003174e-02 -5.235982686281204224e-02 1.394252777099609375e-01 -9.608981013298034668e-02 6.277173757553100586e-02 1.739647835493087769e-01 -1.021214351058006287e-01 -7.157668471336364746e-02 3.185227513313293457e-02 -8.644065260887145996e-02 1.056864634156227112e-01 7.122863084077835083e-02 2.414508955553174019e-03 6.657809019088745117e-03 1.339034736156463623e-01 -6.970474869012832642e-02
-6.059094518423080444e-02 -1.544677764177322388e-01 3.747330605983734131e-02 -9.269482642412185669e-02 -1.217251345515251160e-01 -7.537388056516647339e-02 -7.596290670335292816e-03 7.068126648664474487e-02 1.727468371391296387e-01 9.968966990709304810e-02 -9.592951089143753052e-02 4.343029856681823730e-02 -6.243160367012023926e-02 3.984892368316650391e-02 -1.598380357027053833e-01 -5.621901154518127441e-02 -2.606184780597686768e-02 1.541593819856643677e-01 -1.125765144824981689e-01 5.402996018528938293e-02 -9.579219669103622437e-02 1.011480987071990967e-01 -2.155183069407939911e-02 1.143836826086044312e-01 9.733259677886962891e-02 1.330201476812362671e-01 -1.627163738012313843e-01 1.634695380926132202e-01 -5.258247256278991699e-03 -7.675835490226745605e-02 1.405209302902221680e-02 1.504928320646286011e-01 1.305029839277267456e-01 -1.129169091582298279e-01 -3.304072842001914978e-02 2.745407260954380035e-02 1.357237845659255981e-01 -2.759512327611446381e-02 1.260703355073928833e-01 1.274337470531463623e-01 6.963250041007995605e-02 -2.460158988833427429e-02 5.470518395304679871e-02 1.096865087747573853e-01 -1.241847127676010132e-01 -1.268340498208999634e-01 1.176998317241668701e-01 8.777387440204620361e-02 4.747804999351501465e-02 8.821010589599609375e-02 -6.330667436122894287e-02 3.179986262694001198e-03 9.650482237339019775e-02 1.698919981718063354e-01 -1.237487494945526123e-01 -1.455987244844436646e-01 9.328238666057586670e-02 -9.322972595691680908e-02 -9.334961324930191040e-02 -3.148172423243522644e-02 1.453183293342590332e-01 -1.597028523683547974e-01 1.657562702894210815e-01 1.073759347200393677e-01
-7.673019915819168091e-02 -1.701875329017639160e-01 1.192492768168449402e-01 1.551641374826431274e-01 -1.502771675586700439e-01 9.614021331071853638e-02 -8.150507695972919464e-03 -1.122505068778991699e-01 -2.000533975660800934e-03 4.697587713599205017e-02 -8.470831066370010376e-02 9.915585815906524658e-02 1.835014671087265015e-01 1.259212940931320190e-01 1.509888321161270142e-01 -2.074497938156127930e-01 -7.599500566720962524e-02 1.724295914173126221e-01 1.252859532833099365e-01 2.133844196796417236e-01 -1.310020536184310913e-01 -1.186898127198219299e-01 -4.769889265298843384e-02 -8.001665025949478149e-02 7.594560831785202026e-02 8.103830367326736450e-02 2.664092183113098145e-02 8.913302421569824219e-02 1.335410494357347488e-02 -8.641180582344532013e-03 -1.417996548116207123e-02 -1.037585958838462830e-01 8.876669744495302439e-05 4.085107520222663879e-02 -1.700433641672134399e-01 1.095319166779518127e-01 -6.192193925380706787e-02 9.358442574739456177e-02 8.485837280750274658e-02 1.158259138464927673e-01 -1.033318564295768738e-01 1.270321905612945557e-01 -1.207742318511009216e-01 -1.000627949833869934e-01 -6.282520294189453125e-02 -1.645693928003311157e-02 5.270179733633995056e-02 -8.457823842763900757e-02 1.433667689561843872e-01 5.200561136007308960e-02 1.192096918821334839e-01 -3.590662777423858643e-02 1.212546229362487793e-01 2.619821429252624512e-01 -2.007682621479034424e-01 9.620381891727447510e-02 8.077284693717956543e-02 -1.208204329013824463e-01 5.207534506916999817e-02 -1.817278116941452026e-01 2.495648711919784546e-02 2.151025645434856415e-02 -1.893459111452102661e-01 1.883029788732528687e-01
5.468723922967910767e-02 -1.409602910280227661e-01 3.196520730853080750e-02 -8.108197897672653198e-02 -1.275444626808166504e-01 2.271813526749610901e-02 -1.571774482727050781e-01 -2.220636419951915741e-02 1.698710024356842041e-01 1.342886835336685181e-01 -3.055037185549736023e-02 2.920702472329139709e-02 1.334488689899444580e-01 1.746591627597808838e-01 -1.567076742649078369e-01 -1.547766011208295822e-02 -1.492699831724166870e-01 -3.486414626240730286e-02 -4.108390584588050842e-02 -4.524106159806251526e-02 -1.757524609565734863e-01 1.653658747673034668e-01 -2.017879858613014221e-03 7.539187371730804443e-02 1.065289080142974854e-01 8.837077766656875610e-03 -1.591719388961791992e-01 3.896067664027214050e-02 3.381085814908146858e-03 1.726392209529876709e-01 4.324733465909957886e-02 6.115063279867172241e-02 3.162062913179397583e-02 -3.559714183211326599e-02 1.777506321668624878e-01 -3.641305491328239441e-02 -1.632900089025497437e-01 2.648642100393772125e-02 1.574544012546539307e-01 9.873260557651519775e-02 1.074217185378074646e-01 1.161718368530273438e-01 -1.074099242687225342e-01 1.244924217462539673e-02 4.981189221143722534e-02 1.589806079864501953e-01 4.166779667139053345e-02 -4.774947464466094971e-02 -2.244367748498916626e-01 -5.936766043305397034e-02 -1.836757510900497437e-01 6.097860261797904968e-02 1.860104352235794067e-01 -7.399470359086990356e-02 8.697954565286636353e-02 4.469699785113334656e-02 2.017805278301239014e-01 -3.260951489210128784e-02 -4.971652477979660034e-02 1.656271368265151978e-01 1.290290951728820801e-01 -5.847742035984992981e-02 1.540815383195877075e-01 -2.502885088324546814e-02
-1.433173269033432007e-01 -1.635652333498001099e-01 -1.669536978006362915e-01 -1.278609335422515869e-01 8.548799669370055199e-04 -3.948396537452936172e-03 1.541731804609298706e-01 1.681204885244369507e-01 -8.883719146251678467e-02 -1.281574666500091553e-01 -1.676857471466064453e-03 3.752544522285461426e-03 6.166319921612739563e-02 1.472979784011840820e-04 3.682015836238861084e-02 9.301653504371643066e-02 -1.299937814474105835e-01 -3.732599690556526184e-02 -9.309677407145500183e-03 7.621870189905166626e-02 -1.715493500232696533e-01 -1.342509388923645020e-01 -1.123829483985900879e-01 7.034275680780410767e-02 -7.062608003616333008e-02 -7.810863107442855835e-02 -2.486862242221832275e-02 -4.885393381118774414e-02 1.733862906694412231e-01 1.015481129288673401e-01 -4.620080068707466125e-02 8.961017429828643799e-02 -1.472786217927932739e-01 -4.245838150382041931e-02 1.617293804883956909e-01 -1.781960129737854004e-01 -2.934839203953742981e-02 -1.474267989397048950e-01 1.179893016815185547e-01 3.481161221861839294e-02 -1.335840821266174316e-01 4.351033642888069153e-02 6.036952137947082520e-03 7.329522073268890381e-02 -1.709476560354232788e-01 1.354444473981857300e-01 5.909438058733940125e-02 -1.688381731510162354e-01 -3.500582650303840637e-02 -6.856053322553634644e-02 4.448496177792549133e-02 1.683435961604118347e-02 1.475724726915359497e-01 -4.074867069721221924e-02 -5.490532517433166504e-02 2.927266294136643410e-03 3.566489368677139282e-02 1.679380536079406738e-01 -8.657462149858474731e-02 1.537753343582153320e-01 1.651267707347869873e-01 -6.043318659067153931e-02 3.915308788418769836e-02 9.925418533384799957e-03
-5.742980167269706726e-02 3.066030144691467285e-02 1.890708692371845245e-02 -3.440500050783157349e-02 1.565865613520145416e-02 1.208634451031684875e-01 -1.118070781230926514e-01 1.091809794306755066e-01 1.603460162878036499e-01 -2.009994909167289734e-02 4.354491084814071655e-02 -1.186938136816024780e-01 8.034816384315490723e-02 5.845940113067626953e-02 1.316066384315490723e-01 -1.473734974861145020e-01 5.848799645900726318e-02 -1.664129644632339478e-01 1.133089303039014339e-03 1.529352515935897827e-01 -3.430232778191566467e-02 3.694334626197814941e-02 2.726298943161964417e-02 -6.561378389596939087e-02 -1.455625444650650024e-01 7.330796681344509125e-03 1.347174495458602905e-01 6.853558123111724854e-02 1.156759187579154968e-01 -3.232485055923461914e-02 1.340409070253372192e-01 -1.592391878366470337e-01 9.968824684619903564e-02 1.003069207072257996e-01 6.301682442426681519e-02 1.142820045351982117e-01 9.298741817474365234e-02 9.283235669136047363e-02 -4.484766721725463867e-02 3.301950404420495033e-03 -2.913584746420383453e-02 -8.400382846593856812e-02 -1.641923636198043823e-01 -1.538768317550420761e-02 -1.565721631050109863e-01 -9.321054816246032715e-02 1.652146726846694946e-01 1.002516746520996094e-01 8.803330361843109131e-02 -1.314365863800048828e-01 -1.384472399950027466e-01 -1.218099966645240784e-01 9.602673351764678955e-02 1.152686774730682373e-02 4.164925485383719206e-04 6.374476850032806396e-02 -6.747345626354217529e-02 -1.599324122071266174e-02 -7.461699843406677246e-02 -1.699391603469848633e-01 7.514088600873947144e-02 7.945974171161651611e-02 -7.549733668565750122e-02 5.415116623044013977e-02
-1.621259301900863647e-01 1.186748594045639038e-01 2.568525075912475586e-02 -1.250869333744049072e-01 9.917338937520980835e-02 -1.299445778131484985e-01 -2.851595170795917511e-02 -1.099711358547210693e-01 -6.287490250542759895e-04 7.390873879194259644e-02 9.715032577514648438e-02 -1.871962994337081909e-01 1.306643933057785034e-01 9.561520069837570190e-02 1.510047763586044312e-01 1.341666132211685181e-01 1.534653455018997192e-01 -1.695126742124557495e-01 -1.464297715574502945e-02 6.199054047465324402e-02 -8.703759871423244476e-03 9.352900832891464233e-02 5.881373211741447449e-02 -8.833079040050506592e-02 2.044181078672409058e-01 2.023865282535552979e-01 9.395714104175567627e-02 1.460919063538312912e-02 -1.015416085720062256e-01 -1.850788444280624390e-01 8.043078333139419556e-02 -4.126116633415222168e-02 5.593045055866241455e-02 1.814402341842651367e-01 1.825312077999114990e-01 5.364575982093811035e-02 2.755901515483856201e-01 1.845960505306720734e-02 -8.166480064392089844e-02 1.092208549380302429e-01 -1.474068015813827515e-01 -8.535955846309661865e-02 8.417323231697082520e-02 2.196826487779617310e-01 2.103806100785732269e-02 -1.571773588657379150e-01 5.276672169566154480e-02 -9.158650785684585571e-02 -5.757653713226318359e-02 -1.102130860090255737e-02 6.250133365392684937e-02 -8.413304388523101807e-02 6.311055272817611694e-02 2.338544465601444244e-02 -1.743141859769821167e-01 2.714747935533523560e-02 -1.560198217630386353e-01 2.130673974752426147e-01 2.218872755765914917e-01 -1.261153221130371094e-01 2.492013201117515564e-02 1.271645575761795044e-01 -2.020994201302528381e-02 1.994894631206989288e-02
5.818198993802070618e-02 1.527607887983322144e-01 1.703262776136398315e-01 -2.312387526035308838e-02 -4.395899176597595215e-02 5.383662413805723190e-03 1.422967016696929932e-01 1.305360049009323120e-01 9.678004682064056396e-02 3.350339084863662720e-02 -1.349070668220520020e-02 -1.344683766365051270e-01 -1.319645345211029053e-01 8.742220699787139893e-02 8.020607382059097290e-02 -1.476386189460754395e-01 -9.579847753047943115e-02 3.236445784568786621e-02 -1.473562568426132202e-01 -1.690149679780006409e-02 -1.722565740346908569e-01 -1.679751724004745483e-01 -1.338047236204147339e-01 1.677725762128829956e-01 -6.742522120475769043e-03 5.953569710254669189e-02 1.572170704603195190e-01 5.748406052589416504e-03 1.323496997356414795e-01 -7.047885656356811523e-02 7.279110699892044067e-02 2.289989590644836426e-02 6.744295358657836914e-03 -1.027032434940338135e-01 -9.061377495527267456e-02 -1.112363114953041077e-01 -5.309420824050903320e-02 -2.192488312721252441e-02 -8.985880762338638306e-02 4.462897777557373047e-05 2.535158395767211914e-02 1.228552088141441345e-01 -1.907621696591377258e-02 -7.806978374719619751e-02 -1.405766010284423828e-01 4.979448020458221436e-02 1.236883401870727539e-01 3.107654629275202751e-03 -1.219846531748771667e-01 -1.472684144973754883e-01 -9.637527912855148315e-02 -7.512190937995910645e-02 -1.650653034448623657e-01 8.106790482997894287e-02 -7.533827424049377441e-02 1.027980744838714600e-01 7.997831702232360840e-02 -6.764730066061019897e-02 1.189513411372900009e-02 -1.197845786809921265e-01 -4.458247870206832886e-02 -1.552457660436630249e-01 -6.489475816488265991e-02 1.549757272005081177e-01
-1.101928874850273132e-01 7.359464466571807861e-02 -1.067576184868812561e-01 -3.965517878532409668e-02 1.466654390096664429e-01 -1.415400672703981400e-02 -1.541819274425506592e-01 1.227290276437997818e-02 -2.605600953102111816e-01 2.129037976264953613e-01 -1.411717385053634644e-01 -2.742162719368934631e-02 5.922435596585273743e-02 1.605564802885055542e-01 -6.906594615429639816e-03 -1.409184336662292480e-01 -1.913463473320007324e-01 3.114157170057296753e-02 -1.501794010400772095e-01 1.326357871294021606e-01 1.042179539799690247e-01 -1.107526645064353943e-01 6.390284746885299683e-02 -1.583693772554397583e-01 6.679528951644897461e-02 2.714662067592144012e-02 1.024957187473773956e-02 -7.057282328605651855e-02 -6.271646171808242798e-02 1.110958531498908997e-01 -4.349187016487121582e-02 9.671137481927871704e-02 -7.187108695507049561e-02 1.020984202623367310e-01 2.308130860328674316e-01 1.105279475450515747e-01 1.422175019979476929e-01 2.399328947067260742e-01 -6.756681203842163086e-02 -1.791298948228359222e-02 -3.170040994882583618e-02 4.337031394243240356e-03 1.799420565366744995e-01 4.625514894723892212e-02 -1.490192413330078125e-01 -1.519142389297485352e-01 -9.147646278142929077e-02 1.401449292898178101e-01 -7.987101376056671143e-02 -8.854876458644866943e-02 1.411814838647842407e-01 1.693673431873321533e-01 5.818748101592063904e-02 1.419084332883358002e-02 1.279429644346237183e-01 -1.617483422160148621e-02 8.695617318153381348e-02 1.433944106101989746e-01 1.674926131963729858e-01 -3.374489769339561462e-02 2.089957520365715027e-02 -1.548210382461547852e-01 1.972885876893997192e-01 -1.928629279136657715e-01
-2.635672315955162048e-02 7.194965332746505737e-02 1.737663149833679199e-01 5.887335538864135742e-02 -1.105900481343269348e-01 -5.609111860394477844e-02 -1.542264074087142944e-01 1.126728393137454987e-02 1.183883771300315857e-01 -1.546943634748458862e-01 5.536053329706192017e-02 -6.555202882736921310e-03 1.894366368651390076e-02 1.736699789762496948e-01 -3.222168236970901489e-02 -1.564838290214538574e-01 -2.364855632185935974e-02 3.794139996170997620e-02 7.172420620918273926e-02 1.002335026860237122e-01 -1.418147087097167969e-01 2.576936967670917511e-02 1.156672090291976929e-01 -5.630259588360786438e-02 2.343429625034332275e-01 1.413844823837280273e-01 -1.740159094333648682e-01 1.663222461938858032e-01 -8.177564293146133423e-02 -3.765110392123460770e-03 -3.243572637438774109e-02 -1.214133575558662415e-01 -1.934532672166824341e-01 -8.485396206378936768e-02 1.017673611640930176e-01 -8.944307267665863037e-02 2.317145019769668579e-01 -1.206138730049133301e-01 6.596369296312332153e-02 6.405534595251083374e-02 -8.053518086671829224e-02 -7.647147774696350098e-02 -1.038893759250640869e-01 -1.057466771453619003e-02 -1.445522159337997437e-02 -1.699709147214889526e-01 4.343802109360694885e-02 9.640455245971679688e-02 8.644339442253112793e-02 -3.182880952954292297e-02 4.060361534357070923e-02 2.938585355877876282e-02 -1.658032536506652832e-01 8.963039517402648926e-02 -1.763939559459686279e-01 -9.813482314348220825e-02 3.902929835021495819e-03 1.269829124212265015e-01 5.763205885887145996e-02 -2.087766528129577637e-01 8.494179695844650269e-02 1.810873150825500488e-01 -1.400500833988189697e-01 2.379640638828277588e-01
2.771248482167720795e-02 1.096375063061714172e-01 9.908594936132431030e-02 5.770862102508544922e-02 -3.584150969982147217e-02 -8.421076834201812744e-02 -8.986870199441909790e-02 5.587895959615707397e-02 4.959673061966896057e-02 -1.299767494201660156e-01 -6.720571964979171753e-02 1.788259446620941162e-01 1.425617188215255737e-01 2.719953842461109161e-02 -5.510925129055976868e-02 -3.559159114956855774e-02 -1.486472934484481812e-01 7.766919443383812904e-04 6.400185823440551758e-02 1.266247034072875977e-01 1.063599437475204468e-01 -7.510183006525039673e-02 8.470538258552551270e-02 1.061069741845130920e-01 -1.071196496486663818e-01 1.556136012077331543e-01 -1.393658667802810669e-01 -1.167369484901428223e-01 1.353384554386138916e-02 1.480098366737365723e-01 -7.165331393480300903e-03 9.745868295431137085e-02 2.375337481498718262e-02 -3.970622643828392029e-02 7.199989631772041321e-03 1.309920251369476318e-01 -1.066326349973678589e-02 -5.960712581872940063e-02 -1.246535181999206543e-01 1.535358428955078125e-01 4.382694140076637268e-02 2.214753441512584686e-02 1.439470499753952026e-01 -4.947109892964363098e-02 -3.479132428765296936e-02 -1.874834112823009491e-02 -1.354356110095977783e-01 2.602552808821201324e-02 -4.580881074070930481e-02 -1.629256410524249077e-03 3.088038042187690735e-02 -1.725506633520126343e-01 1.951761543750762939e-02 1.136742979288101196e-01 1.363847702741622925e-01 -1.522971242666244507e-01 5.607960000634193420e-02 4.500497132539749146e-02 4.046988114714622498e-02 1.235743984580039978e-01 9.561187028884887695e-02 -5.479983612895011902e-02 9.566616266965866089e-02 1.573276966810226440e-01
3.997793421149253845e-02 1.255236119031906128e-01 -6.131957471370697021e-02 5.274137854576110840e-02 1.265132725238800049e-01 -5.173461139202117920e-02 -2.494265139102935791e-02 1.722652465105056763e-01 -1.273802518844604492e-01 6.636477261781692505e-02 -9.220924973487854004e-02 8.352102339267730713e-02 4.507901519536972046e-02 -1.057372540235519409e-01 6.419205572456121445e-03 1.438126415014266968e-01 -1.460271626710891724e-01 -5.712268874049186707e-02 -8.569019287824630737e-02 3.535303473472595215e-02 -8.904419094324111938e-02 1.327058225870132446e-01 -3.044249676167964935e-02 4.014934599399566650e-02 1.481372416019439697e-01 3.473629057407379150e-02 2.665877342224121094e-02 -1.326999366283416748e-01 7.986645400524139404e-02 1.569396704435348511e-01 6.942715495824813843e-02 1.351246088743209839e-01 -1.744765639305114746e-01 -1.156794801354408264e-01 1.095511093735694885e-01 1.683492213487625122e-01 1.374782174825668335e-01 2.015535533428192139e-02 5.506532266736030579e-02 -1.715033650398254395e-01 1.116911619901657104e-01 7.262566685676574707e-02 -1.523360610008239746e-03 9.475827217102050781e-03 8.390313386917114258e-02 -8.995644748210906982e-03 2.992973895743489265e-04 1.108612269163131714e-01 1.075347661972045898e-01 -8.123864233493804932e-02 -1.602168530225753784e-01 7.182399928569793701e-02 5.793130397796630859e-02 9.084065258502960205e-02 5.097084864974021912e-02 -1.366342902183532715e-01 1.332513540983200073e-01 1.284159272909164429e-01 -1.183511987328529358e-01 8.019149303436279297e-03 -1.702512800693511963e-02 -4.256052488926798105e-04 1.417714804410934448e-01 2.903617732226848602e-02
-1.398112159222364426e-02 1.054996103048324585e-01 9.116785228252410889e-02 -1.579491347074508667e-01 3.570250049233436584e-02 1.994875222444534302e-01 -1.514016985893249512e-01 1.027328073978424072e-01 -3.894193470478057861e-02 1.568080484867095947e-01 -2.118503749370574951e-01 -1.266782730817794800e-01 1.525526195764541626e-01 1.657518595457077026e-01 7.135187089443206787e-02 2.602945864200592041e-01 2.748724445700645447e-02 -1.828644275665283203e-01 1.231759488582611084e-01 1.610612273216247559e-01 -1.023399531841278076e-01 2.560768648982048035e-02 9.425052255392074585e-02 1.892107129096984863e-01 -7.364813238382339478e-02 1.691632904112339020e-02 -5.148936435580253601e-02 -1.156512573361396790e-01 -2.326924167573451996e-02 -1.502988785505294800e-01 -4.986966028809547424e-02 8.371517807245254517e-02 -1.460815872997045517e-02 1.078845560550689697e-01 1.080841198563575745e-01 -1.633209176361560822e-02 1.014336124062538147e-01 1.167004704475402832e-01 3.057871758937835693e-02 -1.625908911228179932e-01 1.005126908421516418e-01 1.072544008493423462e-01 2.089441716670989990e-01 -5.052109807729721069e-02 -1.453833431005477905e-01 -2.015190869569778442e-01 5.814996734261512756e-02 1.960919499397277832e-01 -8.124978840351104736e-02 -9.204390645027160645e-02 -1.755574643611907959e-01 -1.449592411518096924e-01 8.449004590511322021e-02 4.873703792691230774e-02 -1.674292087554931641e-01 -4.058251157402992249e-02 -5.352183058857917786e-02 -7.118205726146697998e-02 1.097584981471300125e-02 -3.973205760121345520e-02 -1.120403110980987549e-01 1.220318228006362915e-01 1.615975499153137207e-01 -1.481193304061889648e-01
-2.249445617198944092e-01 -1.566466093063354492e-01 -1.655921489000320435e-01 1.692854464054107666e-01 1.637011170387268066e-01 -1.919046044349670410e-01 -7.323513180017471313e-02 -1.070700660347938538e-01 1.120676249265670776e-01 -1.669566035270690918e-01 -1.288977116346359253e-01 4.724751785397529602e-02 -1.853489130735397339e-01 -3.619016334414482117e-02 -5.827769637107849121e-02 2.558856084942817688e-02 -1.460033059120178223e-01 8.507969975471496582e-02 1.480310503393411636e-02 -3.648795932531356812e-02 -1.715379506349563599e-01 1.490379869937896729e-01 1.218322291970252991e-01 -1.081941649317741394e-01 2.012473791837692261e-01 2.269731601700186729e-03 1.523918211460113525e-01 2.133507281541824341e-01 1.375330705195665359e-02 7.749722898006439209e-02 1.602073386311531067e-02 -1.546589583158493042e-01 -9.311577677726745605e-02 -9.462913870811462402e-02 1.710908412933349609e-01 -1.744744628667831421e-01 -9.377969056367874146e-02 -1.172559261322021484e-01 -1.911465525627136230e-01 -1.071867495775222778e-01 6.320795509964227676e-03 -1.745572239160537720e-01 -1.805011034011840820e-01 1.247874647378921509e-01 -3.183826431632041931e-02 2.572465129196643829e-02 -1.378529369831085205e-01 9.486664086580276489e-02 1.259082853794097900e-01 -5.766609683632850647e-04 1.416031271219253540e-01 -2.713343314826488495e-02 1.663504987955093384e-01 8.579400181770324707e-02 1.415946632623672485e-01 4.346706718206405640e-02 -1.196586117148399353e-01 -1.166888847947120667e-01 3.961385041475296021e-02 3.078245930373668671e-02 1.650129258632659912e-01 -3.118307329714298248e-02 1.484348177909851074e-01 1.444664895534515381e-01
-1.603761315345764160e-01 1.523655951023101807e-01 1.701597571372985840e-01 -5.580622702836990356e-02 3.339189663529396057e-02 -9.405354410409927368e-02 -1.839029490947723389e-01 1.631928831338882446e-01 1.387104690074920654e-01 1.327586770057678223e-01 -4.600897803902626038e-02 1.122183650732040405e-01 8.526947349309921265e-04 1.620673090219497681e-01 1.231249868869781494e-01 -1.265902966260910034e-01 9.108057245612144470e-03 -1.325116902589797974e-01 3.651387989521026611e-02 -1.859328746795654297e-01 -1.943723857402801514e-02 -1.051651313900947571e-01 1.488253176212310791e-01 -5.310001596808433533e-02 1.685137674212455750e-02 -2.623816207051277161e-02 8.503191918134689331e-02 1.101122871041297913e-01 1.779062151908874512e-01 1.226839050650596619e-01 1.848918348550796509e-01 -2.050385326147079468e-01 -9.458318352699279785e-03 2.041426748037338257e-01 1.201113089919090271e-01 -1.365214884281158447e-01 9.710046648979187012e-02 8.452375233173370361e-02 1.525501310825347900e-01 1.131901964545249939e-01 -1.202796846628189087e-01 -1.664463728666305542e-01 8.209367841482162476e-02 -1.285067051649093628e-01 -2.288416624069213867e-01 -2.239380627870559692e-01 1.396203339099884033e-01 -2.405305951833724976e-01 -1.848226189613342285e-01 -2.894826419651508331e-02 1.966052651405334473e-01 1.877455040812492371e-02 7.964549213647842407e-02 2.144840173423290253e-02 6.575258821249008179e-02 1.276435554027557373e-01 6.251507997512817383e-02 8.970563299953937531e-03 -1.108966395258903503e-01 -1.542826443910598755e-01 -1.192336529493331909e-01 -9.283592551946640015e-02 -6.484803557395935059e-02 2.085820138454437256e-01
1.659440845251083374e-01 7.646871358156204224e-02 2.887776792049407959e-01 4.974797740578651428e-02 3.090265765786170959e-02 2.630155682563781738e-01 -1.270282715559005737e-01 1.299576908349990845e-01 9.543638676404953003e-02 -1.666618734598159790e-01 -2.491884864866733551e-02 8.935482054948806763e-02 -9.738959372043609619e-02 -2.084783017635345459e-01 -4.873454198241233826e-02 1.060146559029817581e-02 2.709410898387432098e-02 -1.920433938503265381e-01 8.589144796133041382e-02 -9.811718016862869263e-02 -1.740908771753311157e-01 -6.364165991544723511e-02 -7.094410806894302368e-02 -2.076202444732189178e-02 -2.128264680504798889e-02 1.181724220514297485e-01 1.961054056882858276e-01 -3.252878319472074509e-03 6.828122586011886597e-02 1.488994657993316650e-01 8.716636151075363159e-02 -1.865683645009994507e-01 1.171753033995628357e-01 8.426500111818313599e-02 -8.628010004758834839e-02 -2.888561598956584930e-02 -1.362685263156890869e-01 -2.037137448787689209e-01 -1.159649193286895752e-01 5.229891836643218994e-02 2.125037088990211487e-02 1.578388810157775879e-01 9.919777512550354004e-02 -2.390647828578948975e-01 -4.015157464891672134e-03 -8.636108785867691040e-02 -5.623041838407516479e-02 -1.442632824182510376e-02 -1.076542511582374573e-01 7.983006536960601807e-02 1.306278854608535767e-01 1.251287665218114853e-02 -2.469187602400779724e-02 9.990304708480834961e-02 -4.583847522735595703e-02 7.019315380603075027e-03 -1.615759171545505524e-02 2.012142091989517212e-01 5.020372569561004639e-02 1.475305706262588501e-01 -1.806020587682723999e-01 -2.891855686902999878e-02 -1.465135067701339722e-01 1.100082546472549438e-01
1.732080131769180298e-01 1.927084662020206451e-02 2.375530824065208435e-02 8.310490846633911133e-02 -1.955719739198684692e-01 1.959311664104461670e-01 4.352027922868728638e-02 -1.901646256446838379e-01 5.276855453848838806e-02 -3.667233511805534363e-02 1.880012825131416321e-02 -1.213846430182456970e-01 -1.003335639834403992e-01 6.680700462311506271e-03 -1.014795526862144470e-01 5.092242266982793808e-03 8.977765589952468872e-02 -4.677475243806838989e-02 -3.602298721671104431e-02 1.629652827978134155e-01 -1.066749691963195801e-01 -2.184241712093353271e-01 -1.335205137729644775e-01 2.225334942340850830e-02 -1.026311293244361877e-01 1.319234371185302734e-01 5.126922205090522766e-02 1.846477091312408447e-01 1.628753542900085449e-01 -3.663825988769531250e-02 1.817149072885513306e-01 -3.005337901413440704e-02 1.454834640026092529e-01 -1.624558717012405396e-01 4.365470632910728455e-02 1.328199058771133423e-01 -7.530876249074935913e-02 -7.301329076290130615e-02 1.600427329540252686e-01 -1.027948409318923950e-01 -1.359780281782150269e-01 -3.647880628705024719e-02 6.630458682775497437e-02 -3.200490400195121765e-02 -1.436317265033721924e-01 -1.960140615701675415e-01 1.377670764923095703e-01 -7.056599110364913940e-02 -1.846186816692352295e-01 7.449685037136077881e-02 1.612711697816848755e-01 -5.246641486883163452e-02 7.581496983766555786e-02 2.933030761778354645e-02 -1.579162180423736572e-01 1.005300227552652359e-02 -3.159715235233306885e-02 1.998484581708908081e-01 -4.255170375108718872e-02 8.350031822919845581e-02 4.620692506432533264e-02 -9.508793056011199951e-02 -1.358856409788131714e-01 -9.428039938211441040e-02
1.467171460390090942e-01 1.127755045890808105e-01 1.879476010799407959e-02 7.048140466213226318e-02 4.188616573810577393e-02 -7.139773666858673096e-02 3.303340077400207520e-02 -1.540199667215347290e-01 6.993468105792999268e-02 -1.167997419834136963e-01 9.563783556222915649e-02 1.755695194005966187e-01 4.268869012594223022e-02 1.941031217575073242e-02 -1.228365674614906311e-01 -2.372979372739791870e-02 2.501413226127624512e-03 1.040451303124427795e-01 -1.222916319966316223e-01 1.693593859672546387e-01 -1.604891940951347351e-02 -3.023205697536468506e-02 1.103535443544387817e-01 1.368556916713714600e-01 -1.075718179345130920e-01 1.561838537454605103e-01 -4.838681221008300781e-02 -1.333615183830261230e-01 -1.096711158752441406e-01 -1.016775220632553101e-01 -5.935899168252944946e-02 -6.100714206695556641e-02 -1.501360535621643066e-01 8.369004726409912109e-02 9.951075771823525429e-04 6.291984766721725464e-02 1.599082648754119873e-01 -2.188463229686021805e-03 -1.275927126407623291e-01 -7.695836573839187622e-02 -8.805821090936660767e-02 1.330342143774032593e-01 1.580715924501419067e-02 -1.424749195575714111e-02 -9.465393424034118652e-02 -1.260055229067802429e-02 1.203213259577751160e-01 -1.514050364494323730e-02 -1.097586527466773987e-01 1.911266148090362549e-02 -1.360036879777908325e-01 -3.009795024991035461e-02 5.330872535705566406e-02 2.787049114704132080e-02 4.319229722023010254e-02 1.006183773279190063e-01 1.408349722623825073e-01 -9.334142506122589111e-02 1.399042308330535889e-01 -1.134555712342262268e-01 -1.012375429272651672e-01 -1.638631969690322876e-01 1.437238007783889771e-01 -8.467563241720199585e-02
-3.818504139780998230e-02 8.001907914876937866e-02 -1.538543254137039185e-01 -8.146191388368606567e-02 3.108264505863189697e-02 6.154735572636127472e-03 1.171059161424636841e-01 8.964025229215621948e-02 -9.314922988414764404e-02 3.959511965513229370e-02 1.584850400686264038e-01 2.760352194309234619e-01 1.497338861227035522e-01 -2.252718620002269745e-02 1.458505392074584961e-01 -4.123981297016143799e-02 1.766355931758880615e-01 7.352292537689208984e-02 -1.342802643775939941e-01 -1.235272288322448730e-01 1.115926429629325867e-01 -6.181537359952926636e-02 1.489989012479782104e-01 4.658969119191169739e-02 4.469932243227958679e-02 1.277372390031814575e-01 -1.914053559303283691e-01 -1.430316716432571411e-01 -7.597348839044570923e-02 1.537070125341415405e-01 -1.787676066160202026e-01 3.825452411547303200e-03 7.675424218177795410e-02 6.964236497879028320e-02 -1.315992907620966434e-03 4.139265790581703186e-02 9.364813566207885742e-02 1.139688268303871155e-01 3.653405606746673584e-02 -1.544015556573867798e-01 5.117209255695343018e-02 -1.591584086418151855e-01 -1.918538659811019897e-01 -9.650152921676635742e-02 8.285832405090332031e-02 -9.898905456066131592e-02 -1.611742191016674042e-02 8.010142296552658081e-02 8.976468816399574280e-03 1.926360428333282471e-01 1.082248464226722717e-01 -4.576621577143669128e-02 1.952310204505920410e-01 7.928864099085330963e-03 8.328758925199508667e-02 -1.515975892543792725e-01 1.437161117792129517e-01 -1.423458307981491089e-01 -5.951806530356407166e-02 1.760752201080322266e-01 2.002020627260208130e-01 -1.226160302758216858e-01 3.013128601014614105e-02 -1.157501935958862305e-01
-2.362762689590454102e-01 -1.384397149085998535e-01 -2.119018137454986572e-02 -5.340033769607543945e-02 4.226937517523765564e-02 -1.089636003598570824e-03 2.407479137182235718e-01 1.323853433132171631e-01 -2.821222133934497833e-02 6.588897667825222015e-03 -8.520664274692535400e-02 5.363422259688377380e-02 1.593716070055961609e-02 -1.300234198570251465e-01 -6.974332034587860107e-02 2.217159569263458252e-01 1.928959339857101440e-01 1.568156778812408447e-01 6.048510223627090454e-02 5.029224231839179993e-02 1.632700301706790924e-02 -3.498553112149238586e-02 8.038383722305297852e-02 2.226110547780990601e-02 2.495224401354789734e-02 3.398720920085906982e-02 1.423726230859756470e-01 1.553949862718582153e-01 4.031651839613914490e-02 -6.480696052312850952e-02 6.938752532005310059e-02 3.993806988000869751e-02 2.218749932944774628e-02 2.069902122020721436e-01 -8.154395967721939087e-03 2.024640142917633057e-02 -6.691967695951461792e-02 -2.999091707170009613e-02 -1.178850457072257996e-01 -9.115489199757575989e-03 2.210922837257385254e-01 -1.288980096578598022e-01 2.359197847545146942e-02 1.942663490772247314e-01 -5.085556581616401672e-02 9.394989162683486938e-02 7.814631611108779907e-02 -1.758380383253097534e-01 7.194641977548599243e-02 3.357467800378799438e-02 3.748689964413642883e-02 4.434672743082046509e-02 -3.551319986581802368e-02 5.359389632940292358e-02 -1.476479917764663696e-01 -2.243197709321975708e-02 -2.381455898284912109e-02 -1.906216591596603394e-01 3.535244241356849670e-02 1.978920251131057739e-01 2.292674630880355835e-01 -7.987733185291290283e-02 7.888149470090866089e-02 -1.899297833442687988e-01
1.055227816104888916e-01 -2.764281630516052246e-02 -1.297047585248947144e-01 -1.535590887069702148e-01 -1.035295575857162476e-01 -2.071414701640605927e-02 -1.536046564579010010e-01 1.386193186044692993e-01 -1.699641346931457520e-01 -9.655614942312240601e-02 -9.196547418832778931e-02 1.331570893526077271e-01 1.527456790208816528e-01 1.175444647669792175e-01 7.498131692409515381e-02 -4.917357861995697021e-02 -1.221742779016494751e-01 8.987887948751449585e-02 -1.789181493222713470e-02 -1.553036719560623169e-01 -9.081726893782615662e-04 -4.679694771766662598e-02 -1.252542436122894287e-01 3.502136841416358948e-02 -7.937629520893096924e-02 -1.762889442034065723e-03 9.013905376195907593e-02 -1.121748909354209900e-01 8.408362418413162231e-02 1.497626006603240967e-01 -4.163603112101554871e-02 -1.269458383321762085e-01 1.759852468967437744e-02 4.883414879441261292e-02 1.228098794817924500e-01 -2.869720105081796646e-03 -7.844092696905136108e-02 -1.001885086297988892e-01 -2.336226217448711395e-02 6.750185787677764893e-02 5.271438509225845337e-02 7.383672147989273071e-02 -7.214009761810302734e-02 -4.801730811595916748e-02 -5.985646694898605347e-02 -1.816859655082225800e-02 1.240580528974533081e-01 7.011697441339492798e-02 -8.809422701597213745e-02 4.980459809303283691e-02 -3.441127715632319450e-03 5.692579783499240875e-03 -6.066380068659782410e-02 8.810282498598098755e-02 8.807721547782421112e-03 -5.545871332287788391e-02 1.201014220714569092e-01 1.243589892983436584e-01 1.684990227222442627e-01 -3.550400212407112122e-02 9.987246245145797729e-02 6.649952381849288940e-02 -4.506015777587890625e-02 -1.029555052518844604e-01
-2.798680402338504791e-02 5.831549316644668579e-02 2.116167545318603516e-02 -1.532468944787979126e-01 -1.530086100101470947e-01 -1.540908813476562500e-01 -1.060578301548957825e-01 -7.512891292572021484e-02 9.833978861570358276e-02 5.285003408789634705e-02 6.795226782560348511e-02 -1.314685344696044922e-01 -4.968813806772232056e-02 -6.772194057703018188e-02 -1.652610749006271362e-01 1.166283264756202698e-01 6.878386437892913818e-02 7.129157334566116333e-02 1.185029447078704834e-01 2.930373698472976685e-02 1.043664216995239258e-01 3.956526983529329300e-03 -8.343415334820747375e-03 -2.568851225078105927e-02 -1.303425580263137817e-01 1.024389863014221191e-01 1.308020204305648804e-01 1.714264303445816040e-01 1.752765178680419922e-01 3.247664123773574829e-02 3.198617696762084961e-02 2.565461397171020508e-02 2.428387105464935303e-02 1.024736166000366211e-01 5.394686758518218994e-02 -7.532177865505218506e-02 1.536209881305694580e-01 8.819410949945449829e-02 -1.027720123529434204e-01 1.251559555530548096e-01 -4.532042145729064941e-02 -9.395045042037963867e-02 -1.498377770185470581e-01 2.331452630460262299e-02 7.056483626365661621e-02 1.661975383758544922e-01 6.161618977785110474e-02 1.112390831112861633e-01 1.240911632776260376e-01 1.755456626415252686e-02 -1.119373440742492676e-01 1.669245064258575439e-01 -1.314480900764465332e-01 -7.569548487663269043e-02 -9.474390000104904175e-02 7.158313691616058350e-02 1.433616876602172852e-01 -1.456595361232757568e-01 1.546231657266616821e-01 4.844868555665016174e-03 -9.633101522922515869e-02 7.708341628313064575e-02 7.221309095621109009e-02 1.390403695404529572e-02
-4.668189212679862976e-02 3.352569788694381714e-02 1.252218782901763916e-01 -5.015750229358673096e-02 -1.561516821384429932e-01 -4.511067271232604980e-02 -1.124194711446762085e-01 7.758278399705886841e-02 1.307441741228103638e-01 1.615115255117416382e-01 1.631611436605453491e-01 9.269907139241695404e-03 -2.981368079781532288e-02 -1.945340447127819061e-02 -2.968372032046318054e-02 -8.252272009849548340e-02 -1.059952303767204285e-01 1.881253123283386230e-01 7.792491465806961060e-02 1.821754872798919678e-01 -1.849353015422821045e-01 -3.176030516624450684e-02 9.449557960033416748e-02 5.726900324225425720e-02 2.690809220075607300e-02 -1.624663546681404114e-02 -1.504104770720005035e-02 9.921102970838546753e-02 4.502581432461738586e-02 -7.121122628450393677e-02 1.474923938512802124e-01 -1.419091224670410156e-01 9.240102767944335938e-02 -2.205045334994792938e-02 -4.346489161252975464e-02 1.621327400207519531e-01 2.035555243492126465e-02 -2.458144910633563995e-02 -5.546990409493446350e-02 2.130815982818603516e-01 -9.354725480079650879e-02 6.812011450529098511e-02 1.506219804286956787e-02 1.234048008918762207e-01 -5.459490418434143066e-02 -1.741679608821868896e-01 6.421541422605514526e-02 1.683952403254806995e-03 -1.172062456607818604e-01 -1.220784708857536316e-01 -4.235085472464561462e-02 1.375589668750762939e-01 -8.078588545322418213e-02 9.667090326547622681e-02 6.708756089210510254e-02 5.636160820722579956e-02 -1.454561799764633179e-01 1.317439228296279907e-01 -9.604966640472412109e-02 6.986603606492280960e-03 6.725752260535955429e-03 5.941173061728477478e-02 9.975349158048629761e-02 6.043113395571708679e-02
-1.451983749866485596e-01 -5.041670799255371094e-02 -8.060371130704879761e-02 -3.786969557404518127e-02 -1.274916827678680420e-01 -5.165791884064674377e-02 -4.431854933500289917e-02 1.009229645133018494e-01 -1.091531068086624146e-01 -7.774364948272705078e-02 1.746498048305511475e-02 5.177529156208038330e-02 6.030355766415596008e-02 5.221571028232574463e-02 1.072743013501167297e-01 -8.539079129695892334e-02 -3.784652054309844971e-02 4.340745881199836731e-02 -6.763853132724761963e-02 -1.756359189748764038e-01 1.701252609491348267e-01 7.548788189888000488e-02 -1.681453436613082886e-01 7.700823247432708740e-02 1.466241329908370972e-01 5.786168202757835388e-02 -7.412096112966537476e-02 1.461771130561828613e-02 7.799641042947769165e-02 -9.655452519655227661e-02 1.063439063727855682e-02 -1.647780686616897583e-01 -1.201785355806350708e-01 -1.050754263997077942e-01 -7.722292095422744751e-02 9.204038232564926147e-02 -4.858833178877830505e-02 -4.530668258666992188e-02 -1.754030734300613403e-01 6.963595002889633179e-02 -2.017185091972351074e-03 9.701789170503616333e-02 7.179135084152221680e-02 1.250994652509689331e-01 1.607787311077117920e-01 -1.535600721836090088e-01 2.733209356665611267e-02 -3.193321451544761658e-02 1.156850606203079224e-01 -1.220974251627922058e-01 -9.356311708688735962e-02 3.213485702872276306e-02 -4.985904693603515625e-02 8.293344825506210327e-02 -1.516445130109786987e-01 -5.561176314949989319e-02 -1.005305349826812744e-02 1.252418607473373413e-01 1.512596011161804199e-01 6.810577213764190674e-02 2.745672501623630524e-02 1.541683524847030640e-01 2.972440421581268311e-02 1.751497238874435425e-01
6.891461461782455444e-02 1.712254248559474945e-02 1.183600202202796936e-01 6.588263064622879028e-02 -3.060130216181278229e-02 2.547498419880867004e-02 1.066044420003890991e-01 -1.818762719631195068e-01 1.203802004456520081e-01 -1.590939015150070190e-01 2.092387676239013672e-01 -1.161887496709823608e-01 1.570354849100112915e-01 -1.782716512680053711e-01 -1.370327621698379517e-01 -6.800595670938491821e-02 8.257637917995452881e-02 2.043784111738204956e-01 -6.771536171436309814e-02 1.217383332550525665e-02 2.532404102385044098e-02 1.245655193924903870e-01 -1.415447443723678589e-01 1.721259653568267822e-01 -4.060429334640502930e-02 -4.583119601011276245e-02 -6.863095611333847046e-02 -1.051654368638992310e-01 -1.100036352872848511e-01 1.552107185125350952e-01 -9.245566278696060181e-02 3.454724326729774475e-02 -1.107908859848976135e-01 5.676698312163352966e-02 2.040620595216751099e-01 -3.712970018386840820e-02 -8.713875710964202881e-02 1.344965845346450806e-01 3.147563338279724121e-02 1.611147969961166382e-01 -6.115613505244255066e-02 3.995598480105400085e-02 3.418251499533653259e-02 7.510571926832199097e-02 -1.694696694612503052e-01 7.900486886501312256e-02 2.138471603393554688e-01 -1.032742857933044434e-01 -1.207852214574813843e-01 1.126632094383239746e-01 1.248653903603553772e-01 9.163860231637954712e-02 -2.575942873954772949e-02 -1.096919551491737366e-01 -1.551054883748292923e-02 4.171548783779144287e-02 1.077180430293083191e-01 -3.417328372597694397e-02 8.302071690559387207e-02 2.004762291908264160e-01 -9.485270082950592041e-02 -8.266159147024154663e-02 4.934471473097801208e-02 6.958632916212081909e-02
3.721849247813224792e-02 1.084998175501823425e-01 -2.374351397156715393e-02 -1.159421801567077637e-01 6.781052052974700928e-02 4.030935000628232956e-03 1.006150022149085999e-01 -1.472036391496658325e-01 5.536736175417900085e-02 -1.818758696317672729e-01 1.025840193033218384e-01 1.942848265171051025e-01 -1.841329783201217651e-01 6.743498891592025757e-02 -1.947146281599998474e-02 6.328482180833816528e-02 -5.777536705136299133e-02 -1.707036495208740234e-01 1.395735293626785278e-01 -1.026386022567749023e-01 -1.763433665037155151e-01 1.484448015689849854e-01 1.622770875692367554e-01 -5.184011906385421753e-02 1.234782934188842773e-01 -5.122372135519981384e-02 3.324779123067855835e-02 1.044563055038452148e-01 -1.692330390214920044e-01 2.036601305007934570e-01 1.175010874867439270e-01 -1.441444158554077148e-01 7.354869693517684937e-02 3.232386708259582520e-01 -1.523164957761764526e-01 -5.059060081839561462e-02 1.343476325273513794e-01 -3.973953798413276672e-02 1.809310317039489746e-01 -1.939570754766464233e-01 1.777684092521667480e-01 -1.224448010325431824e-01 -1.820987164974212646e-01 -9.217929840087890625e-02 2.583360113203525543e-02 -5.760763213038444519e-02 -7.153998315334320068e-02 7.011730968952178955e-02 1.983105838298797607e-01 -6.417271494865417480e-02 3.203994408249855042e-02 1.068317443132400513e-01 7.578527182340621948e-02 -5.816663429141044617e-02 1.267350614070892334e-01 -7.435436546802520752e-02 -7.313185185194015503e-02 6.036183238029479980e-02 -1.079624518752098083e-01 1.161881536245346069e-01 -3.424927964806556702e-02 1.740254908800125122e-01 -1.475277990102767944e-01 7.839959859848022461e-02
7.552299648523330688e-02 -1.495097726583480835e-01 -8.619705587625503540e-02 -1.666988134384155273e-01 -1.521901488304138184e-01 -9.847608208656311035e-02 -1.320291012525558472e-01 5.170940235257148743e-02 -1.212435886263847351e-01 -8.522079885005950928e-02 1.322779655456542969e-01 -9.075935184955596924e-02 8.021081238985061646e-02 -1.673561781644821167e-01 -9.805245697498321533e-02 -5.619803071022033691e-02 8.232987672090530396e-02 8.935936540365219116e-02 2.298113424330949783e-03 -1.580408215522766113e-02 -4.717833548784255981e-02 1.180832162499427795e-01 3.074250556528568268e-02 1.300314515829086304e-01 -1.593315750360488892e-01 -1.185491383075714111e-01 -6.655136239714920521e-04 6.870464980602264404e-02 5.358421429991722107e-02 -6.603875756263732910e-02 7.904867827892303467e-02 -7.520745508372783661e-03 3.510779887437820435e-02 1.359665691852569580e-01 -3.012498281896114349e-02 7.514046877622604370e-02 -1.341824233531951904e-01 3.169144317507743835e-02 -1.070288419723510742e-01 3.993129357695579529e-02 -1.996670849621295929e-02 -1.041399911046028137e-01 7.422089576721191406e-02 1.266401261091232300e-01 -1.627013273537158966e-02 -6.245684251189231873e-02 -1.407290846109390259e-01 1.151772141456604004e-01 1.494657546281814575e-01 1.904794126749038696e-01 5.430734530091285706e-02 -1.294970512390136719e-01 -1.322650909423828125e-01 -1.704054325819015503e-01 -4.188224673271179199e-03 -1.328724473714828491e-01 -4.029350727796554565e-02 4.589735716581344604e-02 1.144764274358749390e-01 -1.303929537534713745e-01 1.457076221704483032e-01 7.787098735570907593e-02 5.384361371397972107e-02 -8.290955424308776855e-02
1.326254904270172119e-01 1.137127280235290527e-01 -1.788546890020370483e-01 -9.159199893474578857e-03 -1.919873356819152832e-01 -1.542145311832427979e-01 1.362400352954864502e-01 -2.024391740560531616e-01 8.651500195264816284e-02 -1.011625956743955612e-02 -1.863200962543487549e-01 -5.464575439691543579e-02 -3.625804558396339417e-02 2.453078748658299446e-03 -8.911933749914169312e-02 9.765819646418094635e-03 -1.428693681955337524e-01 1.955464780330657959e-01 2.835078630596399307e-03 -2.122225798666477203e-02 -1.599334180355072021e-01 3.091757558286190033e-02 -7.553884387016296387e-02 -1.839488372206687927e-02 -6.185049563646316528e-02 2.004911452531814575e-01 -1.600427776575088501e-01 -2.664342336356639862e-02 -1.329715996980667114e-01 -1.657733917236328125e-01 -7.367672026157379150e-02 -5.502612516283988953e-02 -1.191650629043579102e-01 8.281839638948440552e-02 -1.124294288456439972e-02 -1.347414553165435791e-01 5.641530733555555344e-03 -4.457080364227294922e-02 -8.824147284030914307e-02 -1.698998510837554932e-01 -1.255852431058883667e-01 -1.963480561971664429e-01 -1.147601380944252014e-01 1.497461497783660889e-01 -7.655434310436248779e-02 5.715592578053474426e-02 -7.829973101615905762e-02 6.309530697762966156e-03 -4.848846048116683960e-02 -5.313582718372344971e-02 -4.695146158337593079e-02 -1.525735855102539062e-01 -6.022111326456069946e-02 9.544053673744201660e-02 -4.421835765242576599e-02 3.240597620606422424e-02 1.979220360517501831e-01 -1.149021759629249573e-01 1.516533344984054565e-01 1.367818862199783325e-01 -8.966162055730819702e-02 -1.446098089218139648e-01 2.280516624450683594e-01 -1.262684315443038940e-01
8.342482894659042358e-02 -7.873740047216415405e-02 1.266231089830398560e-01 -6.248164921998977661e-02 1.443871017545461655e-02 1.917691975831985474e-01 -1.650387644767761230e-01 2.010699808597564697e-01 2.963486686348915100e-02 -3.383113071322441101e-02 -1.181485503911972046e-01 1.554555296897888184e-01 -1.387219130992889404e-01 1.840288937091827393e-01 -4.609009774867445230e-04 2.459855675697326660e-01 8.461098372936248779e-02 1.041321642696857452e-02 3.480374813079833984e-02 -8.224976062774658203e-02 -1.915753781795501709e-01 2.114954590797424316e-01 2.471657991409301758e-01 -9.573223441839218140e-02 2.024039328098297119e-01 -1.528529673814773560e-01 -4.157978296279907227e-02 -1.835407763719558716e-01 -7.813920825719833374e-02 -1.820812970399856567e-01 -1.200331225991249084e-01 -3.232945129275321960e-02 -1.094361916184425354e-01 -9.038141928613185883e-03 -2.420053780078887939e-01 -1.588316112756729126e-01 -3.300264105200767517e-02 -1.916998922824859619e-01 2.814129292964935303e-01 -7.682864367961883545e-02 -1.454234421253204346e-01 8.313176780939102173e-02 2.814627625048160553e-02 -1.860049813985824585e-01 8.950153738260269165e-02 4.446372855454683304e-03 7.041450589895248413e-02 3.086176514625549316e-02 2.673506438732147217e-01 6.895347684621810913e-02 -5.786611512303352356e-02 3.277416154742240906e-02 -1.917514950037002563e-01 1.782219856977462769e-02 2.089123576879501343e-01 -1.019883528351783752e-02 -4.315279889851808548e-03 -9.332235902547836304e-02 -1.016610637307167053e-01 1.535964459180831909e-01 -1.775100231170654297e-01 -9.930536150932312012e-02 1.774129569530487061e-01 -3.443077579140663147e-02
1.251255422830581665e-01 8.421188592910766602e-02 1.071612834930419922e-01 1.510958075523376465e-01 1.333498507738113403e-01 1.172394752502441406e-01 -1.681215465068817139e-01 -9.120935201644897461e-02 2.738900668919086456e-02 4.883706197142601013e-02 -1.671480387449264526e-01 2.033691108226776123e-02 -1.002382785081863403e-01 -8.485214784741401672e-03 -1.083459239453077316e-02 7.067002356052398682e-02 8.538176119327545166e-02 7.705361396074295044e-02 -7.615753263235092163e-02 -3.742296248674392700e-02 -5.449637770652770996e-02 3.667207434773445129e-02 -3.466838970780372620e-02 6.387528777122497559e-02 -1.217628940939903259e-01 1.781348139047622681e-01 2.131283283233642578e-03 8.899794518947601318e-02 -5.331727117300033569e-02 1.372441947460174561e-01 1.447294354438781738e-01 -4.506644606590270996e-02 1.624301224946975708e-01 4.390171915292739868e-02 -1.231902614235877991e-01 4.356174916028976440e-02 1.623370349407196045e-01 5.093182623386383057e-02 1.700773388147354126e-01 4.165754187852144241e-03 1.053901389241218567e-01 1.249741390347480774e-01 1.053700149059295654e-01 -2.840304747223854065e-03 -1.177374720573425293e-01 -4.953338578343391418e-02 1.486108172684907913e-02 -6.585356593132019043e-02 5.628357827663421631e-02 2.389267086982727051e-03 3.275302425026893616e-02 1.409568488597869873e-01 -1.281678527593612671e-01 -1.480926424264907837e-01 -1.422390341758728027e-01 -1.710270643234252930e-01 -1.385632902383804321e-01 4.943477734923362732e-02 7.043566554784774780e-02 2.914205566048622131e-02 -4.566762968897819519e-02 -9.978086501359939575e-02 1.368205547332763672e-01 1.491667479276657104e-01
-1.327662020921707153e-01 6.335073709487915039e-02 2.930102311074733734e-02 -2.530686557292938232e-01 -1.499497294425964355e-01 5.906761437654495239e-02 2.242504619061946869e-02 2.509242296218872070e-01 1.109706237912178040e-01 -1.607407182455062866e-01 -1.734178699553012848e-02 -6.400952488183975220e-02 -1.907056570053100586e-01 -4.668329842388629913e-03 1.233048439025878906e-01 -1.620825380086898804e-01 -2.497442252933979034e-02 5.985627323389053345e-02 -4.372143000364303589e-02 2.232219278812408447e-01 -1.706339567899703979e-01 1.180130541324615479e-01 -7.919148355722427368e-02 1.148173138499259949e-01 -4.755857586860656738e-02 -1.475106477737426758e-01 -8.168008923530578613e-02 7.540231198072433472e-02 1.082028374075889587e-01 5.130364745855331421e-02 -2.157932333648204803e-02 -1.441773325204849243e-01 -6.752808392047882080e-02 1.435041725635528564e-01 1.699417531490325928e-01 1.083389297127723694e-01 2.660566866397857666e-01 -6.888983398675918579e-02 5.596819892525672913e-02 3.049167804419994354e-02 -2.030554227530956268e-02 -1.588300615549087524e-01 7.030311226844787598e-02 -8.348126709461212158e-02 -3.533704951405525208e-02 -8.068312890827655792e-03 -1.378010660409927368e-01 -7.291537523269653320e-02 -2.131493389606475830e-02 -1.778583228588104248e-01 -6.459703296422958374e-02 2.769335210323333740e-01 3.219264745712280273e-02 -8.110260218381881714e-02 -7.308489829301834106e-02 -3.822070313617587090e-03 1.115602776408195496e-01 1.828526705503463745e-01 2.009284653468057513e-04 -1.221879571676254272e-01 -6.807316094636917114e-02 1.382239609956741333e-01 -1.612632721662521362e-01 1.047886535525321960e-01
4.935314506292343140e-02 1.612879335880279541e-01 9.102749824523925781e-02 8.016802021302282810e-04 2.096113748848438263e-02 1.020414680242538452e-01 1.609212309122085571e-01 8.095526695251464844e-02 -4.462839104235172272e-03 1.312036067247390747e-02 -2.043658196926116943e-01 9.382889419794082642e-02 -6.307720392942428589e-02 9.389656037092208862e-02 -1.387151278322562575e-04 -1.077201813459396362e-01 5.844197422266006470e-02 9.326292574405670166e-02 -2.399206310510635376e-01 1.355107575654983521e-01 -1.556290686130523682e-01 -2.270347028970718384e-01 8.967056870460510254e-02 -2.875012531876564026e-02 -5.345345661044120789e-02 -5.028131604194641113e-02 -1.019216775894165039e-01 -1.625085473060607910e-01 1.177353337407112122e-01 -1.232022643089294434e-01 -1.258123815059661865e-01 1.112032234668731689e-01 1.064575556665658951e-02 -1.660215258598327637e-01 -1.785849630832672119e-01 1.315472871065139771e-01 9.362032264471054077e-02 1.642351448535919189e-01 -6.150602921843528748e-02 -1.149959415197372437e-01 -1.315202414989471436e-01 -5.903786420822143555e-02 -8.923735469579696655e-02 1.472459435462951660e-01 2.098576575517654419e-01 2.114589214324951172e-01 4.519702494144439697e-02 -7.534056901931762695e-02 1.843345165252685547e-01 1.322822570800781250e-01 -3.567976644262671471e-03 1.841515153646469116e-01 -1.696655601263046265e-01 -1.904491521418094635e-02 -1.251585595309734344e-02 -1.713093519210815430e-01 1.584209688007831573e-02 -7.244903594255447388e-02 1.377543509006500244e-01 1.082751005887985229e-01 1.566462814807891846e-01 1.043116152286529541e-01 -4.906295984983444214e-02 5.992176756262779236e-02
-5.669552460312843323e-02 1.395476758480072021e-01 -4.651835560798645020e-02 -4.054336622357368469e-02 3.985506296157836914e-02 7.030590623617172241e-02 1.655967384576797485e-01 -3.601818752940744162e-04 9.320298582315444946e-02 1.618472784757614136e-01 9.190793335437774658e-02 7.799418270587921143e-02 2.613448724150657654e-02 4.368048906326293945e-02 1.115248203277587891e-01 -1.490646749734878540e-01 -1.389079093933105469e-01 -6.161915138363838196e-02 4.967971518635749817e-02 -7.331065088510513306e-02 -1.030871868133544922e-01 1.792227327823638916e-01 -1.865235269069671631e-01 1.138855591416358948e-01 1.267594844102859497e-01 -1.338482946157455444e-01 1.249093562364578247e-01 1.621491760015487671e-01 -1.387463957071304321e-01 4.477510601282119751e-02 1.167085021734237671e-01 -1.393883973360061646e-01 1.059961169958114624e-01 -1.076109707355499268e-01 -1.664751321077346802e-01 1.541328728199005127e-01 -1.683050021529197693e-02 -1.428507268428802490e-01 2.444593608379364014e-02 7.411948591470718384e-02 1.510851532220840454e-01 1.022513210773468018e-01 6.117727980017662048e-02 1.413910835981369019e-01 4.573619738221168518e-02 -1.635321825742721558e-01 6.246631219983100891e-02 1.642239540815353394e-01 4.041562974452972412e-02 1.996989548206329346e-02 -1.257106363773345947e-01 -8.734333515167236328e-02 -1.519026756286621094e-01 -1.382275819778442383e-01 -2.596662379801273346e-02 -4.654844105243682861e-02 -1.647871546447277069e-02 -1.366390138864517212e-01 -1.111337095499038696e-01 1.709833368659019470e-02 1.042993739247322083e-01 1.620418280363082886e-01 -9.887015074491500854e-02 -1.454400569200515747e-01
-4.366012290120124817e-03 7.009323686361312866e-02 -1.523244827985763550e-01 -2.025856077671051025e-02 -1.552467495203018188e-01 1.396840997040271759e-02 -1.277663856744766235e-01 -1.477007637731730938e-03 1.838484108448028564e-01 -2.502817846834659576e-02 -1.551776826381683350e-01 8.329446613788604736e-02 7.930851727724075317e-02 -1.261767297983169556e-01 7.270865142345428467e-02 -8.082259446382522583e-02 1.210395619273185730e-01 -4.523542150855064392e-02 -5.735075846314430237e-02 5.788102746009826660e-02 4.149356856942176819e-02 2.774044871330261230e-01 1.384913325309753418e-01 1.448259353637695312e-01 1.091511175036430359e-01 1.426912397146224976e-01 9.312383830547332764e-02 1.789523959159851074e-01 -1.251417212188243866e-02 1.531175225973129272e-01 -7.819708436727523804e-02 1.438761875033378601e-02 2.207277715206146240e-01 1.139064431190490723e-01 3.051676787436008453e-02 1.306202262639999390e-01 8.941821753978729248e-02 6.975429505109786987e-02 -1.366274207830429077e-01 5.058736354112625122e-02 2.194770723581314087e-01 8.039027452468872070e-02 -2.471084333956241608e-02 -1.486303061246871948e-01 -1.865993440151214600e-01 1.712235994637012482e-02 -3.165669366717338562e-02 8.222090452909469604e-02 3.463554196059703827e-03 -6.474624574184417725e-02 2.070858627557754517e-01 3.730003908276557922e-02 3.797915577888488770e-02 -4.339848237577825785e-04 -1.273946762084960938e-01 -1.575213074684143066e-01 1.064249873161315918e-01 1.689627319574356079e-01 -6.690333038568496704e-02 2.514189854264259338e-02 1.465214043855667114e-01 9.919070452451705933e-02 -2.953212708234786987e-02 5.244744196534156799e-02
2.745734527707099915e-02 -1.261544674634933472e-01 -2.888349443674087524e-02 6.195074319839477539e-02 9.307329356670379639e-02 -7.191777974367141724e-02 7.993459585122764111e-04 -1.322243213653564453e-01 -3.039372339844703674e-02 -8.144053071737289429e-02 -1.000955104827880859e-01 -3.895746916532516479e-02 -2.855656296014785767e-02 9.272927790880203247e-02 8.906872011721134186e-03 -1.620257198810577393e-01 1.335925012826919556e-01 1.132316067814826965e-01 1.131480373442173004e-02 -1.026750952005386353e-01 -3.714301064610481262e-02 1.681003570556640625e-01 9.510832279920578003e-02 9.829298406839370728e-02 6.809870898723602295e-02 -4.391184076666831970e-02 1.139200106263160706e-01 -1.190541759133338928e-01 8.828863501548767090e-02 1.550408750772476196e-01 -8.076046407222747803e-02 2.058831416070461273e-02 1.882461309432983398e-01 -1.581301689147949219e-01 1.363434344530105591e-01 1.731822192668914795e-01 -1.269784849137067795e-02 1.298388000577688217e-02 5.010828003287315369e-02 -1.836426705121994019e-01 -1.277306824922561646e-01 -1.780327223241329193e-02 -5.551689118146896362e-02 -1.720588770695030689e-03 2.528907358646392822e-02 1.381598412990570068e-01 -3.975963965058326721e-02 7.743049412965774536e-02 -1.364285349845886230e-01 -1.729637533426284790e-01 -2.737212739884853363e-02 2.393086440861225128e-03 -6.995750218629837036e-02 -1.144838482141494751e-01 -1.077807247638702393e-01 1.224049031734466553e-01 1.168655306100845337e-01 1.557990014553070068e-01 -1.190153416246175766e-02 -1.324892044067382812e-01 1.804414205253124237e-02 -4.008467122912406921e-02 6.022689864039421082e-03 9.231286495923995972e-02
6.750431656837463379e-02 -1.548326462507247925e-01 -1.898779533803462982e-02 -1.876690089702606201e-01 5.692350119352340698e-02 -5.893420055508613586e-02 -9.833338856697082520e-02 1.253921687602996826e-01 6.088557839393615723e-02 -1.021226495504379272e-01 -1.089555099606513977e-01 -1.619658023118972778e-01 1.509857177734375000e-01 2.681489568203687668e-03 -1.681421101093292236e-01 4.967081174254417419e-02 1.249993517994880676e-01 8.685357868671417236e-02 -2.537962980568408966e-02 1.967485994100570679e-01 1.255117654800415039e-01 8.688203245401382446e-02 -7.587773352861404419e-02 -1.631961017847061157e-01 1.698534488677978516e-01 -3.341609984636306763e-02 7.115909457206726074e-02 3.199144452810287476e-02 1.701189130544662476e-01 2.588928937911987305e-01 4.631117358803749084e-02 8.804048597812652588e-02 2.172201424837112427e-01 -1.476619094610214233e-01 -8.118984103202819824e-02 7.579154521226882935e-02 2.872097864747047424e-02 -1.803488731384277344e-01 -1.788312196731567383e-01 -4.784730076789855957e-02 7.112559676170349121e-02 2.035894989967346191e-01 1.299793571233749390e-01 -1.123914378695189953e-03 1.974569074809551239e-02 2.962051331996917725e-02 -1.344015300273895264e-01 -1.173793599009513855e-01 1.905883550643920898e-01 -5.978621169924736023e-02 -6.199728231877088547e-03 2.468556165695190430e-02 6.493339687585830688e-02 -8.729443699121475220e-02 9.032444655895233154e-02 -1.512160152196884155e-01 -3.367205848917365074e-03 -9.352267719805240631e-03 2.008325979113578796e-02 1.080075129866600037e-01 -4.006912931799888611e-02 -2.063198536634445190e-01 -1.851993352174758911e-01 -6.835460662841796875e-03
-5.986001342535018921e-03 -2.912382967770099640e-02 9.223297983407974243e-02 5.764749273657798767e-02 -8.325296640396118164e-02 -2.174930274486541748e-02 2.797772549092769623e-02 -1.448397785425186157e-01 5.050411913543939590e-03 -1.081070825457572937e-01 -8.432444930076599121e-02 6.110432744026184082e-02 -3.731809556484222412e-02 3.907340764999389648e-02 -6.990472227334976196e-02 8.389944210648536682e-03 1.622884720563888550e-01 1.431738585233688354e-01 1.695172637701034546e-01 9.123084694147109985e-02 -2.165225148200988770e-02 -1.073777750134468079e-01 -4.584922268986701965e-02 1.175118163228034973e-01 -2.565025351941585541e-02 4.636028036475181580e-02 -1.756012290716171265e-01 -7.245936989784240723e-02 1.501164287328720093e-01 1.152140498161315918e-01 9.781382977962493896e-02 -1.980549097061157227e-02 -4.191993176937103271e-02 6.198646500706672668e-02 1.393056660890579224e-01 1.133829876780509949e-01 6.581848859786987305e-02 6.619422137737274170e-02 7.589037716388702393e-02 -7.211150974035263062e-02 7.821805775165557861e-02 -6.346565485000610352e-02 -1.408098638057708740e-01 -1.161698773503303528e-01 8.131785690784454346e-02 1.607155799865722656e-01 1.171092167496681213e-01 7.833760976791381836e-02 1.162335202097892761e-01 -1.090856418013572693e-01 -1.598046869039535522e-01 1.426081061363220215e-01 5.560417100787162781e-02 -8.971270173788070679e-02 -8.549111336469650269e-02 -4.439951479434967041e-02 2.293994883075356483e-03 -6.429262459278106689e-02 8.440303616225719452e-03 6.282212585210800171e-02 -1.607416383922100067e-02 1.091692745685577393e-01 -1.440263837575912476e-01 9.943362092599272728e-04
5.626781284809112549e-02 2.037183046340942383e-01 -1.595574244856834412e-02 -1.699633523821830750e-02 -4.863650724291801453e-02 1.607238352298736572e-01 -1.472027152776718140e-01 -6.101436167955398560e-02 -8.149640262126922607e-02 1.618772298097610474e-01 1.159866079688072205e-01 1.021346673369407654e-01 -5.537980701774358749e-03 2.063175141811370850e-01 -9.466576389968395233e-03 2.149453908205032349e-01 -7.452868670225143433e-02 2.948265522718429565e-02 -5.695474147796630859e-02 -7.130698859691619873e-02 -2.271520793437957764e-01 -9.071080386638641357e-02 -9.031411260366439819e-02 -3.121783211827278137e-02 -2.155673354864120483e-01 -8.530341833829879761e-02 -1.497008651494979858e-01 -1.207987070083618164e-01 1.739519461989402771e-02 -4.482052475214004517e-02 1.350279599428176880e-01 2.288843132555484772e-02 6.299722008407115936e-03 1.228733211755752563e-01 6.697997450828552246e-02 1.431489586830139160e-01 9.245872206520289183e-05 -1.110052913427352905e-01 -3.631506487727165222e-02 -5.453188344836235046e-02 3.369054198265075684e-02 8.536837995052337646e-02 -1.132496166974306107e-02 -3.085797186940908432e-03 2.034205757081508636e-02 3.934978973120450974e-03 -1.625137478113174438e-01 4.387775436043739319e-02 9.222564846277236938e-02 1.746092736721038818e-01 -1.471769362688064575e-01 -3.904381766915321350e-02 -2.183594368398189545e-02 1.173691172152757645e-02 2.393116801977157593e-02 7.893592119216918945e-03 -2.096872031688690186e-01 1.079540401697158813e-01 -7.858145982027053833e-02 -1.767482310533523560e-01 1.767517030239105225e-01 3.959122672677040100e-02 -9.666825830936431885e-02 1.346734166145324707e-01
9.604880958795547485e-02 -9.186061471700668335e-02 -8.991891145706176758e-02 -1.332843452692031860e-01 -1.332412809133529663e-01 -2.012908309698104858e-01 1.109507009387016296e-01 -1.458419710397720337e-01 9.491319209337234497e-02 -8.190200477838516235e-02 1.207846403121948242e-01 -1.959705799818038940e-01 -3.466793149709701538e-02 6.011507660150527954e-02 -6.579642742872238159e-02 -1.205387115478515625e-01 -9.044624865055084229e-03 -7.452993839979171753e-02 1.968373171985149384e-02 -9.997329674661159515e-03 -9.134353697299957275e-02 -5.363563448190689087e-02 -1.817635595798492432e-01 2.239062264561653137e-02 7.818927988409996033e-03 -9.888736158609390259e-02 -1.718623936176300049e-01 -9.767852723598480225e-02 -6.236553937196731567e-02 -1.273882538080215454e-01 -1.349608320742845535e-02 9.704438596963882446e-02 -4.674214124679565430e-02 1.437974274158477783e-01 -2.837353572249412537e-02 -1.438474208116531372e-01 1.549620032310485840e-01 1.495662480592727661e-01 2.811884507536888123e-02 -1.189103201031684875e-01 -5.304254591464996338e-02 1.056486368179321289e-01 4.652120172977447510e-02 1.217892169952392578e-01 -1.728341132402420044e-01 -2.398901246488094330e-02 7.036409527063369751e-02 1.895495690405368805e-02 -8.140525966882705688e-02 8.179083466529846191e-02 3.339454531669616699e-02 6.659190356731414795e-02 -1.550218909978866577e-01 -1.161958053708076477e-01 -5.605675280094146729e-02 8.910790830850601196e-02 2.874870784580707550e-02 -1.363659203052520752e-01 3.878901153802871704e-02 -4.115609452128410339e-03 9.853112697601318359e-02 -5.494636297225952148e-02 1.414445340633392334e-01 1.546668410301208496e-01
2.336262911558151245e-01 -2.792495489120483398e-02 1.101474910974502563e-01 1.013809442520141602e-01 4.052661731839179993e-02 -3.905494511127471924e-02 -8.211086690425872803e-02 -1.540592908859252930e-01 -1.046653762459754944e-01 -2.897478453814983368e-02 4.345863312482833862e-02 -1.235522404313087463e-01 -1.437686681747436523e-01 -1.499420255422592163e-01 -7.652359548956155777e-03 -3.799709305167198181e-02 9.025895595550537109e-02 3.711962699890136719e-02 3.227693587541580200e-02 1.518221348524093628e-01 -9.919224679470062256e-02 7.658855989575386047e-03 6.930595636367797852e-02 4.315311834216117859e-02 -1.540775895118713379e-01 -1.221221238374710083e-01 1.489236503839492798e-01 -2.436080947518348694e-02 -2.520864829421043396e-02 -2.209417670965194702e-01 2.749850749969482422e-01 2.865998819470405579e-02 -3.788427636027336121e-02 -2.337314039468765259e-01 1.189657673239707947e-01 -1.359058469533920288e-01 7.476776093244552612e-02 -1.767051368951797485e-01 1.002130955457687378e-01 9.282456338405609131e-02 2.137217484414577484e-02 3.035067953169345856e-02 2.258669026196002960e-02 1.328712254762649536e-01 1.427150070667266846e-01 9.437335282564163208e-02 1.640666723251342773e-01 1.388733536005020142e-01 -1.062768995761871338e-01 1.394500434398651123e-01 3.525776043534278870e-02 1.060121655464172363e-01 -1.500094383955001831e-01 -1.087386459112167358e-01 -4.240224137902259827e-02 -7.269877940416336060e-02 7.580431550741195679e-02 1.862036883831024170e-01 -5.859676748514175415e-02 7.535603828728199005e-03 -1.637160032987594604e-02 -1.912680864334106445e-01 1.685218960046768188e-01 1.024917289614677429e-01
-2.948177279904484749e-03 -2.021224349737167358e-01 1.357385665178298950e-01 -6.163644790649414062e-02 1.231781914830207825e-01 -8.175070583820343018e-02 -8.275954425334930420e-02 -1.230382621288299561e-01 1.588357985019683838e-01 -3.644336014986038208e-02 -1.250143945217132568e-01 -3.475810587406158447e-02 -1.153370812535285950e-01 -5.393026769161224365e-02 -4.869788512587547302e-02 -1.180475726723670959e-01 -3.866418451070785522e-02 -5.922079831361770630e-02 1.332286149263381958e-01 2.972895652055740356e-02 2.757950872182846069e-02 1.283288002014160156e-01 1.753243654966354370e-01 2.123389095067977905e-01 1.813582889735698700e-02 -9.049765765666961670e-02 1.367961466312408447e-01 1.356100142002105713e-01 -1.096506416797637939e-01 -1.343394070863723755e-01 -1.260494589805603027e-01 5.781069025397300720e-02 3.203798085451126099e-02 1.139216944575309753e-01 -1.664495319128036499e-01 -1.548001021146774292e-01 -3.474691137671470642e-02 -1.402641981840133667e-01 1.353090405464172363e-01 -1.268737912178039551e-01 1.713963001966476440e-01 1.762589365243911743e-01 -1.676334291696548462e-01 -1.619573682546615601e-01 1.075194701552391052e-01 -1.457065343856811523e-01 1.641053557395935059e-01 7.597775757312774658e-02 -1.710824221372604370e-01 -1.652579754590988159e-01 7.797475904226303101e-02 -7.416052278131246567e-03 1.399165987968444824e-01 4.443654790520668030e-02 1.073202937841415405e-01 -6.544447690248489380e-02 1.268546581268310547e-01 -4.671112820506095886e-02 -1.751999557018280029e-01 2.819236814975738525e-01 -1.615698076784610748e-02 9.968057274818420410e-02 -5.944708734750747681e-02 -8.965925872325897217e-02
6.922773271799087524e-02 -1.236123591661453247e-01 3.970133885741233826e-02 6.613578647375106812e-02 2.838604152202606201e-02 5.731116398237645626e-04 1.266165077686309814e-01 7.837348431348800659e-02 -9.406153112649917603e-02 -1.681201159954071045e-01 -1.283099055290222168e-01 1.186467409133911133e-01 1.287562549114227295e-01 -6.704305112361907959e-02 4.863363225013017654e-03 1.380763109773397446e-02 2.806187234818935394e-02 1.232503876090049744e-01 -9.080593287944793701e-02 1.696924567222595215e-01 2.319141104817390442e-02 1.203445047140121460e-01 9.988420456647872925e-02 1.357944905757904053e-01 1.305517107248306274e-01 2.108290344476699829e-01 -3.348244726657867432e-02 -1.057830899953842163e-01 3.767077624797821045e-02 2.043446525931358337e-03 2.604170516133308411e-02 1.694826483726501465e-01 -1.693762689828872681e-01 -1.624251306056976318e-01 5.029566958546638489e-02 -1.175416335463523865e-01 -8.859026432037353516e-02 -1.799593679606914520e-02 1.657442003488540649e-01 8.624195307493209839e-02 -1.068750694394111633e-01 6.180342286825180054e-02 7.403407245874404907e-02 -1.577015849761664867e-03 9.274803847074508667e-02 1.742981374263763428e-01 -1.404188573360443115e-01 4.566187039017677307e-02 7.149590551853179932e-02 3.589667752385139465e-02 1.574600040912628174e-01 -1.755287945270538330e-01 -5.065569281578063965e-02 1.886256337165832520e-01 6.054149940609931946e-02 -2.241150736808776855e-01 5.755938962101936340e-02 -1.481451839208602905e-01 -1.702993214130401611e-01 -1.680782437324523926e-01 -1.125311031937599182e-01 -1.162891685962677002e-01 -6.488478183746337891e-02 3.116939775645732880e-02
-7.205661386251449585e-02 5.350298434495925903e-02 -1.536763906478881836e-01 8.335168659687042236e-02 -7.168855518102645874e-02 2.111455611884593964e-02 1.654022336006164551e-01 2.765270508825778961e-02 2.104900777339935303e-01 -4.066735878586769104e-02 -1.545363105833530426e-02 -4.598848894238471985e-02 8.773787878453731537e-03 -2.171130776405334473e-01 9.519968181848526001e-02 -9.015810489654541016e-02 1.841850429773330688e-01 -1.484034955501556396e-01 -7.549937814474105835e-02 1.282663792371749878e-01 1.321095973253250122e-01 5.810328945517539978e-02 1.186935380101203918e-01 -7.021240890026092529e-02 2.214832752943038940e-01 2.715352177619934082e-02 2.235681116580963135e-01 -1.846578717231750488e-02 -8.231628686189651489e-03 2.036740630865097046e-01 -7.491309940814971924e-02 -4.123455286026000977e-02 2.178099006414413452e-01 5.674877017736434937e-02 -8.359277248382568359e-02 2.509683556854724884e-02 9.100621193647384644e-02 1.279712021350860596e-01 1.222406849265098572e-01 1.094527691602706909e-01 2.117305248975753784e-01 -3.172258660197257996e-02 8.657890558242797852e-02 2.219035476446151733e-01 -5.036558583378791809e-02 -8.864356577396392822e-02 -1.613291203975677490e-01 1.527499686926603317e-02 1.102927699685096741e-01 -9.011085331439971924e-02 1.022845283150672913e-01 8.693030476570129395e-02 1.319439113140106201e-01 -1.584398746490478516e-01 2.117087244987487793e-01 1.516690198332071304e-02 9.477774053812026978e-02 -1.032071411609649658e-01 -2.043501734733581543e-01 3.324760124087333679e-02 1.811942160129547119e-01 -3.946829587221145630e-02 -1.640955805778503418e-01 -2.900489605963230133e-02
2.517584944143891335e-03 1.744508594274520874e-01 2.192526012659072876e-01 -5.314762890338897705e-02 6.470184773206710815e-02 2.203191071748733521e-01 1.573875844478607178e-01 4.970613494515419006e-02 2.053976804018020630e-01 -1.292179226875305176e-01 2.262631058692932129e-01 -1.398913329467177391e-03 -6.266421079635620117e-02 5.861566588282585144e-02 1.648458689451217651e-01 -1.174774318933486938e-01 -1.282156407833099365e-01 -6.068969145417213440e-02 -1.769430935382843018e-01 2.416333928704261780e-02 -1.105678677558898926e-01 -1.570009589195251465e-01 9.091368876397609711e-03 2.026223093271255493e-01 2.583711594343185425e-02 8.931480348110198975e-02 -1.583255976438522339e-01 -6.332368403673171997e-02 1.738693267107009888e-01 7.876214385032653809e-02 1.118973940610885620e-01 2.623444795608520508e-02 1.047727931290864944e-02 1.745517849922180176e-01 9.506842121481895447e-03 1.100784912705421448e-01 4.858561605215072632e-02 1.080083847045898438e-01 2.439113408327102661e-01 -2.265482693910598755e-01 -6.567140668630599976e-02 -3.913587331771850586e-02 8.720035105943679810e-02 -6.786295026540756226e-02 1.518103759735822678e-03 1.219380572438240051e-01 -4.070918262004852295e-02 -1.195342466235160828e-01 6.650984287261962891e-02 5.153644084930419922e-02 2.680802047252655029e-01 1.928574033081531525e-02 1.269729882478713989e-01 8.402810990810394287e-02 1.536943111568689346e-02 -1.510942578315734863e-01 7.161752879619598389e-02 2.434037476778030396e-01 -2.714827470481395721e-02 4.498289152979850769e-02 -1.230852305889129639e-02 1.375823467969894409e-01 -8.443694561719894409e-02 1.385223120450973511e-01
1.259959042072296143e-01 1.364944726228713989e-01 1.036761701107025146e-01 -1.098740026354789734e-01 -1.725091040134429932e-01 1.612854190170764923e-03 2.451328560709953308e-02 1.708917692303657532e-02 -7.420545816421508789e-02 1.644767522811889648e-01 1.070998385548591614e-01 -1.640848964452743530e-01 -6.023453548550605774e-03 -7.593740522861480713e-02 -1.549513544887304306e-02 -5.222147796303033829e-03 -1.880488395690917969e-01 1.360311508178710938e-01 2.180634886026382446e-01 4.331836476922035217e-02 1.174951419234275818e-01 1.924988478422164917e-01 5.971977487206459045e-02 6.199748814105987549e-02 -8.598418533802032471e-02 -7.278311252593994141e-02 -3.943704068660736084e-02 -9.668365120887756348e-02 -4.557629674673080444e-02 5.262992810457944870e-03 1.165021359920501709e-01 2.641716506332159042e-03 8.344025164842605591e-02 1.544910222291946411e-01 5.416932050138711929e-03 3.845642134547233582e-02 -7.203833013772964478e-02 -1.362488698214292526e-02 -7.540629804134368896e-02 -6.730584800243377686e-02 -5.278760194778442383e-02 -7.366012781858444214e-02 4.952393472194671631e-02 1.218950971961021423e-01 1.319846659898757935e-01 -1.335609853267669678e-01 -8.170717954635620117e-02 3.477316722273826599e-02 -4.098909720778465271e-02 5.803078785538673401e-02 1.506096422672271729e-01 -4.682109865825623274e-04 8.391370996832847595e-03 -1.355001330375671387e-01 7.872989028692245483e-02 -1.151415035128593445e-01 1.882858201861381531e-02 5.598019436001777649e-02 -1.463169157505035400e-01 3.431500867009162903e-02 -3.439775202423334122e-03 7.056083530187606812e-02 -1.620160341262817383e-01 1.534589380025863647e-01
4.761995747685432434e-02 -9.660606831312179565e-02 9.299091249704360962e-02 -1.136472746729850769e-01 -3.273040056228637695e-02 -1.426053196191787720e-01 1.497470587491989136e-01 -1.572487056255340576e-01 -2.333749085664749146e-02 -3.190220892429351807e-02 -1.287279874086380005e-01 1.394064873456954956e-01 7.077052444219589233e-02 -1.488676667213439941e-02 8.455069363117218018e-02 1.192320287227630615e-01 5.384913086891174316e-02 6.382460147142410278e-02 -1.541045010089874268e-01 -1.654877811670303345e-01 -1.588866561651229858e-01 -1.250383406877517700e-01 7.586382329463958740e-02 -5.236469581723213196e-02 -1.383077055215835571e-01 -1.542558819055557251e-01 -1.442308127880096436e-01 1.134127378463745117e-04 -2.187712490558624268e-02 1.320302933454513550e-01 -1.278378367424011230e-01 1.150255352258682251e-01 5.163128674030303955e-02 1.082052886486053467e-01 7.252930849790573120e-02 -7.491344213485717773e-02 -1.477294713258743286e-01 1.268674582242965698e-01 1.331510692834854126e-01 -1.654502376914024353e-02 1.525889635086059570e-01 -1.305864602327346802e-01 -1.026303395628929138e-01 -5.472203344106674194e-02 -4.863927513360977173e-02 1.161307021975517273e-01 -1.700917184352874756e-01 -3.342738747596740723e-02 -8.476843684911727905e-02 -8.422368764877319336e-02 -1.751292943954467773e-01 5.531506612896919250e-02 -4.631032049655914307e-02 -1.634493470191955566e-01 -8.052003383636474609e-02 6.750472635030746460e-02 -1.105405986309051514e-01 1.411028206348419189e-01 7.968125492334365845e-02 -2.916197665035724640e-02 -1.370943337678909302e-01 1.129047572612762451e-01 2.725076861679553986e-02 1.252638697624206543e-01
-1.023800484836101532e-02 6.197922304272651672e-02 -1.447845399379730225e-01 5.157525092363357544e-02 8.385754376649856567e-02 -2.575222030282020569e-02 6.727380678057670593e-03 9.698279947042465210e-02 -2.666549384593963623e-02 -1.395426094532012939e-01 -1.231587827205657959e-01 -9.724996238946914673e-02 -1.099740937352180481e-01 -7.976897805929183960e-02 -1.617737412452697754e-01 -1.761104762554168701e-01 9.188087284564971924e-02 -2.611229196190834045e-02 1.398659050464630127e-01 5.241709947586059570e-02 3.880831599235534668e-02 1.094907894730567932e-01 1.373302489519119263e-01 7.812514901161193848e-03 4.612956941127777100e-02 2.718205004930496216e-02 -2.476139366626739502e-02 4.566729068756103516e-02 5.127542465925216675e-02 7.448314130306243896e-02 1.777076572179794312e-01 6.578309834003448486e-02 9.657695889472961426e-03 -1.394672691822052002e-02 -1.550025045871734619e-01 -4.551531746983528137e-02 3.065794147551059723e-02 -9.399598464369773865e-03 -4.238152503967285156e-02 9.791563451290130615e-02 -5.715565383434295654e-02 -4.965199530124664307e-02 -4.258100688457489014e-02 3.157705068588256836e-04 -3.313875757157802582e-03 -1.274868398904800415e-01 1.809138357639312744e-01 -2.794095873832702637e-02 -1.499018818140029907e-01 -1.013433784246444702e-01 -9.246487170457839966e-02 8.602644503116607666e-02 1.016349345445632935e-01 -2.665008604526519775e-02 1.072114557027816772e-01 1.218041330575942993e-01 8.120517432689666748e-02 9.896465390920639038e-02 -8.742742240428924561e-02 1.289174258708953857e-01 -1.421418040990829468e-01 -9.130410850048065186e-02 -5.613715946674346924e-02 -4.270821809768676758e-02
-5.423505231738090515e-02 1.413334906101226807e-01 4.737407714128494263e-02 -4.244269430637359619e-02 -1.461337059736251831e-01 2.391061559319496155e-02 6.539723277091979980e-02 7.977439463138580322e-02 -1.851749867200851440e-01 -9.381721913814544678e-02 1.217919662594795227e-01 -2.984435483813285828e-02 -6.886686384677886963e-02 1.592770218849182129e-01 -9.486039727926254272e-02 1.356953978538513184e-01 3.675477579236030579e-02 -2.949707396328449249e-02 -1.190735325217247009e-01 -9.803850203752517700e-02 -5.843080952763557434e-02 6.256482750177383423e-02 8.360557258129119873e-02 1.214903295040130615e-01 6.103738024830818176e-02 -3.927217796444892883e-03 1.079444587230682373e-01 -1.595451682806015015e-01 9.856983274221420288e-02 -9.837977588176727295e-02 7.069025933742523193e-02 1.129218712449073792e-01 5.614336952567100525e-02 1.562225520610809326e-01 -1.269651800394058228e-01 -3.625570982694625854e-02 -1.457725018262863159e-01 -1.609971933066844940e-02 -1.054936945438385010e-01 -8.789567649364471436e-02 4.399349167943000793e-02 -2.920514345169067383e-02 1.005243808031082153e-01 -9.660758078098297119e-03 -1.256576459854841232e-02 9.829130768775939941e-02 1.569308489561080933e-01 -1.341506540775299072e-01 4.498995840549468994e-02 -1.374718993902206421e-01 -1.996035687625408173e-03 9.137364476919174194e-02 2.723400853574275970e-02 -2.402783371508121490e-02 -4.123810678720474243e-02 1.922505348920822144e-01 8.153878152370452881e-02 9.733474999666213989e-02 -1.619775220751762390e-02 -2.455757744610309601e-02 -8.491747081279754639e-02 -1.453995555639266968e-01 1.882863193750381470e-01 -1.266881227493286133e-01
-2.106925398111343384e-01 -9.476908296346664429e-02 -9.970620274543762207e-02 2.270419150590896606e-01 -2.948231436312198639e-02 7.071296125650405884e-02 9.506107866764068604e-02 -7.235863804817199707e-02 9.447208791971206665e-02 2.238661237061023712e-02 6.205313280224800110e-02 1.696453839540481567e-01 1.180698871612548828e-01 -4.335507750511169434e-02 -2.484319172799587250e-02 3.156561171635985374e-03 -9.014018625020980835e-02 1.578980237245559692e-01 3.615551441907882690e-02 -1.218355298042297363e-01 -2.166341841220855713e-01 -1.276977211236953735e-01 -1.818627566099166870e-01 -1.203652322292327881e-01 -6.041057780385017395e-02 3.480231016874313354e-02 1.183563545346260071e-01 1.024952083826065063e-01 -1.212574355304241180e-02 7.496804744005203247e-02 -1.588370054960250854e-01 -1.507872045040130615e-01 4.874072223901748657e-02 1.207481920719146729e-01 -6.903766095638275146e-02 1.010037437081336975e-01 4.432002827525138855e-02 1.770891398191452026e-01 2.064450830221176147e-02 -5.310626327991485596e-02 1.353312730789184570e-01 -4.648280888795852661e-02 1.129839941859245300e-01 1.812712699174880981e-01 -1.318531483411788940e-01 1.666661500930786133e-01 -4.258217290043830872e-02 -1.923293173313140869e-01 -8.203098177909851074e-02 -1.030619069933891296e-02 2.288511581718921661e-02 -3.146453201770782471e-02 3.295465186238288879e-02 1.137427538633346558e-01 -1.423936635255813599e-01 2.690677903592586517e-02 -1.150693520903587341e-01 -8.658478409051895142e-02 6.643049418926239014e-02 4.593392461538314819e-02 1.529735028743743896e-01 -9.969764202833175659e-02 1.566979736089706421e-01 -7.526245713233947754e-02
9.334671497344970703e-02 -5.158270522952079773e-02 7.196211256086826324e-03 3.562031686305999756e-02 -3.551518777385354042e-03 1.438221149146556854e-02 -7.946252077817916870e-02 4.231686890125274658e-02 8.483549207448959351e-02 -3.231203556060791016e-02 1.106970570981502533e-02 -1.189968809485435486e-01 -1.089416146278381348e-01 -1.329866498708724976e-01 1.341265067458152771e-02 -1.287375092506408691e-01 -1.642657816410064697e-01 -3.872886300086975098e-02 -1.642698794603347778e-02 9.311234205961227417e-02 9.224383160471916199e-03 1.057574525475502014e-01 -3.006365895271301270e-02 1.403381973505020142e-01 -2.048704773187637329e-03 1.626064032316207886e-01 -1.840251535177230835e-01 1.727381795644760132e-01 -3.326034918427467346e-02 -1.006074324250221252e-01 -8.650797605514526367e-02 -1.481349617242813110e-01 -7.851713150739669800e-02 9.027410298585891724e-02 2.707388401031494141e-01 1.010775640606880188e-01 -3.197473660111427307e-02 1.301793847233057022e-02 -1.741519868373870850e-01 1.145724281668663025e-01 -7.719666510820388794e-02 2.085833065211772919e-02 -5.906895548105239868e-02 -6.116183102130889893e-02 6.965037435293197632e-03 -1.129361540079116821e-01 1.935357749462127686e-01 1.191477291285991669e-02 -1.269811689853668213e-01 5.565010383725166321e-02 -7.917536050081253052e-02 -1.142467837780714035e-02 -3.424093872308731079e-02 1.678491532802581787e-01 -4.988679289817810059e-02 2.925342507660388947e-02 -1.632077991962432861e-01 2.137592732906341553e-01 -1.688141524791717529e-01 6.671593524515628815e-03 7.791271060705184937e-02 -8.702379465103149414e-02 1.062350124120712280e-01 -1.092294082045555115e-01
4.663290455937385559e-02 -2.700912766158580780e-02 -7.302170246839523315e-02 1.164381653070449829e-01 2.939045429229736328e-02 1.780615299940109253e-01 -2.201748453080654144e-02 1.594906598329544067e-01 1.625372767448425293e-01 2.234091237187385559e-02 -1.504485011100769043e-01 -3.523986414074897766e-02 1.614892929792404175e-01 -2.588672339916229248e-01 -1.868681013584136963e-01 7.769346237182617188e-03 -1.152949407696723938e-01 1.259853094816207886e-01 8.557412773370742798e-02 2.112938016653060913e-01 -1.829352043569087982e-02 1.527746617794036865e-01 -4.733191058039665222e-02 2.416029572486877441e-01 4.863439127802848816e-02 7.413725554943084717e-02 -1.391690503805875778e-02 1.382448971271514893e-01 5.343091487884521484e-02 6.167449429631233215e-02 5.566412955522537231e-02 2.389888465404510498e-02 -3.759762970730662346e-03 1.001081764698028564e-01 5.250768736004829407e-02 1.192937120795249939e-01 1.548522263765335083e-01 -1.163007840514183044e-01 -2.840927802026271820e-02 5.427884869277477264e-03 -1.206699907779693604e-01 -1.526210755109786987e-01 8.891189098358154297e-02 -3.711691126227378845e-02 -2.209957130253314972e-02 1.445630099624395370e-02 7.264466583728790283e-02 -1.329684257507324219e-01 -1.276644170284271240e-01 2.053414471447467804e-03 -2.612380310893058777e-02 1.133641451597213745e-01 4.069496318697929382e-02 1.075983792543411255e-01 -2.218190133571624756e-01 1.243111044168472290e-01 3.087428584694862366e-02 2.255180180072784424e-01 8.326717652380466461e-03 -1.861181557178497314e-01 -5.662782862782478333e-02 -8.993821591138839722e-02 -1.233480945229530334e-01 1.351274698972702026e-01
-6.264255940914154053e-02 8.095910889096558094e-04 -1.483612507581710815e-01 8.027083426713943481e-02 1.464440226554870605e-01 7.040805369615554810e-02 1.457269787788391113e-01 -3.604800906032323837e-03 -1.053178533911705017e-01 -7.273097336292266846e-02 -3.259709477424621582e-02 -2.100855112075805664e-03 -1.283732056617736816e-01 1.364715248346328735e-01 -1.565183848142623901e-01 3.816684707999229431e-02 6.793502252548933029e-03 1.222497131675481796e-02 3.869671002030372620e-02 -1.135025992989540100e-01 -1.620905101299285889e-02 6.223950162529945374e-02 1.071075052022933960e-01 -1.215231865644454956e-01 7.249234616756439209e-02 7.110299915075302124e-02 1.068482995033264160e-01 -1.103237122297286987e-01 -1.143562719225883484e-01 8.259634673595428467e-02 -7.720772922039031982e-02 1.966387033462524414e-02 1.557757109403610229e-01 1.070614159107208252e-01 4.143388941884040833e-02 -2.222046256065368652e-02 1.323064863681793213e-01 -3.349776845425367355e-03 -1.544552296400070190e-01 7.884059101343154907e-02 6.257443130016326904e-02 1.015068814158439636e-01 1.506039523519575596e-03 -7.633268088102340698e-02 -1.015775464475154877e-02 1.751852929592132568e-01 3.815958648920059204e-02 8.070497959852218628e-02 8.146430552005767822e-02 -4.109241068363189697e-02 8.710974454879760742e-02 2.412389218807220459e-02 6.072336807847023010e-02 -1.763004809617996216e-01 1.321397870779037476e-01 1.539634466171264648e-01 1.317276358604431152e-01 1.193435862660408020e-01 1.436345428228378296e-01 1.396890878677368164e-01 2.140053547918796539e-02 1.559302657842636108e-01 -8.045373857021331787e-02 1.783060878515243530e-01
-1.106270253658294678e-01 1.726089268922805786e-01 -8.361825346946716309e-02 1.427102386951446533e-01 -2.168704196810722351e-02 -1.506956368684768677e-01 -1.124775335192680359e-01 3.725371509790420532e-02 1.034921780228614807e-01 1.364695578813552856e-01 4.737878043670207262e-04 1.767574436962604523e-02 1.833118200302124023e-01 1.032800041139125824e-02 3.887335211038589478e-02 1.271211076527833939e-02 2.117605879902839661e-02 6.491184234619140625e-02 4.178036376833915710e-02 1.045847535133361816e-01 1.534577012062072754e-01 8.251523226499557495e-02 -1.602377295494079590e-01 5.242787301540374756e-03 -7.430656999349594116e-02 7.250813394784927368e-02 -7.247435301542282104e-02 1.201326772570610046e-01 1.614068746566772461e-01 -9.429651498794555664e-02 -1.333594471216201782e-01 -1.263312846422195435e-01 -1.178635358810424805e-01 -3.709932416677474976e-02 1.040406599640846252e-01 4.073957726359367371e-02 1.060987040400505066e-01 -1.315032392740249634e-01 -1.491073220968246460e-01 8.277555555105209351e-02 5.313856154680252075e-02 -8.707208186388015747e-02 8.670604228973388672e-02 1.674838513135910034e-01 9.057956933975219727e-02 -8.854125440120697021e-02 -4.887275025248527527e-02 1.853798516094684601e-02 2.360196597874164581e-02 5.397688131779432297e-03 -1.842364519834518433e-01 6.705955415964126587e-02 -5.785185843706130981e-02 -1.829564198851585388e-02 1.561540067195892334e-01 -1.636773198843002319e-01 -1.797071844339370728e-02 1.807302534580230713e-01 -1.282017678022384644e-01 1.088491827249526978e-01 6.592588126659393311e-02 1.775638759136199951e-02 -7.946657389402389526e-02 2.808846719563007355e-02
-3.283663839101791382e-02 1.123954951763153076e-01 -3.543638810515403748e-02 -7.860440760850906372e-02 1.677107810974121094e-01 1.585944890975952148e-01 1.337028145790100098e-01 2.405313104391098022e-01 6.447989493608474731e-03 2.395572327077388763e-02 -1.128337308764457703e-01 9.357828646898269653e-02 8.948141336441040039e-02 -1.281707435846328735e-01 -1.850063949823379517e-01 -1.522954255342483521e-01 5.012139212340116501e-03 -1.725691137835383415e-03 -1.521207392215728760e-01 1.413979828357696533e-01 -7.006514817476272583e-02 9.175866097211837769e-02 -4.938481003046035767e-02 -2.136915177106857300e-01 1.084725409746170044e-01 -9.461512789130210876e-03 -3.201405704021453857e-02 -1.483608186244964600e-01 6.222150102257728577e-02 1.244712620973587036e-01 4.432583972811698914e-02 9.774323552846908569e-02 1.585067361593246460e-01 -5.926319956779479980e-02 -8.920013904571533203e-02 1.820206642150878906e-01 4.428650066256523132e-02 8.665545284748077393e-02 1.492615640163421631e-01 1.164090409874916077e-01 2.109353058040142059e-02 9.423251450061798096e-02 -8.286200463771820068e-02 -1.768918037414550781e-01 2.054353505373001099e-01 2.245736122131347656e-01 8.090330287814140320e-03 1.856006979942321777e-01 1.994172930717468262e-01 1.541877835988998413e-01 -1.706647872924804688e-01 -9.511122107505798340e-02 1.214472949504852295e-01 5.100777745246887207e-02 1.494202669709920883e-02 -1.495465189218521118e-01 -1.654323749244213104e-02 -1.787665635347366333e-01 -2.482393290847539902e-03 1.947163790464401245e-02 -9.620179422199726105e-03 8.592499047517776489e-02 1.515017636120319366e-02 -9.590817987918853760e-02
-1.662344634532928467e-01 -1.500639915466308594e-01 9.549599140882492065e-02 -2.208305336534976959e-02 1.259920150041580200e-01 -5.927344411611557007e-02 -1.102808043360710144e-01 1.471261233091354370e-01 7.112774997949600220e-02 -5.980845913290977478e-02 3.288419544696807861e-02 1.431271433830261230e-01 7.477127015590667725e-02 1.527650505304336548e-01 8.277952671051025391e-02 -1.207309812307357788e-01 8.464848995208740234e-02 -1.530452072620391846e-01 -1.055926680564880371e-01 -2.413246221840381622e-02 -1.235263794660568237e-01 1.165237426757812500e-01 -1.249400153756141663e-01 -1.553054060786962509e-02 -1.724781394004821777e-01 1.397066414356231689e-01 -9.639063477516174316e-02 1.365607529878616333e-01 1.638551056385040283e-01 8.009158074855804443e-02 1.266032904386520386e-01 1.121826618909835815e-01 5.975999683141708374e-02 4.665685445070266724e-02 9.860122948884963989e-02 1.839102208614349365e-01 9.323714673519134521e-02 1.504975408315658569e-01 1.616597622632980347e-01 6.455731391906738281e-02 5.630908906459808350e-02 1.527427732944488525e-01 9.329151362180709839e-02 1.117664501070976257e-01 6.249865144491195679e-02 8.999809622764587402e-03 -1.148069277405738831e-01 1.428268570452928543e-02 -4.669929295778274536e-02 -6.895553786307573318e-03 1.325398683547973633e-01 1.529619246721267700e-01 2.004133723676204681e-02 -1.422390639781951904e-01 -1.047275736927986145e-01 9.188742190599441528e-02 -9.225133806467056274e-02 4.262511793058365583e-04 1.522345989942550659e-01 1.934135332703590393e-03 8.648765832185745239e-02 1.363910585641860962e-01 -6.258749216794967651e-02 5.157852545380592346e-02
-3.027048893272876740e-02 9.058138728141784668e-02 7.427732646465301514e-02 -1.043572798371315002e-01 1.751949638128280640e-01 -1.708151698112487793e-01 -1.255614161491394043e-01 -9.746589511632919312e-02 1.754005700349807739e-01 -1.305941641330718994e-01 -4.665778577327728271e-02 -1.666926741600036621e-01 -6.483195722103118896e-02 -9.515211731195449829e-02 1.662461310625076294e-01 1.041326001286506653e-01 1.462192088365554810e-01 1.112175434827804565e-01 -1.035824120044708252e-01 -1.615454107522964478e-01 1.343362480401992798e-01 2.688884967938065529e-03 -1.232407093048095703e-01 8.756212890148162842e-02 -9.706549346446990967e-02 1.380295902490615845e-01 7.403980195522308350e-02 -1.013273894786834717e-01 1.664757728576660156e-03 -1.339035760611295700e-02 2.100418135523796082e-02 1.632386893033981323e-01 8.784554898738861084e-02 8.664840832352638245e-03 1.635253578424453735e-01 -6.635794043540954590e-02 1.042969450354576111e-01 -1.164369508624076843e-01 1.222980022430419922e-02 -1.483489573001861572e-02 5.760239064693450928e-02 1.544452756643295288e-01 -1.390835940837860107e-01 9.382636845111846924e-02 -1.033359766006469727e-01 1.650057286024093628e-01 1.305758208036422729e-01 -9.093850851058959961e-03 1.603179126977920532e-01 -1.025530174374580383e-01 -1.558543592691421509e-01 4.192274808883666992e-02 -9.783745557069778442e-02 -1.640504896640777588e-01 -5.994795262813568115e-02 9.199768304824829102e-03 4.687998071312904358e-02 2.415099740028381348e-02 -1.087545454502105713e-01 -1.689946949481964111e-01 1.635513454675674438e-01 -1.689140647649765015e-01 7.910549640655517578e-02 -2.737079560756683350e-02
-8.546002209186553955e-02 -8.552834391593933105e-02 -1.350811570882797241e-01 1.548967808485031128e-01 -1.234845519065856934e-01 -8.255703747272491455e-02 -1.163042411208152771e-01 7.583971321582794189e-02 -1.710317432880401611e-01 -7.109882682561874390e-02 4.476249217987060547e-03 8.358980715274810791e-02 1.755577884614467621e-02 1.375168561935424805e-03 -1.383215188980102539e-03 1.089366227388381958e-01 -1.324779391288757324e-01 1.456432938575744629e-01 8.473415672779083252e-02 1.771571636199951172e-01 4.432369768619537354e-02 -1.198345944285392761e-01 -1.270319819450378418e-01 4.680550098419189453e-02 1.564521640539169312e-01 1.256280243396759033e-01 1.313326507806777954e-01 -1.184846088290214539e-01 1.695719212293624878e-01 -1.491824835538864136e-01 1.704856520518660545e-03 5.641718208789825439e-02 -1.218568235635757446e-01 4.594186693429946899e-02 -9.136754274368286133e-02 -3.863635286688804626e-02 -1.224785670638084412e-01 7.144777476787567139e-02 -6.046012043952941895e-03 -1.454551368951797485e-01 7.577072829008102417e-02 2.437683567404747009e-02 1.233513578772544861e-01 -5.124373733997344971e-02 1.369684040546417236e-01 -1.525844335556030273e-01 8.282576501369476318e-02 -2.372104115784168243e-02 -1.518554687500000000e-01 2.230377495288848877e-02 1.615633815526962280e-01 -7.394871115684509277e-02 -1.469789594411849976e-01 1.695010215044021606e-01 1.442246735095977783e-01 7.690951228141784668e-03 -1.274872273206710815e-01 4.376703873276710510e-02 -6.144940108060836792e-02 -7.407426834106445312e-02 5.566945672035217285e-02 1.204955130815505981e-01 1.071442961692810059e-01 -3.535331785678863525e-02
-1.371626853942871094e-01 3.110303357243537903e-02 7.743111997842788696e-02 4.903445765376091003e-02 1.670135185122489929e-02 -1.609685570001602173e-01 5.050873011350631714e-02 -5.483414232730865479e-02 1.267669796943664551e-01 8.813562244176864624e-02 -1.097559034824371338e-01 -2.224759571254253387e-02 1.811564266681671143e-01 -7.997995615005493164e-02 -1.028622463345527649e-01 1.487917751073837280e-01 5.813568085432052612e-02 4.208089038729667664e-02 -2.356227189302444458e-01 1.389461159706115723e-01 5.902398005127906799e-02 5.946647375822067261e-02 2.685312647372484207e-03 -1.312645524740219116e-01 -1.574493199586868286e-01 -4.912953078746795654e-02 1.061713099479675293e-01 -1.608578488230705261e-02 1.206315606832504272e-01 -1.082663610577583313e-01 1.219950541853904724e-01 -9.011664986610412598e-02 -4.215633962303400040e-03 -5.117684137076139450e-03 1.375178694725036621e-01 1.966962963342666626e-01 -1.793704777956008911e-01 1.694776415824890137e-01 1.530935466289520264e-01 -5.367688462138175964e-02 1.560754030942916870e-01 -1.739444285631179810e-01 -6.460138410329818726e-02 1.341062597930431366e-02 -7.226367294788360596e-02 7.782440632581710815e-02 1.608842164278030396e-01 2.152995616197586060e-01 -2.747807279229164124e-02 2.341396547853946686e-02 1.457151770591735840e-01 1.354652345180511475e-01 1.027210354804992676e-01 -1.643505245447158813e-01 2.057738304138183594e-01 -1.685418337583541870e-01 7.199456542730331421e-02 -9.226495772600173950e-02 -2.129426002502441406e-01 -9.801700711250305176e-03 2.386673390865325928e-01 -4.273777827620506287e-02 -3.614739701151847839e-02 1.187803894281387329e-01
-4.212038964033126831e-02 -1.499629616737365723e-01 -1.219238564372062683e-01 -2.245437819510698318e-03 -3.328305482864379883e-02 6.399630568921566010e-03 1.154251471161842346e-01 1.361555904150009155e-01 8.075174689292907715e-02 -1.236699819564819336e-01 -9.840056300163269043e-02 1.619325131177902222e-01 1.754883490502834320e-02 -1.133506372570991516e-01 1.131896153092384338e-01 -2.078256309032440186e-01 -1.417010128498077393e-01 -1.009666174650192261e-01 -4.537701234221458435e-02 1.108242794871330261e-01 -6.324762105941772461e-02 1.616521924734115601e-01 1.229588240385055542e-01 -1.556576043367385864e-01 1.784615367650985718e-01 -8.989499509334564209e-02 7.326059788465499878e-02 2.096307575702667236e-01 1.918876022100448608e-01 6.037577614188194275e-02 -2.118032192811369896e-03 1.056696474552154541e-01 -1.161729022860527039e-01 -1.243483088910579681e-02 -5.637750402092933655e-02 -7.396531756967306137e-03 1.703729778528213501e-01 6.994909793138504028e-02 1.726517379283905029e-01 -1.075211353600025177e-02 1.406414657831192017e-01 -9.403279400430619717e-04 -1.561464220285415649e-01 1.215218231081962585e-01 -4.632895439863204956e-02 1.141873523592948914e-01 -8.736522495746612549e-02 -1.847093552350997925e-01 7.159115374088287354e-02 6.146441027522087097e-02 -1.178630515933036804e-01 4.900173749774694443e-03 -1.083928570151329041e-01 -1.116001233458518982e-01 1.350600719451904297e-01 2.985103242099285126e-02 -5.367717891931533813e-02 2.215754538774490356e-01 1.206183731555938721e-01 8.726459741592407227e-02 -1.487321108579635620e-01 8.012613654136657715e-02 2.947196923196315765e-02 2.116457670927047729e-01
-5.363644659519195557e-02 1.314073055982589722e-01 1.156569868326187134e-01 1.575995832681655884e-01 -8.570189774036407471e-02 8.972981572151184082e-02 1.065317988395690918e-01 -1.746634095907211304e-01 -8.705664426088333130e-02 1.492583453655242920e-01 1.093979459255933762e-02 -2.268620952963829041e-02 -1.354307085275650024e-01 -2.492395602166652679e-02 -2.337204851210117340e-02 -1.019804105162620544e-01 6.031298637390136719e-02 2.355433404445648193e-01 2.613880932331085205e-01 -1.246179491281509399e-01 1.384454965591430664e-01 1.907912492752075195e-01 4.734855145215988159e-02 4.247044771909713745e-02 -2.032961249351501465e-01 1.287766993045806885e-01 -1.297417432069778442e-01 -7.681264728307723999e-02 1.022686660289764404e-01 1.836764067411422729e-02 9.472070634365081787e-02 -6.515531986951828003e-02 1.408518701791763306e-01 -1.461579352617263794e-01 -2.027107402682304382e-02 -1.151702739298343658e-02 1.474317396059632301e-03 1.596460305154323578e-02 6.775554269552230835e-02 -6.876461952924728394e-02 -5.034329742193222046e-02 -6.967497617006301880e-02 1.454400867223739624e-01 1.594573557376861572e-01 5.712372809648513794e-02 -1.200502738356590271e-01 -1.312281191349029541e-01 1.430741045624017715e-02 -1.538645476102828979e-01 6.742677837610244751e-02 -5.593571811914443970e-02 -2.686346769332885742e-01 8.948435634374618530e-02 1.109607517719268799e-02 9.549847990274429321e-02 1.355823129415512085e-01 -1.460671275854110718e-01 -2.160581201314926147e-01 -3.214137628674507141e-02 2.011589258909225464e-01 1.208106130361557007e-01 -2.258748561143875122e-02 1.615187972784042358e-01 -1.688964813947677612e-01
