-3.170028701424598694e-02 1.833882182836532593e-02 1.237958669662475586e-02 -8.256644359789788723e-04 -5.143212154507637024e-02 -1.062438637018203735e-02 -7.092370092868804932e-02 3.328782692551612854e-02 2.526257187128067017e-02 -6.468380987644195557e-02 6.497288122773170471e-03 -7.313025742769241333e-02 2.441527694463729858e-02 2.177440747618675232e-02 3.727986291050910950e-02 1.269437670707702637e-01 9.448980912566184998e-03 -8.578882366418838501e-02 -6.811370700597763062e-02 -2.612123265862464905e-02 -4.533716477453708649e-03 -3.382227197289466858e-02 2.448305487632751465e-03 7.623931858688592911e-03 -5.334868282079696655e-02 2.249532006680965424e-02 4.695086926221847534e-02 -1.196824014186859131e-01 -1.044146791100502014e-01 5.870066583156585693e-03 5.616412311792373657e-02 -1.925221458077430725e-02 5.706688389182090759e-02 -3.011696413159370422e-02 1.351047456264495850e-01 3.455167636275291443e-02 5.579763278365135193e-02 -4.741312190890312195e-02 3.245892375707626343e-02 -4.352059960365295410e-02 -8.248031884431838989e-02 1.331459581851959229e-01 4.873035103082656860e-02 -4.851964116096496582e-02 -1.504871901124715805e-02 9.449481219053268433e-02 5.747691541910171509e-02 -7.212758064270019531e-02 8.684851974248886108e-02 3.293936327099800110e-02 -7.236623764038085938e-02 6.694399565458297729e-02 5.700036138296127319e-02 5.886495858430862427e-02 -2.632019482553005219e-02 -4.433334246277809143e-02 6.473775953054428101e-02 7.387375086545944214e-02 -1.033437326550483704e-01 6.547984480857849121e-02 -4.019009694457054138e-02 -4.288082011044025421e-03 8.059839159250259399e-02 -2.785219997167587280e-02 -7.133731245994567871e-02 -7.196119055151939392e-03 5.129971355199813843e-02 4.041879624128341675e-02 5.919798463582992554e-02 2.205863595008850098e-03 -6.516020745038986206e-02 -4.983059689402580261e-02 -7.458917796611785889e-02 6.488139182329177856e-02 -6.268918514251708984e-03 -2.961060218513011932e-02 -4.370726644992828369e-03 -5.889720469713211060e-02 -2.925517410039901733e-02 2.410635165870189667e-02 -1.102264821529388428e-01 -4.723491147160530090e-02 -9.574822336435317993e-02 -1.587286777794361115e-02 4.646084457635879517e-02 6.418259441852569580e-02 4.184744507074356079e-02 -2.040266431868076324e-02 -4.245576262474060059e-02 -1.260023117065429688e-01 -3.845111280679702759e-02 1.748058199882507324e-02 -3.076827898621559143e-02 -7.820256054401397705e-02 -7.913108915090560913e-02 3.801017999649047852e-02 -8.844321966171264648e-02 2.730740420520305634e-02 -4.168665781617164612e-02 1.333869844675064087e-01 2.161360345780849457e-02 5.449124425649642944e-02 -3.741071373224258423e-02 1.065457146614789963e-02 -1.446519605815410614e-02 -3.846349567174911499e-02 -7.563871890306472778e-02 -1.197871472686529160e-02 -4.738026484847068787e-02 -2.838569134473800659e-02 1.058865040540695190e-01 -8.335217088460922241e-02 8.887983113527297974e-02 8.277290500700473785e-03 -1.379460841417312622e-02 4.380645602941513062e-02 -2.860856801271438599e-02 4.662182182073593140e-02 2.991802990436553955e-02 5.605315044522285461e-02 2.472997643053531647e-02 -5.709269642829895020e-02 2.103977650403976440e-02 -1.959149911999702454e-02 2.269968390464782715e-02 6.220763176679611206e-02 2.640185132622718811e-02 3.242827579379081726e-02
-8.104952424764633179e-02 2.611026167869567871e-02 -7.265911996364593506e-02 -1.174028962850570679e-01 5.269236490130424500e-02 3.713908791542053223e-02 -4.768532887101173401e-02 -9.008365869522094727e-02 4.439972341060638428e-02 -1.137276887893676758e-01 1.007590219378471375e-01 -2.214206382632255554e-02 -4.675271734595298767e-02 5.648642405867576599e-02 -5.261828377842903137e-02 1.178976222872734070e-01 4.523726645857095718e-03 -1.295779794454574585e-01 3.686657547950744629e-02 -2.019917592406272888e-02 -8.577084541320800781e-02 -7.394097000360488892e-02 3.035788238048553467e-02 -3.283727169036865234e-02 8.731648325920104980e-03 -1.126176938414573669e-01 1.780408620834350586e-02 -1.095748692750930786e-02 -1.231190748512744904e-03 1.208890676498413086e-01 -2.604609727859497070e-02 -4.662543907761573792e-02 -9.327361360192298889e-03 -2.706646919250488281e-03 -4.172829538583755493e-02 -4.017112404108047485e-02 -2.609289437532424927e-02 1.184946298599243164e-02 1.656393148005008698e-02 -7.013274729251861572e-02 -8.440481126308441162e-02 3.505359590053558350e-02 5.470779165625572205e-02 -5.635711178183555603e-02 -4.732548817992210388e-02 1.938636898994445801e-01 -5.556550994515419006e-02 -5.132829397916793823e-02 -2.600625902414321899e-02 -2.038494870066642761e-02 2.224530652165412903e-02 -7.344678044319152832e-02 6.483913213014602661e-02 7.855683565139770508e-03 2.427032217383384705e-02 1.534724235534667969e-02 -2.980097755789756775e-02 -2.732758969068527222e-02 -1.859321892261505127e-01 3.665923699736595154e-02 -5.705890804529190063e-02 -8.171143010258674622e-03 -2.961461991071701050e-02 3.064844571053981781e-02 -4.686506092548370361e-02 4.644238576292991638e-02 -2.859906479716300964e-02 9.158893674612045288e-02 5.604148283600807190e-02 2.775904536247253418e-02 2.302382327616214752e-02 5.945863947272300720e-02 3.922756761312484741e-02 9.778349101543426514e-02 6.423261016607284546e-02 -9.781130403280258179e-02 6.465578824281692505e-02 -6.165309809148311615e-03 -6.708947569131851196e-02 -9.729038178920745850e-02 -5.210851132869720459e-02 1.115037798881530762e-01 -5.265222489833831787e-02 5.325051769614219666e-02 3.396075963973999023e-02 -1.682803034782409668e-03 1.926925405859947205e-02 7.099752128124237061e-02 8.612228557467460632e-03 -1.074654757976531982e-01 2.959882840514183044e-02 -2.413303777575492859e-02 -4.519693180918693542e-02 -4.077006503939628601e-02 -3.404587507247924805e-03 1.089162379503250122e-02 -1.025455445051193237e-01 -1.006386801600456238e-02 -2.471951022744178772e-02 -8.409602940082550049e-02 -7.707308977842330933e-03 2.835096418857574463e-02 -5.578088387846946716e-02 1.147693768143653870e-02 1.858985610306262970e-02 -1.911004260182380676e-02 5.624373257160186768e-02 8.615645021200180054e-02 -6.968995183706283569e-02 -4.326130449771881104e-02 1.379821747541427612e-01 3.826227039098739624e-02 1.318605691194534302e-01 -5.628786608576774597e-02 -4.688576608896255493e-02 -2.899775747209787369e-03 1.140014901757240295e-01 3.405693173408508301e-02 3.920148313045501709e-02 -7.758588343858718872e-02 -1.258136630058288574e-01 2.606750279664993286e-02 -1.947805657982826233e-02 -6.182500720024108887e-02 -7.830478250980377197e-02 5.605822429060935974e-02 8.963524550199508667e-02 9.215778857469558716e-02
-2.501495927572250366e-02 -2.096515521407127380e-02 2.835750579833984375e-03 -4.502383247017860413e-02 7.836733758449554443e-02 -7.252674549818038940e-02 7.835754007101058960e-02 -3.677937760949134827e-02 -8.374410122632980347e-02 -1.507472246885299683e-01 2.469258150085806847e-03 7.666911929845809937e-02 2.005048841238021851e-02 -2.045742049813270569e-02 -7.577069848775863647e-02 2.013998106122016907e-03 1.267478913068771362e-01 -2.280076406896114349e-02 -8.763894438743591309e-04 6.463019549846649170e-02 3.197916597127914429e-02 2.543178386986255646e-02 3.949072211980819702e-02 8.575822412967681885e-02 5.862226337194442749e-02 4.093219060450792313e-03 6.198138371109962463e-02 5.237334594130516052e-02 -1.275574602186679840e-02 8.316289633512496948e-02 2.799241989850997925e-02 -6.368244439363479614e-02 3.590861707925796509e-02 -1.753464341163635254e-03 -3.424242883920669556e-02 4.812487587332725525e-02 -2.093390747904777527e-02 6.175776571035385132e-02 1.917680352926254272e-02 -3.191304206848144531e-02 -1.971059478819370270e-02 5.363667383790016174e-02 -5.061896890401840210e-02 5.943721532821655273e-02 3.078551217913627625e-02 5.016249790787696838e-02 7.844933122396469116e-02 1.740785688161849976e-02 1.038738414645195007e-01 -1.129643339663743973e-02 -1.119891032576560974e-01 -4.135097190737724304e-02 -3.252910822629928589e-02 -1.098121702671051025e-02 7.774344086647033691e-02 4.317837953567504883e-02 -6.259942799806594849e-02 2.214156091213226318e-02 -9.675625711679458618e-02 -7.142565399408340454e-02 -5.627287179231643677e-02 -8.443477749824523926e-02 -2.809030469506978989e-03 -5.334763228893280029e-02 -1.058119609951972961e-01 3.766637295484542847e-02 -6.817467510700225830e-03 -5.494026467204093933e-02 -7.300484180450439453e-02 3.683700412511825562e-02 -2.113967202603816986e-02 -4.760961607098579407e-02 2.207443863153457642e-02 1.285575628280639648e-01 5.467842519283294678e-02 -5.434760451316833496e-02 -6.121463328599929810e-02 -5.533388815820217133e-03 7.534680515527725220e-02 -6.540853530168533325e-02 -1.199413910508155823e-01 2.688926272094249725e-02 4.786135628819465637e-02 -2.014835178852081299e-02 3.975946456193923950e-02 1.606921479105949402e-02 3.132503107190132141e-02 3.829336538910865784e-02 -3.670748323202133179e-02 -4.038728401064872742e-02 -8.290836215019226074e-02 -2.992505207657814026e-02 -3.983952850103378296e-02 4.411714524030685425e-02 1.221840193466050550e-05 -2.343568718060851097e-03 1.523666456341743469e-02 -1.335525698959827423e-02 -3.333130478858947754e-02 4.180752485990524292e-02 1.435364410281181335e-02 -4.209174588322639465e-02 -4.456566646695137024e-02 6.147894542664289474e-03 -1.468401849269866943e-01 -9.320311248302459717e-02 3.146054223179817200e-02 8.818229287862777710e-02 -7.143396139144897461e-02 -5.695045739412307739e-02 1.046605408191680908e-01 7.983461022377014160e-03 4.272269085049629211e-02 -2.304272912442684174e-02 2.580210566520690918e-02 -1.013292744755744934e-01 1.127313673496246338e-01 6.479293853044509888e-02 6.202628463506698608e-02 -3.871176764369010925e-02 -1.228796392679214478e-01 -5.041038244962692261e-02 1.127629727125167847e-02 4.527687653899192810e-02 3.202351182699203491e-02 2.797653712332248688e-02 4.946044459939002991e-02 1.419858336448669434e-01
-3.302238881587982178e-02 2.586325258016586304e-02 -4.591301083564758301e-03 4.759028553962707520e-02 5.656727030873298645e-02 7.110591977834701538e-02 7.397141307592391968e-02 -8.698448538780212402e-02 -8.962661027908325195e-03 -1.142203658819198608e-01 3.694358048960566521e-03 4.392816871404647827e-02 2.869277447462081909e-02 8.002466522157192230e-03 -7.326408475637435913e-02 -2.801978774368762970e-02 6.133541464805603027e-02 3.708374127745628357e-02 6.684964150190353394e-02 -9.015759825706481934e-02 3.386200591921806335e-02 -5.611788108944892883e-02 -7.612194865942001343e-02 6.080514751374721527e-03 -1.240124553442001343e-02 -4.903354682028293610e-03 3.426443785429000854e-02 -3.537170216441154480e-02 -2.466392517089843750e-02 4.029625654220581055e-02 4.794212430715560913e-02 4.410029947757720947e-02 7.683954387903213501e-02 3.876689076423645020e-02 -5.858271569013595581e-02 7.225468009710311890e-02 -5.125239025801420212e-03 -7.857570797204971313e-02 6.459087133407592773e-02 -9.320630878210067749e-02 -7.112944871187210083e-02 5.957150459289550781e-02 -5.584794282913208008e-02 -9.554572403430938721e-02 -1.454675048589706421e-01 1.501489728689193726e-01 3.728193789720535278e-02 -6.058221310377120972e-02 4.790049418807029724e-02 -1.002148538827896118e-01 -1.203408017754554749e-01 1.047868058085441589e-01 -8.591212332248687744e-03 -4.143120348453521729e-02 2.244861051440238953e-02 3.632902354001998901e-02 -5.889341980218887329e-02 3.302074968814849854e-03 -1.510836035013198853e-01 -6.230110302567481995e-02 9.791868925094604492e-02 1.807357184588909149e-02 2.177562710130587220e-04 -7.366165518760681152e-02 -6.271489709615707397e-02 -4.366947337985038757e-02 -3.173099830746650696e-02 -4.284080490469932556e-02 -5.189295858144760132e-02 3.119055181741714478e-02 -4.446895420551300049e-02 1.581685803830623627e-02 -2.873191609978675842e-02 9.966731071472167969e-02 -5.230381339788436890e-02 -5.213061347603797913e-02 -1.633798331022262573e-02 -6.213485822081565857e-02 -1.862955093383789062e-02 1.400698907673358917e-02 -4.843373224139213562e-02 -2.639941312372684479e-02 3.514962445478886366e-04 -8.191215246915817261e-02 3.431788086891174316e-02 -4.513826221227645874e-02 -1.116439793258905411e-02 2.119088917970657349e-02 -7.534489780664443970e-02 -6.617283076047897339e-02 7.030962035059928894e-03 4.705002158880233765e-02 -3.950439393520355225e-02 -8.512616157531738281e-02 -3.582523390650749207e-02 -1.379228569567203522e-02 1.943005248904228210e-02 5.587233603000640869e-02 3.644906356930732727e-02 3.590956702828407288e-02 -8.605458773672580719e-03 -3.051579697057604790e-03 2.902845293283462524e-02 9.570573270320892334e-02 -1.089756786823272705e-01 -9.838804602622985840e-02 6.650118529796600342e-02 9.185519069433212280e-02 4.389358311891555786e-02 1.000352483242750168e-02 1.592808030545711517e-02 1.101235393434762955e-02 9.134983271360397339e-02 -8.496822416782379150e-02 -1.418754458427429199e-03 -9.131740033626556396e-02 8.634939789772033691e-02 4.430419951677322388e-02 -2.857243642210960388e-02 -2.688800357282161713e-02 -2.033534273505210876e-02 1.004688441753387451e-02 -7.991283386945724487e-02 2.228957600891590118e-02 -1.391543447971343994e-02 9.725306183099746704e-03 -2.038391679525375366e-02 6.878981739282608032e-02
1.946018636226654053e-02 -3.888287767767906189e-02 -3.792234882712364197e-02 -1.132520437240600586e-01 2.141260728240013123e-02 2.094194665551185608e-02 3.599590808153152466e-02 -2.743975073099136353e-02 -2.235543355345726013e-02 -9.850630536675453186e-03 6.677864491939544678e-02 -4.718564450740814209e-02 -2.747606858611106873e-02 -1.681640930473804474e-02 -8.718502521514892578e-02 1.028976440429687500e-01 -3.394798189401626587e-02 -1.110295504331588745e-01 2.447377890348434448e-02 -1.969736255705356598e-02 8.190929144620895386e-02 4.693415388464927673e-02 -3.418030962347984314e-02 -4.839376546442508698e-03 -6.196067854762077332e-02 -1.257781405001878738e-02 9.310170263051986694e-02 3.009672276675701141e-02 7.531060278415679932e-02 2.431565709412097931e-02 -2.583054453134536743e-02 -5.687766522169113159e-02 4.136277362704277039e-02 1.728852838277816772e-02 -2.343813655897974968e-03 3.238547965884208679e-02 -6.513659656047821045e-02 5.754750594496726990e-02 5.066060647368431091e-02 6.847143918275833130e-02 -1.008374020457267761e-01 1.088533103466033936e-01 1.643154397606849670e-02 -3.721421211957931519e-02 -1.504940092563629150e-01 1.037170067429542542e-01 -3.392873704433441162e-02 -4.111560434103012085e-02 -3.376957029104232788e-02 -7.515628635883331299e-02 3.239030390977859497e-02 1.596986316144466400e-02 -2.657088264822959900e-02 5.709125474095344543e-02 -9.074828773736953735e-02 6.066956371068954468e-02 -5.850611254572868347e-02 -2.078994736075401306e-02 6.960504106245934963e-04 1.685216464102268219e-02 -1.454216428101062775e-02 6.111425813287496567e-03 -6.945631653070449829e-02 -3.974256664514541626e-02 -1.225508823990821838e-01 -9.636416286230087280e-02 -6.333104800432920456e-03 -3.155818954110145569e-02 -8.615946024656295776e-02 -6.387521326541900635e-02 1.739198714494705200e-02 9.061645716428756714e-02 7.441885024309158325e-02 3.208253160119056702e-02 -2.326662838459014893e-02 -5.947871506214141846e-02 2.046567760407924652e-02 -1.397282909601926804e-02 5.042005330324172974e-02 -3.730748966336250305e-02 -3.746784105896949768e-02 -1.213745325803756714e-01 -9.073895961046218872e-02 7.744059711694717407e-02 -2.835580706596374512e-02 4.908683151006698608e-02 -5.502253025770187378e-02 7.112710177898406982e-02 9.142375737428665161e-02 -1.292090713977813721e-01 1.277336385101079941e-03 2.618131041526794434e-02 -5.199436470866203308e-02 -5.318884551525115967e-02 -7.896789163351058960e-02 -5.099761486053466797e-02 6.308688223361968994e-02 2.568517066538333893e-02 8.191487193107604980e-02 6.308241933584213257e-02 -9.913674555718898773e-03 -1.237736344337463379e-01 3.528482746332883835e-03 9.915593266487121582e-02 -8.865186572074890137e-02 -1.812382638454437256e-01 -6.348855048418045044e-02 8.009583503007888794e-02 -7.783268392086029053e-02 3.091122955083847046e-02 -2.522696740925312042e-02 2.892339788377285004e-02 8.031394332647323608e-02 1.098676118999719620e-02 4.007103666663169861e-02 1.275314390659332275e-02 6.063666939735412598e-02 3.885795176029205322e-02 -1.728941686451435089e-02 -3.298164531588554382e-02 5.167467519640922546e-02 3.141418099403381348e-02 -6.667806953191757202e-02 -9.866848587989807129e-02 -2.604679390788078308e-02 -4.000999405980110168e-02 -9.418853558599948883e-03 7.727705687284469604e-02
-5.430821329355239868e-02 -3.281207755208015442e-02 -7.739870250225067139e-02 -6.707174330949783325e-02 -4.656501114368438721e-03 5.337253957986831665e-02 -1.588833890855312347e-02 -7.806367427110671997e-02 4.417595267295837402e-02 4.344961047172546387e-02 -6.286465376615524292e-02 -6.875276565551757812e-02 -5.999461933970451355e-02 -1.249055564403533936e-02 -8.596546202898025513e-02 8.830106258392333984e-02 -2.261137962341308594e-02 -5.559392273426055908e-02 4.871783405542373657e-02 2.371216192841529846e-03 -1.791164278984069824e-02 -5.164469033479690552e-02 3.667129576206207275e-02 -8.704705536365509033e-02 6.098369881510734558e-02 2.330635674297809601e-02 7.133276201784610748e-03 5.557932704687118530e-02 1.296650245785713196e-02 2.589754946529865265e-02 -2.597233653068542480e-02 4.279516637325286865e-02 -5.048933252692222595e-02 -1.709658838808536530e-02 -2.532610297203063965e-02 2.981527894735336304e-02 -3.908948600292205811e-02 -7.409039139747619629e-02 1.903925277292728424e-02 6.320400536060333252e-02 4.296650737524032593e-02 8.622319996356964111e-02 1.466033747419714928e-03 3.454316034913063049e-02 -5.522754788398742676e-02 5.253971368074417114e-02 5.999271199107170105e-02 3.937714546918869019e-02 -4.483875259757041931e-02 5.880292505025863647e-02 8.755329996347427368e-03 -1.595237478613853455e-02 -2.087884768843650818e-02 2.861485444009304047e-02 -2.119166404008865356e-02 1.500922068953514099e-02 6.280501931905746460e-02 -7.985019683837890625e-02 5.873588845133781433e-02 -2.368349954485893250e-02 6.721241027116775513e-02 -1.302145421504974365e-02 9.436134248971939087e-03 -1.357990410178899765e-02 -1.128815859556198120e-01 -6.493564695119857788e-02 -3.797011915594339371e-03 -5.758399888873100281e-02 -7.941552996635437012e-02 -4.879060760140419006e-02 -6.152633205056190491e-02 1.059174016118049622e-01 -3.963155671954154968e-02 4.409871995449066162e-02 4.674062505364418030e-02 5.705214105546474457e-03 5.777493584901094437e-03 6.844275444746017456e-02 -8.108003996312618256e-03 -8.720186352729797363e-02 3.084688074886798859e-02 -1.453772652894258499e-02 -1.967615634202957153e-02 -2.060898812487721443e-03 1.011925190687179565e-02 -2.005634456872940063e-02 5.865564197301864624e-02 1.258838176727294922e-02 6.631057709455490112e-02 3.604401275515556335e-02 5.550394207239151001e-02 3.137836605310440063e-02 -1.221264153718948364e-02 -3.893085941672325134e-02 4.247875884175300598e-02 -3.064353764057159424e-02 2.240876294672489166e-02 -8.307069540023803711e-02 7.234624028205871582e-02 7.314507663249969482e-02 -6.703210622072219849e-02 -1.327001750469207764e-01 -4.689590260386466980e-02 5.156204849481582642e-02 -1.045056879520416260e-01 2.877130173146724701e-02 -3.274021437391638756e-04 6.170360371470451355e-03 7.094070315361022949e-04 -8.271030336618423462e-02 -3.763192519545555115e-02 -1.472615264356136322e-02 8.728551864624023438e-02 1.028714254498481750e-01 -3.430097177624702454e-02 5.140965804457664490e-03 -9.127032011747360229e-02 7.787029445171356201e-02 7.479972392320632935e-02 1.385764963924884796e-02 -1.183178275823593140e-03 -3.522587195038795471e-02 -7.596241682767868042e-02 7.353910710662603378e-03 -7.846342772245407104e-02 -5.948571488261222839e-02 8.286605030298233032e-02 4.316217452287673950e-02
5.581783503293991089e-02 -1.590589643456041813e-03 -2.056369185447692871e-02 -1.421187538653612137e-02 4.855092987418174744e-02 -9.825700893998146057e-03 -2.665868401527404785e-02 2.515541203320026398e-02 -4.948569461703300476e-02 5.625774338841438293e-02 5.258879065513610840e-02 -7.892574369907379150e-02 -4.817464575171470642e-02 -6.915591657161712646e-02 6.462141126394271851e-02 -6.092173233628273010e-02 2.631623670458793640e-02 -6.748686730861663818e-02 -5.518992245197296143e-02 6.406511366367340088e-02 6.999194622039794922e-02 8.920036256313323975e-03 -1.987143233418464661e-02 -8.250680565834045410e-02 2.992442809045314789e-02 9.244213998317718506e-02 -8.637038990855216980e-03 -5.545391142368316650e-02 1.212878599762916565e-01 -8.234212547540664673e-02 6.195814162492752075e-02 1.235306337475776672e-01 -6.419400870800018311e-02 6.342468410730361938e-02 -3.986354917287826538e-02 -1.104370225220918655e-02 7.957213558256626129e-03 3.091011662036180496e-03 7.713156938552856445e-02 1.049971058964729309e-01 -2.343992935493588448e-03 -1.078749308362603188e-03 -7.248792052268981934e-02 -9.516088664531707764e-02 -1.581607609987258911e-01 -6.305165588855743408e-03 -3.477950394153594971e-02 -2.077466051559895277e-04 -3.038750961422920227e-02 -6.867932528257369995e-02 6.391432881355285645e-02 7.692245393991470337e-02 3.221078962087631226e-02 2.673751115798950195e-02 -8.347283303737640381e-02 -6.904016435146331787e-02 7.486300915479660034e-02 -2.851712703704833984e-02 -1.550324540585279465e-02 2.942202053964138031e-02 -2.145935408771038055e-02 -1.197286043316125870e-02 -8.762576431035995483e-02 -1.058574318885803223e-01 -1.376956254243850708e-01 -1.941064256243407726e-03 1.167072262614965439e-02 -3.627211553975939751e-03 -2.273776568472385406e-02 5.714642629027366638e-02 1.034731641411781311e-01 6.169280037283897400e-02 -7.743556983768939972e-03 5.170237272977828979e-02 1.005021110177040100e-02 3.659532219171524048e-02 4.911306127905845642e-02 1.993188075721263885e-02 -5.789102986454963684e-02 -6.828787922859191895e-02 -7.795310113579034805e-03 -2.674477361142635345e-02 1.379540655761957169e-02 -1.599711738526821136e-02 3.954429179430007935e-02 7.762724161148071289e-02 5.205822177231311798e-03 -4.409498348832130432e-02 6.239349767565727234e-02 3.319457545876502991e-02 2.143974415957927704e-02 2.633042074739933014e-02 5.874723941087722778e-02 -1.381081789731979370e-01 -2.481675706803798676e-02 -2.593898773193359375e-02 -1.837500743567943573e-02 -2.819809131324291229e-02 4.167585819959640503e-02 -1.604131609201431274e-02 -5.921518895775079727e-03 -1.349917799234390259e-01 5.642825365066528320e-02 8.957367390394210815e-02 -6.026059761643409729e-02 -4.016069695353507996e-02 3.192910179495811462e-02 -6.397829204797744751e-02 6.408794224262237549e-02 -5.708594620227813721e-02 -3.754179179668426514e-02 -2.169091254472732544e-02 6.585583835840225220e-02 5.152590945363044739e-02 -6.510614603757858276e-02 1.172151695936918259e-02 -6.074907258152961731e-02 -3.413245454430580139e-02 2.315434999763965607e-02 -5.227839946746826172e-02 1.064064819365739822e-02 -4.409873113036155701e-02 2.940767444670200348e-02 9.834829717874526978e-03 -8.437711000442504883e-02 -2.431492879986763000e-02 4.560391232371330261e-02 7.042147219181060791e-02
5.041987448930740356e-02 3.164902701973915100e-02 -5.028959736227989197e-02 -5.763556808233261108e-03 -9.455846995115280151e-02 -4.206116870045661926e-02 -1.281226170249283314e-03 1.051183789968490601e-01 4.048487171530723572e-02 6.427175551652908325e-02 6.377854943275451660e-02 -3.951489180326461792e-02 -2.849846705794334412e-02 -8.174489438533782959e-02 1.023849844932556152e-01 -6.782755255699157715e-02 8.955394849181175232e-03 -1.540847867727279663e-01 -8.087290823459625244e-02 7.367566227912902832e-02 3.380310907959938049e-02 -6.660080701112747192e-02 5.481700226664543152e-02 -5.664390325546264648e-02 4.384186118841171265e-02 2.406362257897853851e-02 9.164104238152503967e-03 4.860825836658477783e-02 2.820638008415699005e-02 -8.154807984828948975e-02 -7.907188683748245239e-02 9.968452155590057373e-02 -2.127377688884735107e-02 -2.744982205331325531e-02 1.037582233548164368e-01 -4.030122421681880951e-03 -9.066709876060485840e-02 -6.804298609495162964e-02 4.213502258062362671e-02 5.124567076563835144e-02 6.950345635414123535e-02 4.712203517556190491e-02 5.063977092504501343e-02 -1.154701486229896545e-01 -3.832374140620231628e-02 -5.178879573941230774e-02 3.015984222292900085e-02 -4.390150774270296097e-03 -8.319048583507537842e-02 -2.299526520073413849e-02 7.000252604484558105e-02 9.186365455389022827e-02 6.555178761482238770e-02 -3.182281553745269775e-02 -8.337964862585067749e-02 -7.872886210680007935e-02 -4.433102160692214966e-02 -5.810530274175107479e-04 -1.894264854490756989e-02 -7.523369789123535156e-02 -5.906188860535621643e-02 -8.163738995790481567e-03 5.965860933065414429e-02 -4.083508998155593872e-02 2.821943722665309906e-02 -6.904000788927078247e-02 3.348504379391670227e-02 -8.118564635515213013e-02 -2.961731143295764923e-02 7.446213811635971069e-02 2.912551537156105042e-02 7.437665760517120361e-02 4.686617851257324219e-02 -2.347191609442234039e-02 -6.994596123695373535e-02 6.945730000734329224e-02 1.909335376694798470e-03 -9.148577228188514709e-03 6.283683329820632935e-02 -3.330133482813835144e-02 1.638226024806499481e-02 -6.397777795791625977e-02 8.421809971332550049e-02 4.325387999415397644e-02 -6.884011626243591309e-02 9.801274538040161133e-02 3.440943360328674316e-02 -8.252524584531784058e-02 -3.388758376240730286e-02 -1.527688279747962952e-02 2.129367552697658539e-02 -7.272353023290634155e-02 -3.771128877997398376e-02 -5.266467109322547913e-02 -1.312354113906621933e-02 9.185334295034408569e-02 -4.549456760287284851e-03 1.235334388911724091e-02 -4.758067056536674500e-02 -5.219352897256612778e-03 -2.279135584831237793e-02 -4.258850216865539551e-02 -5.497930943965911865e-02 7.181362248957157135e-03 -8.040317893028259277e-02 1.660897955298423767e-02 -1.214650273323059082e-01 -4.328702390193939209e-02 5.455670505762100220e-02 1.182086765766143799e-02 -8.568362146615982056e-02 -5.603616684675216675e-02 9.984967112541198730e-02 1.765368431806564331e-01 3.141678497195243835e-02 4.323451966047286987e-02 -2.785789221525192261e-02 -1.940137892961502075e-02 4.635322093963623047e-02 2.037686295807361603e-02 4.885848984122276306e-02 -6.375882029533386230e-02 -6.213295459747314453e-02 7.271598558872938156e-03 4.434806760400533676e-03 3.977632895112037659e-02 4.397939890623092651e-03 1.461039297282695770e-02
5.927649885416030884e-02 -5.162440612912178040e-02 5.813209339976310730e-02 -6.156592071056365967e-02 -3.143482655286788940e-02 -6.445052474737167358e-02 -7.635313272476196289e-02 4.347082599997520447e-02 5.787402391433715820e-03 -4.864069446921348572e-02 4.009010270237922668e-02 3.581149876117706299e-02 4.352007061243057251e-02 -9.075704216957092285e-02 1.400908082723617554e-01 7.701648026704788208e-02 -2.408124692738056183e-02 -7.948184013366699219e-02 -8.332289755344390869e-03 -2.709428966045379639e-02 1.284288167953491211e-01 -8.987467736005783081e-02 -7.044728100299835205e-02 -3.065140731632709503e-02 -9.786871261894702911e-03 4.081440344452857971e-02 -1.372955460101366043e-02 3.202575445175170898e-02 -3.204075619578361511e-02 -4.891555756330490112e-02 5.453874170780181885e-02 6.240101158618927002e-02 2.211086824536323547e-02 -8.374141901731491089e-02 1.123970597982406616e-01 3.740018978714942932e-02 -8.626095950603485107e-02 -3.960782289505004883e-02 -9.395494312047958374e-02 -1.043472439050674438e-04 -1.495664007961750031e-03 6.023259088397026062e-02 -5.618008598685264587e-02 -2.652356214821338654e-02 -2.630941756069660187e-02 -1.530974055640399456e-03 4.657095670700073242e-02 -5.453300476074218750e-02 -1.626834459602832794e-02 4.195163026452064514e-02 -3.883313760161399841e-02 1.853899061679840088e-01 -8.433964848518371582e-02 3.849401697516441345e-02 -7.121858000755310059e-02 -8.225616812705993652e-02 -8.033972978591918945e-02 5.138487555086612701e-03 3.409057483077049255e-02 -1.959393359720706940e-02 7.459546625614166260e-02 -6.101563200354576111e-02 1.806436479091644287e-02 -1.115214899182319641e-01 -1.133064627647399902e-01 -5.171842128038406372e-02 -9.434664621949195862e-03 1.155656878836452961e-03 5.923112854361534119e-02 -1.708488166332244873e-02 -5.512622743844985962e-02 6.842084228992462158e-02 1.773445494472980499e-02 8.689328283071517944e-02 -3.442445397377014160e-02 2.171965129673480988e-02 -2.584123611450195312e-02 2.420203760266304016e-02 -5.219678208231925964e-02 -6.156767159700393677e-02 -1.035018824040889740e-02 7.187735289335250854e-02 5.864518135786056519e-02 6.816481053829193115e-02 4.004956036806106567e-02 -2.942956984043121338e-02 8.052909374237060547e-02 2.422520704567432404e-02 3.920179605484008789e-02 6.633724272251129150e-02 9.043281897902488708e-03 -1.505949255079030991e-02 -6.495268642902374268e-02 5.014550685882568359e-02 2.576170489192008972e-02 7.972768507897853851e-03 3.242327272891998291e-02 7.521319389343261719e-02 2.364638075232505798e-02 -4.995593428611755371e-02 -3.723045112565159798e-03 -4.117424786090850830e-02 -3.947481513023376465e-02 7.527967542409896851e-02 -1.721754521131515503e-01 -1.124315778724849224e-03 -8.324261754751205444e-02 4.062831401824951172e-02 -2.201520279049873352e-02 2.697788178920745850e-03 -9.117718040943145752e-02 -1.462590787559747696e-02 1.254959553480148315e-01 2.318129129707813263e-02 2.956359088420867920e-02 2.923987433314323425e-02 9.621091187000274658e-03 2.705769985914230347e-02 -8.116418868303298950e-02 5.061573907732963562e-02 -4.447572305798530579e-02 1.499535888433456421e-02 -1.906430162489414215e-02 7.640440016984939575e-02 -5.725672096014022827e-02 -8.360456675291061401e-03 3.849626332521438599e-02 -2.404915727674961090e-02
-1.306653767824172974e-02 -8.284161984920501709e-02 -8.230743557214736938e-02 -3.136895224452018738e-02 -2.283176220953464508e-02 1.147566735744476318e-02 5.808485671877861023e-02 7.944291830062866211e-02 3.637374145910143852e-03 -1.255770679563283920e-02 1.090168058872222900e-01 -3.967611119151115417e-02 1.737998425960540771e-02 -2.571121789515018463e-02 7.432939484715461731e-03 1.075538098812103271e-01 -2.133838832378387451e-02 -9.757930040359497070e-02 1.392830815166234970e-02 -7.989916950464248657e-03 2.230256237089633942e-02 4.364000633358955383e-02 3.239192301407456398e-03 6.663993000984191895e-02 3.232373297214508057e-02 -4.412760958075523376e-02 1.280459389090538025e-02 -5.680301412940025330e-02 4.372765868902206421e-02 -2.974128723144531250e-02 6.851495802402496338e-02 1.354206651449203491e-01 -6.516531109809875488e-02 -1.895641535520553589e-02 2.945620007812976837e-02 3.189175203442573547e-02 -3.513327986001968384e-02 5.857558175921440125e-02 -1.057057920843362808e-02 2.898770570755004883e-02 -9.430201724171638489e-03 5.325094237923622131e-02 -6.683120876550674438e-02 -5.178540572524070740e-02 -5.682262405753135681e-02 -7.130482792854309082e-02 -3.708134219050407410e-02 4.826760664582252502e-02 7.246387004852294922e-02 -1.040835492312908173e-02 6.155914813280105591e-02 7.288055866956710815e-02 -8.447778527624905109e-04 -6.532678008079528809e-02 -5.636325851082801819e-02 1.995312422513961792e-02 -3.352141380310058594e-02 2.705598622560501099e-02 -6.402735412120819092e-02 6.641607731580734253e-02 1.816418208181858063e-02 -2.346214465796947479e-02 1.630893163383007050e-02 -7.250116020441055298e-02 -3.658590465784072876e-02 -1.000212430953979492e-01 -9.377877414226531982e-02 1.726919785141944885e-02 5.146843194961547852e-02 -4.853021726012229919e-02 6.767015904188156128e-02 -1.419458352029323578e-02 5.637142062187194824e-02 1.752199418842792511e-02 -7.700634002685546875e-02 -1.069835759699344635e-02 1.557221263647079468e-02 4.920581355690956116e-03 4.269901663064956665e-02 4.167381301522254944e-02 3.018986992537975311e-02 5.960222333669662476e-03 3.254621475934982300e-02 -1.527364458888769150e-02 -4.977013170719146729e-02 -2.949379384517669678e-02 -7.381545752286911011e-02 1.331200543791055679e-02 -3.920750459656119347e-04 1.417659688740968704e-02 -3.293744102120399475e-02 -7.329889386892318726e-02 -1.074597239494323730e-04 -3.993103653192520142e-02 5.981114506721496582e-02 -5.215141177177429199e-02 1.362476032227277756e-02 -3.970299288630485535e-02 5.046751722693443298e-02 3.983142599463462830e-02 -3.691142052412033081e-02 -8.903302252292633057e-02 -8.949849009513854980e-02 1.909871958196163177e-02 -3.361935168504714966e-02 -2.471967972815036774e-02 -1.055357605218887329e-01 -9.943450801074504852e-03 -5.390392616391181946e-02 -3.579942882061004639e-02 7.552715949714183807e-03 -1.466074492782354355e-02 2.164593338966369629e-02 5.770521238446235657e-03 3.122077882289886475e-02 -1.269820928573608398e-01 -4.448789637535810471e-03 6.020965985953807831e-03 2.725142613053321838e-02 1.097690500319004059e-02 5.283925309777259827e-02 9.628847241401672363e-03 -5.064262542873620987e-03 3.895166516304016113e-02 -7.127325981855392456e-02 2.129996940493583679e-02 -5.612185969948768616e-02 4.483086615800857544e-02
-5.968824028968811035e-03 -3.199722245335578918e-02 3.675812482833862305e-02 -1.796361990272998810e-02 4.920475184917449951e-02 1.839862763881683350e-02 -1.100793480873107910e-02 5.410360917448997498e-02 -6.017070636153221130e-02 -4.812428355216979980e-02 1.052083894610404968e-01 5.472792685031890869e-02 -7.908275723457336426e-02 -1.115658879280090332e-01 1.452773343771696091e-02 -2.776057645678520203e-02 -4.747090116143226624e-02 -7.069799304008483887e-02 -4.152443632483482361e-02 5.124036595225334167e-02 1.056180000305175781e-01 -3.655811026692390442e-02 -3.378277644515037537e-02 5.210870876908302307e-02 3.187342733144760132e-02 6.448507308959960938e-03 4.328760504722595215e-02 4.118804261088371277e-02 4.517503827810287476e-02 -8.031181246042251587e-02 5.857579410076141357e-02 1.098511219024658203e-01 -5.445886775851249695e-02 5.562971159815788269e-02 2.755901776254177094e-02 2.545276656746864319e-02 4.819858446717262268e-02 -7.868326455354690552e-02 -3.853734582662582397e-02 -7.492408156394958496e-02 -5.779718235135078430e-02 2.091506263241171837e-03 -1.896626129746437073e-02 -3.191297128796577454e-02 -4.899699985980987549e-02 2.873501926660537720e-02 1.639541238546371460e-02 -3.089617751538753510e-02 6.959701329469680786e-02 -3.811846673488616943e-02 2.888732030987739563e-02 4.480381309986114502e-02 8.522958494722843170e-03 -9.103970974683761597e-02 -8.160419762134552002e-02 -8.881910145282745361e-02 4.974617809057235718e-02 -5.851835943758487701e-03 3.742790594696998596e-02 2.270518429577350616e-02 -1.052820356562733650e-03 2.363604865968227386e-02 -1.211761832237243652e-01 -1.490300744771957397e-01 -9.326483309268951416e-02 -9.503079950809478760e-02 6.305029988288879395e-02 4.832417145371437073e-02 5.135917291045188904e-02 -2.272574789822101593e-02 5.667701736092567444e-02 4.192115366458892822e-02 1.103853434324264526e-02 3.736077994108200073e-02 -4.864924773573875427e-02 -1.562423072755336761e-02 5.260052159428596497e-02 -5.072421394288539886e-03 3.783545643091201782e-02 5.138251930475234985e-02 -2.461035549640655518e-02 2.549029886722564697e-02 -3.016051091253757477e-02 1.048756763339042664e-01 -2.504708245396614075e-02 2.018883824348449707e-02 -1.478166668675839901e-03 4.886128753423690796e-02 -7.825719565153121948e-02 -9.414225071668624878e-02 5.233591049909591675e-02 1.366468425840139389e-02 -6.102929636836051941e-02 -7.044753432273864746e-02 -9.349983930587768555e-02 1.945386454463005066e-02 -1.034398656338453293e-02 -2.811781875789165497e-02 2.289352379739284515e-02 2.094456739723682404e-02 -5.108632519841194153e-02 -6.306448578834533691e-02 -2.944803982973098755e-02 -1.032861135900020599e-02 -1.324058324098587036e-01 -5.589959770441055298e-02 -2.194836549460887909e-02 4.754604888148605824e-04 -1.462352811358869076e-03 -2.572452276945114136e-02 -8.492327481508255005e-02 -2.968653291463851929e-02 1.468139979988336563e-02 6.214853748679161072e-02 -7.552184909582138062e-02 9.117706678807735443e-03 -2.746783941984176636e-02 -4.464915022253990173e-03 -4.209084808826446533e-02 -1.735853590071201324e-02 8.246777206659317017e-02 -4.389113187789916992e-02 7.130948454141616821e-02 4.495412111282348633e-02 2.787566184997558594e-02 4.742642864584922791e-02 -3.748436644673347473e-02 7.987602055072784424e-02
7.751844078302383423e-02 4.930077865719795227e-02 5.433528567664325237e-04 -9.403306059539318085e-03 -2.464389987289905548e-02 -5.403417348861694336e-02 2.699539624154567719e-02 -3.753689303994178772e-02 -6.918163597583770752e-02 3.113917633891105652e-02 1.034206002950668335e-01 -6.729187071323394775e-02 2.662496268749237061e-02 -3.450866555795073509e-03 5.386560037732124329e-02 -2.504194388166069984e-03 1.891127228736877441e-02 -9.328151494264602661e-02 -3.427915275096893311e-02 1.203182619065046310e-02 9.704913944005966187e-03 -9.065127372741699219e-02 -2.129010856151580811e-03 -3.199331089854240417e-02 6.389669328927993774e-02 3.011493757367134094e-02 -2.219083718955516815e-02 1.740802451968193054e-02 5.732276663184165955e-02 3.278072550892829895e-02 6.287906318902969360e-02 1.136849150061607361e-01 7.883920520544052124e-02 -3.305722028017044067e-02 3.752890974283218384e-02 -5.317223817110061646e-02 4.742035269737243652e-02 3.617590665817260742e-02 -1.091659665107727051e-01 -5.039418488740921021e-02 6.525253504514694214e-02 1.491702347993850708e-02 5.191943049430847168e-02 5.889416113495826721e-02 -2.707258611917495728e-02 2.216177061200141907e-02 -8.067059330642223358e-03 2.555408515036106110e-02 -2.053070627152919769e-02 -5.113179609179496765e-02 -2.559822797775268555e-02 3.754738345742225647e-02 3.318816423416137695e-02 2.358260331675410271e-03 -1.053810343146324158e-01 8.790265768766403198e-03 7.061559706926345825e-02 7.073497772216796875e-02 4.062286764383316040e-02 -6.728394888341426849e-03 -3.022520430386066437e-02 4.900433123111724854e-02 -8.467700332403182983e-02 -1.410430669784545898e-01 2.432152442634105682e-02 9.434627369046211243e-03 6.057764217257499695e-02 3.465818986296653748e-02 3.173067420721054077e-02 -7.291874382644891739e-03 -2.582176774740219116e-02 7.390067912638187408e-03 3.907829150557518005e-02 1.362113058567047119e-01 -3.130670636892318726e-02 -1.907154219225049019e-03 -1.197339780628681183e-02 3.397184610366821289e-02 3.304217010736465454e-02 4.846607148647308350e-02 2.234630100429058075e-02 6.983868032693862915e-02 -2.564325928688049316e-02 8.547039702534675598e-03 -5.684702098369598389e-02 -3.509017871692776680e-03 7.310925424098968506e-02 -8.884789794683456421e-02 4.650972783565521240e-03 -2.657586708664894104e-02 7.112191617488861084e-02 5.562688782811164856e-02 -6.355391442775726318e-02 -4.766971617937088013e-02 -8.255559206008911133e-02 -1.213136389851570129e-01 4.808708094060420990e-03 6.744778901338577271e-02 3.821839019656181335e-02 -6.625190377235412598e-03 -6.169173493981361389e-02 -1.727094873785972595e-03 2.612062264233827591e-03 -5.375848338007926941e-02 -4.140912368893623352e-02 4.180192574858665466e-02 -7.023779302835464478e-02 3.803962096571922302e-02 -6.053834781050682068e-02 7.447554916143417358e-02 3.923206031322479248e-02 -9.325550054199993610e-04 1.123937815427780151e-01 1.373557746410369873e-01 5.264405533671379089e-02 4.590769484639167786e-02 -2.229333855211734772e-02 -3.972263634204864502e-02 6.318955123424530029e-02 -1.034293025732040405e-01 5.239652842283248901e-02 6.981386989355087280e-02 6.520853936672210693e-02 1.111641991883516312e-03 6.232010945677757263e-02 -4.612663015723228455e-02 5.905588343739509583e-02 1.066297641955316067e-03
4.098542034626007080e-02 -5.255623534321784973e-02 7.454930245876312256e-02 -4.743989929556846619e-02 4.757342115044593811e-02 1.572410576045513153e-02 6.656659534201025963e-04 4.532280936837196350e-02 7.022330909967422485e-02 5.979338660836219788e-02 8.975833654403686523e-02 -3.460840508341789246e-02 -7.256736606359481812e-02 4.298110958188772202e-03 4.814818501472473145e-02 -2.903508767485618591e-02 3.726393356919288635e-02 -9.326045215129852295e-02 -7.646594941616058350e-02 9.058112278580665588e-03 4.594352841377258301e-02 -1.998851634562015533e-02 1.568373851478099823e-02 8.111276477575302124e-02 -1.166381593793630600e-02 -7.328611612319946289e-02 -5.222265794873237610e-02 -3.252480924129486084e-02 7.923122495412826538e-02 7.404196262359619141e-02 -1.412025839090347290e-02 8.537042886018753052e-03 -3.524339199066162109e-02 6.910670548677444458e-02 1.615308411419391632e-02 8.966548740863800049e-02 -4.620483517646789551e-02 -1.650867983698844910e-02 4.005013033747673035e-02 -8.340563625097274780e-03 4.189478605985641479e-02 5.736703053116798401e-02 -8.561519533395767212e-02 -1.449448615312576294e-02 -5.826906114816665649e-02 -1.347965653985738754e-02 -7.555811852216720581e-02 4.663968086242675781e-02 -2.451169677078723907e-02 -5.082801356911659241e-02 5.487756058573722839e-02 4.121934995055198669e-02 -1.260267384350299835e-02 9.046666324138641357e-03 -1.167975664138793945e-01 -4.523660242557525635e-02 -1.533565670251846313e-02 5.724704638123512268e-02 1.313658654689788818e-01 -6.622750312089920044e-02 1.084466353058815002e-01 -7.740886509418487549e-02 -2.116798423230648041e-02 -1.923434995114803314e-02 -1.148704215884208679e-01 1.509737689048051834e-02 7.032679766416549683e-02 2.143750526010990143e-02 -2.296845428645610809e-02 4.216247703880071640e-03 -2.087512984871864319e-02 7.238825410604476929e-02 1.821629330515861511e-02 6.626320630311965942e-02 -9.866432100534439087e-02 -1.086884588003158569e-01 7.729341741651296616e-03 2.425131946802139282e-02 -4.881203547120094299e-02 1.134953089058399200e-02 -7.637759298086166382e-02 -1.720593124628067017e-02 8.032437413930892944e-02 4.561601951718330383e-02 5.523721128702163696e-02 -8.907152339816093445e-03 5.070126801729202271e-02 -3.020346537232398987e-02 -1.194858271628618240e-02 -8.557532727718353271e-02 5.957791954278945923e-02 5.916773900389671326e-02 2.686961740255355835e-02 1.377596636302769184e-03 2.539929933845996857e-02 -4.024868831038475037e-02 -1.167938113212585449e-02 -7.722920924425125122e-02 4.951912444084882736e-03 -8.704912662506103516e-02 -1.037818491458892822e-01 -9.962657839059829712e-02 -4.358687624335289001e-02 -5.811649188399314880e-02 -9.444176405668258667e-02 -3.284587338566780090e-02 -6.082762405276298523e-02 -1.470291055738925934e-02 -2.118564024567604065e-02 2.041072398424148560e-02 -2.139429375529289246e-02 -1.576251722872257233e-02 8.810498751699924469e-03 4.692593216896057129e-02 3.843443468213081360e-02 4.848967120051383972e-02 -1.542131137102842331e-02 1.543159969151020050e-02 -4.968259856104850769e-02 -2.225493825972080231e-02 -8.137970417737960815e-02 4.910191893577575684e-02 -4.415780771523714066e-03 8.852100372314453125e-02 3.808646276593208313e-02 1.435771584510803223e-03 -6.796017289161682129e-02 -1.540326280519366264e-03
-6.459585577249526978e-02 1.733914017677307129e-02 5.952151492238044739e-02 -8.705153316259384155e-02 1.125771701335906982e-01 1.164975017309188843e-02 -8.122399449348449707e-02 3.675530850887298584e-02 -4.857876524329185486e-02 7.807395607233047485e-02 1.123249251395463943e-02 2.599519677460193634e-02 -4.276404529809951782e-02 4.595164209604263306e-02 2.031246758997440338e-02 -1.711521111428737640e-02 -7.724759727716445923e-02 -4.484803602099418640e-02 -2.931500412523746490e-02 6.480394303798675537e-02 -2.026595175266265869e-02 6.757271289825439453e-02 -1.053270511329174042e-02 -1.716911047697067261e-02 -6.922490894794464111e-02 6.060437113046646118e-02 6.574986968189477921e-03 -1.348543167114257812e-02 -7.902313768863677979e-02 7.931450009346008301e-02 6.027576699852943420e-02 9.090957045555114746e-02 -9.174893796443939209e-02 6.491713970899581909e-02 -6.497187912464141846e-02 5.051307752728462219e-02 2.202062122523784637e-02 -7.659021019935607910e-02 1.449846383184194565e-02 1.646575331687927246e-02 7.559433579444885254e-02 -5.518953502178192139e-02 -5.116529017686843872e-02 6.925488263368606567e-02 -4.505850747227668762e-02 7.707471400499343872e-02 -4.820127785205841064e-02 6.016321480274200439e-02 -1.251984573900699615e-02 -9.818425029516220093e-02 -4.811927303671836853e-02 1.316767744719982147e-02 -5.347670614719390869e-02 6.572198122739791870e-02 -2.358912490308284760e-02 3.072756342589855194e-02 -8.460840582847595215e-02 -6.069760397076606750e-02 -2.367720752954483032e-02 -5.747633054852485657e-02 9.477335959672927856e-02 1.750930957496166229e-02 1.942552998661994934e-02 -4.250197857618331909e-02 4.134040325880050659e-02 3.961978480219841003e-03 -1.597587950527667999e-02 2.234015241265296936e-02 8.100987970829010010e-02 -7.421560585498809814e-02 5.108968168497085571e-02 1.160189732909202576e-01 7.268361002206802368e-02 1.173302307724952698e-01 2.564567327499389648e-02 -2.696908824145793915e-02 -1.547780446708202362e-02 7.041293382644653320e-02 4.491426795721054077e-02 -8.037446066737174988e-03 -1.452436391264200211e-02 -3.046884015202522278e-02 6.311230361461639404e-02 2.044451981782913208e-02 -6.494984775781631470e-02 -6.462360918521881104e-02 -8.100253343582153320e-02 -1.452493481338024139e-02 1.985538564622402191e-02 1.400537788867950439e-02 -4.453141987323760986e-02 6.560208648443222046e-02 -3.791573271155357361e-02 3.782265260815620422e-02 -1.089793629944324493e-02 -3.026273660361766815e-02 3.938350081443786621e-02 -4.391429945826530457e-02 6.168738380074501038e-02 -1.032701060175895691e-01 3.429983183741569519e-02 -7.560911029577255249e-02 -7.482856512069702148e-02 3.424911201000213623e-02 -1.263052523136138916e-01 7.794664055109024048e-02 -9.129391610622406006e-02 4.483120888471603394e-02 -4.221948981285095215e-02 4.594027996063232422e-04 6.715527176856994629e-02 3.439070284366607666e-02 3.341916482895612717e-03 7.189402729272842407e-02 -8.054243773221969604e-02 -7.630220614373683929e-03 7.614666223526000977e-02 5.356667190790176392e-02 -1.935378089547157288e-02 3.193355724215507507e-02 9.266464971005916595e-03 3.298578783869743347e-02 7.700905203819274902e-02 6.063378229737281799e-02 -5.123268812894821167e-02 -1.151890493929386139e-02 2.011168748140335083e-02 4.221853241324424744e-02
-1.805443316698074341e-02 2.219670079648494720e-02 -3.275613486766815186e-02 -1.064548175781965256e-02 1.027898564934730530e-01 2.668858319520950317e-02 -6.920698564499616623e-03 6.028360873460769653e-02 -6.961891800165176392e-02 -8.747949264943599701e-03 -3.825659304857254028e-02 -2.039379812777042389e-02 -4.610175266861915588e-03 -7.328946143388748169e-02 8.423124253749847412e-02 5.286587774753570557e-02 -2.810045517981052399e-02 2.601540647447109222e-02 -8.139420300722122192e-02 -4.719790443778038025e-02 -6.084682792425155640e-02 3.011142462491989136e-02 -4.505083709955215454e-02 9.653255343437194824e-02 2.237736992537975311e-02 -9.693732112646102905e-02 -8.195182681083679199e-02 -1.034702360630035400e-02 -8.742527663707733154e-02 -4.965132102370262146e-03 -7.965631037950515747e-02 2.681175991892814636e-02 2.527951635420322418e-02 1.478285342454910278e-02 5.344922095537185669e-02 6.381590664386749268e-02 -3.462737053632736206e-02 4.010656848549842834e-02 -9.241956472396850586e-02 -7.286860048770904541e-02 8.846942335367202759e-02 -6.376608461141586304e-02 -2.186497673392295837e-02 6.900533288717269897e-02 -2.026320621371269226e-02 -4.170025140047073364e-02 6.353789567947387695e-02 4.044593777507543564e-03 -7.490914431400597095e-04 7.775898091495037079e-03 -7.541944086551666260e-02 -5.428854003548622131e-02 -2.258707210421562195e-02 2.910634269937872887e-03 5.051022395491600037e-02 -7.646736502647399902e-02 2.609124965965747833e-02 -3.652124432846903801e-03 -1.797090517356991768e-04 6.848034914582967758e-03 6.805352866649627686e-02 -2.249362505972385406e-02 1.891008391976356506e-02 -3.894477710127830505e-02 3.409543260931968689e-02 -1.207704469561576843e-01 4.847974702715873718e-02 -7.587612420320510864e-02 -2.304991707205772400e-03 2.234099432826042175e-02 -5.216309428215026855e-02 -1.795273087918758392e-02 -1.555561320856213570e-03 3.927101939916610718e-02 1.643432304263114929e-02 1.413798984140157700e-02 1.445728074759244919e-02 5.611624941229820251e-02 -7.385443896055221558e-02 -1.498617418110370636e-02 5.199549719691276550e-02 7.469040341675281525e-03 8.281246572732925415e-02 2.773018926382064819e-02 4.110278934240341187e-02 1.687762886285781860e-02 2.883505076169967651e-02 -5.179293453693389893e-02 6.991179659962654114e-03 -6.763061881065368652e-02 -8.015779405832290649e-02 7.530118525028228760e-02 -2.586806938052177429e-02 2.904861932620406151e-03 -3.143522888422012329e-02 -3.598072333261370659e-03 5.882364884018898010e-02 -1.087116170674562454e-02 3.741605207324028015e-02 4.300186038017272949e-02 -2.821779623627662659e-02 -9.519935399293899536e-02 1.799186319112777710e-02 -8.007643744349479675e-03 5.633548367768526077e-03 4.030106961727142334e-02 -9.708268195390701294e-02 2.428554929792881012e-02 -8.012340217828750610e-02 -8.169820159673690796e-02 -1.018531271256506443e-03 -1.837291754782199860e-02 -6.316782534122467041e-02 3.999995999038219452e-03 2.818517945706844330e-02 7.101715542376041412e-03 -3.377063432708382607e-03 5.653823912143707275e-02 6.986796110868453979e-02 -6.636986881494522095e-02 -1.665210165083408356e-02 -7.022722065448760986e-02 -6.388457119464874268e-02 -3.183926641941070557e-02 1.762946508824825287e-02 3.335841931402683258e-03 -5.488248914480209351e-02 -2.440365403890609741e-02
6.999646872282028198e-02 -8.604757487773895264e-02 6.159066408872604370e-02 2.835989743471145630e-02 -1.160804089158773422e-02 -8.672728389501571655e-02 -7.266870886087417603e-02 1.622167415916919708e-02 2.476708905305713415e-04 2.505392953753471375e-02 9.389076381921768188e-02 7.742738351225852966e-03 -3.368850424885749817e-02 -6.432539969682693481e-02 -6.092714518308639526e-02 -5.304678529500961304e-02 2.751087583601474762e-02 -3.843057528138160706e-02 6.718400120735168457e-02 -1.755072362720966339e-02 -3.411539271473884583e-02 3.839818388223648071e-02 2.776777371764183044e-02 1.073073819279670715e-01 -1.799298333935439587e-03 -3.499374538660049438e-02 2.163519337773323059e-02 1.219925750046968460e-02 -4.109081625938415527e-02 -2.103176899254322052e-02 5.406172201037406921e-02 4.045324027538299561e-02 -1.993365772068500519e-02 4.443967714905738831e-02 -2.042427286505699158e-02 8.550736121833324432e-03 7.695061713457107544e-02 -3.028768487274646759e-02 -7.771311700344085693e-02 7.226228713989257812e-03 7.742168754339218140e-02 8.226653560996055603e-03 -1.693657040596008301e-02 7.263188809156417847e-02 -4.833336919546127319e-02 -1.008345559239387512e-02 3.867920115590095520e-02 -8.306045830249786377e-02 5.487120524048805237e-02 -3.564084321260452271e-02 8.796294778585433960e-02 3.980214241892099380e-03 2.392750792205333710e-02 -7.295355945825576782e-02 -1.438480615615844727e-02 2.899660170078277588e-02 3.385076997801661491e-03 -1.936942711472511292e-02 1.194511447101831436e-02 5.983289703726768494e-02 2.726962789893150330e-02 -3.417984396219253540e-02 -9.035231173038482666e-02 1.009833440184593201e-02 3.252615407109260559e-02 -9.639459848403930664e-02 -3.156057558953762054e-03 -2.257410250604152679e-02 5.262435600161552429e-02 -6.058938428759574890e-02 -2.854955941438674927e-02 2.637798897922039032e-02 -3.136609867215156555e-02 2.821035915985703468e-03 -5.407278612256050110e-02 2.486500144004821777e-02 -7.378006726503372192e-02 -7.021059840917587280e-02 -3.976109251379966736e-02 6.295106559991836548e-02 5.070716515183448792e-02 -9.454696439206600189e-03 8.087528869509696960e-03 2.327343448996543884e-02 -8.204080164432525635e-02 -1.500429958105087280e-02 -9.031914919614791870e-02 -3.089387342333793640e-02 -8.845493197441101074e-02 -2.020550519227981567e-02 7.244399935007095337e-02 1.873178593814373016e-02 -6.744050234556198120e-02 -3.071715310215950012e-02 -4.973451793193817139e-02 -8.368949592113494873e-02 -2.142624370753765106e-02 1.199256256222724915e-02 -9.660635888576507568e-02 -5.371109768748283386e-02 -4.463639110326766968e-02 5.860302597284317017e-02 2.436202717944979668e-03 3.115744329988956451e-02 -1.196228936314582825e-01 9.098897874355316162e-02 -1.112355813384056091e-01 -8.142435923218727112e-03 -6.360019743442535400e-02 4.451159387826919556e-03 1.365267019718885422e-02 3.162591531872749329e-02 -6.189668923616409302e-02 -2.404749020934104919e-02 2.157048881053924561e-02 6.469319015741348267e-02 8.057598769664764404e-02 1.671545207500457764e-02 -7.471059262752532959e-02 4.588201642036437988e-03 -1.451986096799373627e-02 -3.305995091795921326e-02 -5.900170654058456421e-02 1.056271195411682129e-01 -1.316224806942045689e-03 1.049897596240043640e-01 -6.063609942793846130e-02 9.205130860209465027e-03
-8.562143146991729736e-02 6.118793785572052002e-02 5.746777728199958801e-02 -2.443728782236576080e-02 7.381466776132583618e-02 1.997108757495880127e-02 3.945903107523918152e-02 5.373833701014518738e-02 4.856600984930992126e-02 -5.986182019114494324e-02 9.191779047250747681e-02 -4.546641558408737183e-02 -4.428733885288238525e-02 -3.287723660469055176e-02 7.188707590103149414e-02 -4.628650099039077759e-02 8.667255192995071411e-02 7.483450323343276978e-02 4.977704584598541260e-02 5.999521538615226746e-02 -4.636575281620025635e-02 -6.963554769754409790e-02 -6.099405139684677124e-02 3.376424312591552734e-02 -2.971489913761615753e-02 6.871261447668075562e-02 8.799354545772075653e-04 7.225706428289413452e-02 5.174266546964645386e-02 4.851507022976875305e-02 1.969234645366668701e-02 8.569693565368652344e-02 -7.867321372032165527e-02 -8.224745094776153564e-02 1.326531544327735901e-02 -5.694532766938209534e-02 -5.869590491056442261e-02 6.859447807073593140e-02 5.569148343056440353e-03 6.099843420088291168e-03 4.290113225579261780e-02 3.870489075779914856e-02 -8.006550488062202930e-04 -6.594981253147125244e-02 -1.000626459717750549e-01 -7.343567162752151489e-02 -3.998300805687904358e-02 5.434164777398109436e-02 -3.663853555917739868e-02 5.674664303660392761e-02 -2.259284816682338715e-02 5.702350661158561707e-02 6.792037282139062881e-03 -1.231632567942142487e-02 -7.254268508404493332e-03 -3.350472822785377502e-02 3.554636612534523010e-02 5.199233442544937134e-02 6.071328371763229370e-02 -6.291549652814865112e-02 8.913308382034301758e-02 -2.347716689109802246e-02 8.818984031677246094e-03 2.281081490218639374e-02 6.494119763374328613e-02 -1.241424493491649628e-02 -8.334025740623474121e-03 5.523082613945007324e-02 -3.078363835811614990e-02 -5.846012011170387268e-02 -7.716575264930725098e-02 -2.002948708832263947e-02 3.614852949976921082e-02 1.561122685670852661e-01 -7.783734798431396484e-02 -8.243125863373279572e-03 -4.017749801278114319e-02 6.967028975486755371e-02 -8.271687477827072144e-02 1.819924078881740570e-02 5.176248494535684586e-03 2.489512320607900620e-03 1.467757578939199448e-02 -6.165251135826110840e-02 4.522441700100898743e-02 5.968044325709342957e-02 2.659091167151927948e-02 -2.300367131829261780e-02 -8.981409668922424316e-02 -1.404007198289036751e-03 3.527693822979927063e-02 -2.802368439733982086e-02 -7.615600526332855225e-02 -1.730332709848880768e-02 -7.613861933350563049e-03 -1.238083816133439541e-03 4.630476981401443481e-02 1.794949546456336975e-02 1.053303666412830353e-02 -8.763165026903152466e-02 2.662707678973674774e-02 8.244021981954574585e-02 5.235814675688743591e-02 -6.105048209428787231e-02 -4.805200919508934021e-02 8.189340680837631226e-02 2.095930092036724091e-02 7.342037558555603027e-02 2.511110343039035797e-02 5.518122389912605286e-02 -4.888046160340309143e-02 4.996345564723014832e-02 -6.240309029817581177e-02 1.077352985739707947e-01 -4.546893015503883362e-02 6.983497738838195801e-02 7.698664814233779907e-02 -3.923479840159416199e-02 -3.397271037101745605e-02 -6.945000588893890381e-02 -2.683418802917003632e-02 1.490582060068845749e-02 2.160389558412134647e-04 8.848339319229125977e-02 -3.528137132525444031e-02 4.848143458366394043e-02 -6.209662556648254395e-02 -2.245004475116729736e-02
-6.062952056527137756e-02 -2.081767423078417778e-03 5.437405034899711609e-02 8.577356114983558655e-03 5.202500149607658386e-02 7.176205515861511230e-02 3.495054692029953003e-02 2.345539256930351257e-02 4.528151080012321472e-02 1.678768731653690338e-02 9.601677209138870239e-02 -2.396029047667980194e-02 -2.613620832562446594e-02 1.931864535436034203e-04 7.235336303710937500e-02 3.607235476374626160e-02 -4.216606914997100830e-02 1.067792344838380814e-02 -3.975963592529296875e-02 -7.061205804347991943e-02 -7.763455808162689209e-02 3.186096996068954468e-02 -5.490708351135253906e-02 -2.000032551586627960e-02 -7.841942459344863892e-02 8.100395649671554565e-02 8.206982165575027466e-02 -6.706650368869304657e-03 5.241636186838150024e-03 -9.628704935312271118e-02 6.372483819723129272e-02 5.953918024897575378e-02 7.075209915637969971e-02 -2.663591876626014709e-02 -1.327762752771377563e-02 8.230000734329223633e-02 -2.347924560308456421e-02 -7.847481220960617065e-02 3.339440375566482544e-02 -1.160866674035787582e-02 6.608584523200988770e-02 9.551388025283813477e-02 4.901964962482452393e-02 5.785834789276123047e-02 -1.345267295837402344e-01 -2.233374491333961487e-02 5.167799815535545349e-02 -2.251944690942764282e-02 -4.228127002716064453e-02 7.727880775928497314e-02 6.592977792024612427e-02 8.288331329822540283e-02 -1.033368855714797974e-01 4.866660572588443756e-03 -6.414398550987243652e-02 -1.735585182905197144e-02 -6.599809229373931885e-02 1.517212577164173126e-02 3.355300426483154297e-02 7.162328809499740601e-02 2.193976007401943207e-02 4.048109799623489380e-02 5.636705085635185242e-02 4.687170311808586121e-02 -1.470328960567712784e-02 -3.115665912628173828e-02 5.129025131464004517e-02 -4.000484570860862732e-02 6.259612739086151123e-02 7.384117692708969116e-02 -2.587631158530712128e-02 5.118107795715332031e-02 -6.973474472761154175e-02 3.289007395505905151e-02 -7.956845685839653015e-03 5.960166826844215393e-02 -1.815222203731536865e-02 -5.464629456400871277e-02 -5.057138204574584961e-02 4.508604109287261963e-02 -3.397700842469930649e-03 4.959388449788093567e-02 -3.361707925796508789e-02 -4.848210886120796204e-02 -5.515073984861373901e-02 -6.702578812837600708e-02 -1.446098741143941879e-02 -2.240925468504428864e-02 1.146342419087886810e-02 -5.076980683952569962e-03 -5.724491178989410400e-02 8.549563586711883545e-03 1.600926183164119720e-02 -3.600503504276275635e-02 4.430573433637619019e-02 -8.599933236837387085e-02 1.009090840816497803e-01 6.597496569156646729e-02 -9.136800467967987061e-02 -1.146329268813133240e-01 2.834659628570079803e-02 2.385830134153366089e-02 -5.552365630865097046e-02 -6.432481855154037476e-02 -4.263426363468170166e-02 8.258827775716781616e-02 -4.701462760567665100e-02 -4.953537881374359131e-02 -6.299674510955810547e-02 -8.408691734075546265e-02 -1.199238821864128113e-01 -8.594304323196411133e-03 -2.144734375178813934e-02 4.992488771677017212e-03 -5.909474566578865051e-02 5.397692695260047913e-02 -1.918147131800651550e-02 -8.289995044469833374e-02 -4.909989982843399048e-02 -1.598430238664150238e-02 1.960913650691509247e-02 -5.222822353243827820e-02 6.391151249408721924e-02 5.100985057651996613e-03 -3.568972274661064148e-02 3.362171724438667297e-02 -1.288006454706192017e-02 4.017974808812141418e-02
2.986831776797771454e-02 -1.911962777376174927e-02 -2.167204581201076508e-02 -6.676787883043289185e-02 1.755662076175212860e-02 5.676789209246635437e-02 -3.670161589980125427e-02 5.282174795866012573e-02 -3.308255225419998169e-02 -4.481385648250579834e-02 3.255598992109298706e-02 -2.139017544686794281e-02 2.267046459019184113e-02 -3.106684656813740730e-03 1.156422123312950134e-02 -6.960318237543106079e-02 1.011921018362045288e-01 5.063027143478393555e-02 6.239190697669982910e-03 -2.656438946723937988e-02 -7.355733215808868408e-02 2.720685489475727081e-02 -5.268760770559310913e-02 -3.666919842362403870e-02 -7.388367503881454468e-02 3.713925555348396301e-02 5.169571563601493835e-02 -4.959472641348838806e-02 -1.632301509380340576e-02 -3.372021391987800598e-02 -8.452649344690144062e-04 7.419450581073760986e-02 7.728968281298875809e-03 6.397257745265960693e-02 7.390443980693817139e-02 -7.638824731111526489e-02 -9.611505270004272461e-02 6.989075243473052979e-02 -3.487776219844818115e-02 -9.462381154298782349e-02 -7.594655454158782959e-02 -3.154439479112625122e-02 -9.756925702095031738e-02 2.090140432119369507e-02 -3.041165322065353394e-02 1.141135320067405701e-01 1.983171515166759491e-02 -3.206867724657058716e-02 -8.267613500356674194e-02 9.412152320146560669e-02 1.118118986487388611e-01 7.040759176015853882e-02 -7.681413739919662476e-02 -5.589684844017028809e-02 -9.183695912361145020e-02 -1.986254192888736725e-02 4.098456725478172302e-02 -1.090339757502079010e-02 -2.173023065552115440e-03 4.776206240057945251e-02 5.826481152325868607e-03 -1.978322304785251617e-02 1.730606146156787872e-02 -6.315261125564575195e-02 3.944691270589828491e-02 1.313961893320083618e-01 -2.485874481499195099e-02 -1.542388554662466049e-02 -1.816847547888755798e-02 -2.301957458257675171e-02 -9.974741935729980469e-02 -4.106731340289115906e-02 4.852378368377685547e-02 7.602655887603759766e-02 4.839458689093589783e-02 -5.074128136038780212e-02 1.996399089694023132e-02 -6.366985384374856949e-03 5.900955572724342346e-02 -3.895850479602813721e-02 -1.784144341945648193e-02 2.670825051609426737e-05 7.025478780269622803e-02 -1.205874141305685043e-02 6.166842952370643616e-02 -5.215731263160705566e-02 8.548033237457275391e-02 -5.453432723879814148e-02 5.700984597206115723e-02 -1.000540331006050110e-01 3.758888226002454758e-03 7.617008686065673828e-02 3.031705319881439209e-02 1.601487398147583008e-02 3.854449465870857239e-02 -1.022204756736755371e-01 8.767927438020706177e-02 -5.011671781539916992e-02 -8.661972731351852417e-02 -7.944585382938385010e-02 6.724283099174499512e-02 6.400882452726364136e-02 -2.187307365238666534e-02 6.649069022387266159e-03 -6.251610070466995239e-02 1.191298812627792358e-01 4.676203057169914246e-02 -2.491807937622070312e-02 -3.467078320682048798e-03 -3.256126865744590759e-02 1.922439550980925560e-04 6.348631531000137329e-02 7.440646737813949585e-02 2.543245628476142883e-02 -8.324133604764938354e-02 2.452234923839569092e-02 5.868162214756011963e-02 -5.990490689873695374e-02 -4.011511430144309998e-02 -9.528070688247680664e-02 -6.546258926391601562e-02 7.301701605319976807e-02 8.092522621154785156e-03 3.092541173100471497e-02 -1.950231380760669708e-02 1.003975793719291687e-01 7.652129232883453369e-02 -1.123893558979034424e-01
-4.103534854948520660e-03 3.451124951243400574e-02 -7.296145707368850708e-02 -6.127945706248283386e-02 5.079620704054832458e-02 6.130871921777725220e-02 -6.216564401984214783e-02 2.896632812917232513e-02 -4.092353954911231995e-02 -4.312670975923538208e-02 7.613499462604522705e-02 1.827152259647846222e-02 6.606402248144149780e-02 2.798482030630111694e-02 -3.791489824652671814e-02 -5.559124425053596497e-02 9.269031137228012085e-02 -1.993528753519058228e-02 -4.051834344863891602e-03 -7.904605567455291748e-02 -4.932453483343124390e-02 3.784416615962982178e-02 -8.542498946189880371e-02 5.002681538462638855e-02 1.524451188743114471e-03 -3.900991752743721008e-02 -6.698735803365707397e-02 5.606503412127494812e-02 6.540464609861373901e-02 -4.684536159038543701e-02 -5.569944903254508972e-02 4.891710355877876282e-02 4.387598112225532532e-02 -1.633856631815433502e-02 4.443825036287307739e-02 1.130642555654048920e-02 4.942236468195915222e-02 -3.793813521042466164e-03 -4.695493727922439575e-02 -8.459619432687759399e-02 -1.023573875427246094e-01 9.903047233819961548e-02 -6.416193395853042603e-02 -3.407186269760131836e-02 -1.486784964799880981e-01 -2.959424257278442383e-02 1.810615882277488708e-02 5.577794834971427917e-02 3.456877544522285461e-02 7.087811827659606934e-02 8.004821091890335083e-02 1.448977552354335785e-02 1.571199111640453339e-02 3.260103240609169006e-02 -6.735385209321975708e-02 6.439796835184097290e-02 -4.425670579075813293e-02 1.472551003098487854e-02 -4.710814356803894043e-02 2.459787763655185699e-03 9.026320278644561768e-02 2.684604004025459290e-02 2.103636227548122406e-02 2.311339601874351501e-02 1.404509297572076321e-03 6.321472674608230591e-02 2.161886543035507202e-02 5.339848622679710388e-02 5.202765762805938721e-02 4.333642777055501938e-03 3.151873499155044556e-02 7.534083724021911621e-02 -7.141759991645812988e-02 7.364898920059204102e-02 -2.453033439815044403e-02 1.318457257002592087e-02 -3.018923476338386536e-02 1.603507809340953827e-02 4.379976913332939148e-02 2.186608314514160156e-02 -5.810241401195526123e-02 8.126073516905307770e-03 2.182555943727493286e-02 3.800625726580619812e-02 -3.551814705133438110e-02 -5.604478716850280762e-02 5.608623102307319641e-02 -2.781289443373680115e-02 -2.785122208297252655e-02 3.161862492561340332e-02 3.252881392836570740e-02 7.120136916637420654e-02 2.279747131979092956e-04 -7.884517312049865723e-02 -3.831902146339416504e-02 4.530691727995872498e-02 -3.345325123518705368e-03 1.024281978607177734e-02 -7.248429208993911743e-02 -1.092379838228225708e-01 1.129684783518314362e-02 3.507474437355995178e-02 2.222914947196841240e-03 -2.055081725120544434e-02 -7.370039075613021851e-02 7.148375362157821655e-02 -5.709172785282135010e-02 4.662396758794784546e-02 2.641772665083408356e-02 -6.128788366913795471e-02 2.612791256979107857e-03 5.027481913566589355e-02 7.056740671396255493e-02 -9.414976835250854492e-02 -3.718773275613784790e-02 2.564729936420917511e-02 5.355795845389366150e-02 -7.822222262620925903e-02 7.028760761022567749e-02 -7.737912237644195557e-02 3.581801895052194595e-03 -3.448840975761413574e-02 4.601613432168960571e-02 3.247937932610511780e-02 -2.666155435144901276e-02 4.811515659093856812e-02 6.716495007276535034e-02 -3.045708686113357544e-02
-2.010120823979377747e-02 5.506398621946573257e-03 1.051931176334619522e-02 1.097389832139015198e-01 1.728780008852481842e-02 -8.369607478380203247e-02 -7.970590889453887939e-02 9.164217859506607056e-02 -7.487094402313232422e-02 2.424319833517074585e-02 -2.210211474448442459e-03 -4.517674818634986877e-02 9.815628640353679657e-03 5.369105935096740723e-02 -5.962261930108070374e-02 -6.189286708831787109e-02 1.297224462032318115e-01 7.573602348566055298e-02 -6.734178215265274048e-02 3.894583508372306824e-02 -2.451314358040690422e-03 5.587318167090415955e-02 -5.428726319223642349e-03 -2.359470352530479431e-02 7.673099171370267868e-03 8.336199074983596802e-02 -5.543490871787071228e-02 -3.900370374321937561e-02 1.072232350707054138e-01 -1.841261982917785645e-02 -4.155042394995689392e-02 9.323811158537864685e-03 -3.534340485930442810e-02 5.023850500583648682e-02 1.868063397705554962e-02 -5.963843315839767456e-02 -4.489745944738388062e-03 -7.987324148416519165e-02 -2.012431155890226364e-03 -1.067691296339035034e-01 2.106891199946403503e-02 -3.870240971446037292e-02 -1.533050369471311569e-02 3.189179673790931702e-02 -1.250635683536529541e-01 7.953734695911407471e-02 4.281351342797279358e-02 -4.231706261634826660e-03 1.429853029549121857e-02 7.679617963731288910e-03 1.508989632129669189e-01 1.274563092738389969e-02 -5.856010317802429199e-02 5.603371560573577881e-02 3.083330206573009491e-02 6.590981036424636841e-02 1.646277122199535370e-02 6.850877404212951660e-02 2.676675282418727875e-02 2.303842455148696899e-02 -2.390288561582565308e-02 9.735547751188278198e-02 4.438205796759575605e-04 4.545584321022033691e-02 6.949721276760101318e-02 5.314690526574850082e-03 -4.447825253009796143e-03 -1.055736560374498367e-02 -9.075409919023513794e-02 -8.448398858308792114e-02 -9.000971168279647827e-02 -1.360832527279853821e-02 5.045760050415992737e-02 1.326081156730651855e-01 -9.865603409707546234e-03 5.215708166360855103e-02 6.823560595512390137e-02 4.560992866754531860e-02 4.549935832619667053e-02 -8.412621915340423584e-02 -7.985152304172515869e-02 1.665185205638408661e-03 2.036816906183958054e-03 -5.847700312733650208e-02 4.379987716674804688e-02 1.113234367221593857e-02 9.196380525827407837e-02 -5.468861386179924011e-02 -6.821774691343307495e-02 -1.321795433759689331e-01 2.355413883924484253e-02 5.901337787508964539e-02 -3.370965644717216492e-02 7.669830322265625000e-02 -8.767699450254440308e-02 -1.510045677423477173e-02 4.630438983440399170e-02 -3.636439144611358643e-02 -1.370799820870161057e-02 -1.205169558525085449e-01 5.650206934660673141e-03 7.483036816120147705e-02 6.028244271874427795e-02 -4.921970888972282410e-02 -5.445407703518867493e-03 8.674544841051101685e-02 1.750334165990352631e-03 -8.807495981454849243e-02 3.573615476489067078e-02 6.964071840047836304e-02 -6.623257067985832691e-04 -4.217940568923950195e-02 1.817158423364162445e-02 -4.945234209299087524e-02 4.076808691024780273e-02 -6.055096164345741272e-02 3.151993965730071068e-03 -7.571658492088317871e-02 -5.033612251281738281e-02 -2.309272997081279755e-02 7.017206400632858276e-02 -1.226822566241025925e-02 -6.098578870296478271e-02 2.535519190132617950e-02 -4.804731346666812897e-03 4.146470129489898682e-02 -1.462196093052625656e-02 -1.881201118230819702e-01
8.157333359122276306e-03 -8.539169281721115112e-02 3.203278779983520508e-02 6.459926068782806396e-02 -9.292176365852355957e-02 4.955501854419708252e-02 4.719496145844459534e-02 7.353419065475463867e-02 -6.656716112047433853e-03 -4.259552061557769775e-02 9.622589498758316040e-02 -1.378444954752922058e-02 -7.488985359668731689e-02 1.287793554365634918e-02 7.497514039278030396e-02 -7.819435000419616699e-02 2.572947181761264801e-02 5.628865212202072144e-02 3.704740852117538452e-02 -1.812916062772274017e-02 -5.373449530452489853e-03 3.012447804212570190e-02 -6.767970323562622070e-02 -2.845728956162929535e-02 6.021311879158020020e-02 1.291849911212921143e-01 -9.687814116477966309e-02 -2.639935351908206940e-02 2.979435957968235016e-02 -7.502388209104537964e-02 4.832791164517402649e-02 -7.972920686006546021e-02 -7.838594168424606323e-02 3.896286338567733765e-02 4.183152690529823303e-02 -1.192140206694602966e-02 7.993705570697784424e-03 -7.747424393892288208e-02 -6.801234185695648193e-02 1.919567957520484924e-02 -1.182750463485717773e-01 -3.872125223278999329e-02 9.473618119955062866e-03 -3.158455342054367065e-02 -2.148312889039516449e-02 -1.635387912392616272e-02 6.048465520143508911e-02 5.608803033828735352e-02 -1.252516824752092361e-02 1.195085197687149048e-01 1.027183458209037781e-01 1.429733037948608398e-01 1.922584325075149536e-02 -6.360481679439544678e-02 -1.164576411247253418e-02 -7.330613583326339722e-02 4.096912965178489685e-02 -3.236459940671920776e-02 -8.814483880996704102e-03 5.796846747398376465e-02 -6.941748410463333130e-02 -2.138636074960231781e-02 2.188701182603836060e-02 -1.148548573255538940e-01 5.814690142869949341e-02 6.597543507814407349e-02 3.254568949341773987e-02 -8.676501363515853882e-02 2.438751421868801117e-02 3.442433848977088928e-02 -2.923595905303955078e-02 3.178825229406356812e-02 2.158417552709579468e-02 1.427734345197677612e-01 1.048166975378990173e-01 1.583886332809925079e-02 1.429537311196327209e-02 -9.126096032559871674e-03 -8.425146341323852539e-02 -3.079664427787065506e-03 -8.293087780475616455e-02 -3.238384798169136047e-02 1.382248289883136749e-02 4.540819674730300903e-02 5.418251454830169678e-02 -8.981019258499145508e-02 -6.342617329210042953e-03 3.320817276835441589e-02 -7.031691074371337891e-02 -1.101301237940788269e-01 -7.903552800416946411e-02 5.800393596291542053e-02 -7.931641489267349243e-02 7.163725048303604126e-02 -7.463289797306060791e-02 4.313748702406883240e-02 -1.056378614157438278e-02 -6.863253563642501831e-02 -1.078133285045623779e-01 -1.370845288038253784e-01 -6.233867257833480835e-02 1.882207207381725311e-02 -6.910020112991333008e-02 5.280358716845512390e-02 1.000625174492597580e-02 1.066134572029113770e-01 1.919496804475784302e-02 -3.817713260650634766e-02 -7.508293259888887405e-03 1.184938848018646240e-02 -7.543783634901046753e-02 -1.540910825133323669e-02 4.306244105100631714e-02 -4.981555417180061340e-02 4.015799611806869507e-02 -3.382917121052742004e-02 1.276682615280151367e-01 6.207026913762092590e-02 -7.374988496303558350e-02 7.154139457270503044e-04 4.422832746058702469e-03 -3.503274545073509216e-02 -3.207528218626976013e-02 -3.272163867950439453e-02 2.495162002742290497e-02 4.833925515413284302e-02 -8.724217116832733154e-02 -1.632170826196670532e-01
3.658374305814504623e-03 -5.332259461283683777e-03 -1.288197096437215805e-02 1.352645456790924072e-01 1.483847852796316147e-02 -5.906983837485313416e-02 -6.256345659494400024e-02 -6.814742833375930786e-02 6.665759533643722534e-02 -3.625738993287086487e-02 -5.033113993704319000e-04 4.053635895252227783e-02 5.600343272089958191e-02 -9.196316450834274292e-02 7.857660949230194092e-02 -7.540984451770782471e-02 8.601123839616775513e-02 1.456183791160583496e-01 -5.965261906385421753e-02 2.677036449313163757e-02 -3.449693787842988968e-03 -5.795892328023910522e-03 3.883049264550209045e-02 -3.176782652735710144e-02 5.483682267367839813e-03 5.824754759669303894e-02 -1.940659713000059128e-03 -7.171242684125900269e-02 1.148720979690551758e-01 -4.412266984581947327e-02 3.581873700022697449e-02 -4.954666644334793091e-02 2.395927533507347107e-02 1.415922027081251144e-02 3.270922601222991943e-02 -3.616675734519958496e-02 1.215570867061614990e-01 5.532173067331314087e-02 -8.833666890859603882e-02 -1.326359063386917114e-01 -9.005267173051834106e-03 -4.042258486151695251e-02 7.139611989259719849e-02 7.598199695348739624e-02 -3.215026110410690308e-02 -2.466869913041591644e-02 -3.271723166108131409e-02 -5.471479520201683044e-02 -1.025824695825576782e-01 1.826013810932636261e-02 1.169408708810806274e-01 2.293406752869486809e-03 -4.044434055685997009e-02 6.264178454875946045e-02 -7.698034495115280151e-02 2.472093515098094940e-02 -7.419244945049285889e-02 -2.984230406582355499e-02 -1.152805909514427185e-01 4.847989231348037720e-02 2.962572216347325593e-05 1.316859722137451172e-01 7.486190646886825562e-02 -1.305000633001327515e-01 1.522662118077278137e-02 1.766642741858959198e-02 -6.437326967716217041e-02 -4.602213390171527863e-03 4.742071963846683502e-03 2.046823501586914062e-02 -6.230916082859039307e-02 4.040709510445594788e-02 8.045158535242080688e-02 1.251118034124374390e-01 1.074108779430389404e-01 3.712141886353492737e-02 -5.168387293815612793e-02 3.185307234525680542e-02 -3.149294108152389526e-02 -2.851790189743041992e-02 -2.098562754690647125e-02 -1.227342151105403900e-02 1.657545566558837891e-02 -3.119093924760818481e-02 -4.108941555023193359e-02 -9.611397981643676758e-02 6.187357380986213684e-02 -1.119243428111076355e-01 -6.848133355379104614e-02 -6.596746295690536499e-02 3.665722906589508057e-02 -2.113671414554119110e-02 -5.945754237473011017e-03 -9.176029823720455170e-03 8.909583091735839844e-03 8.485635370016098022e-02 6.735937297344207764e-02 -5.729624629020690918e-02 -1.478874981403350830e-01 -6.324466317892074585e-02 2.381686866283416748e-02 5.097968503832817078e-02 -2.928221970796585083e-02 -5.545937642455101013e-02 1.266483366489410400e-01 9.190490469336509705e-03 -6.971070170402526855e-02 -8.227835595607757568e-02 -4.647787287831306458e-02 -6.360483169555664062e-02 4.209283366799354553e-02 5.592432618141174316e-02 -4.460291191935539246e-02 3.424581885337829590e-02 3.540379926562309265e-02 -3.328218311071395874e-02 1.232911199331283569e-01 3.193757683038711548e-02 -6.075814738869667053e-02 -2.454138733446598053e-02 -1.509648654609918594e-02 -2.774992771446704865e-02 1.277024298906326294e-02 -5.742665380239486694e-02 -3.418045490980148315e-02 1.216630544513463974e-02 -1.933850534260272980e-02 -8.200345933437347412e-02
1.603205502033233643e-02 -4.369114339351654053e-02 -6.713179871439933777e-03 3.882815688848495483e-02 5.310169886797666550e-03 3.639550134539604187e-02 -1.075102761387825012e-02 5.098796635866165161e-02 -6.648953258991241455e-02 -5.371409934014081955e-04 8.963120728731155396e-02 -5.956407636404037476e-02 5.042307078838348389e-02 -2.950065769255161285e-02 4.245385527610778809e-03 -1.535880267620086670e-01 1.355028450489044189e-01 1.710743457078933716e-01 -2.750269696116447449e-02 8.809531480073928833e-02 -4.722570255398750305e-02 -9.661740064620971680e-02 8.088062517344951630e-03 4.222398251295089722e-02 3.369718417525291443e-02 -1.344687538221478462e-03 4.130620136857032776e-02 -8.969684690237045288e-02 8.038800209760665894e-02 -8.475425839424133301e-02 -5.685329809784889221e-02 -6.943655014038085938e-02 3.837389871478080750e-02 -5.491939932107925415e-02 -7.522684335708618164e-02 4.906072281301021576e-04 -4.115291684865951538e-02 -5.306586995720863342e-02 2.534927800297737122e-02 1.199028640985488892e-02 -4.222710058093070984e-02 -9.235452860593795776e-02 1.854232400655746460e-01 -5.256982403807342052e-04 -3.051244886592030525e-03 -1.203456148505210876e-01 6.585622578859329224e-02 7.433208078145980835e-02 -3.191863000392913818e-02 1.130623929202556610e-02 -1.472808187827467918e-03 8.455898612737655640e-02 3.766895830631256104e-02 1.727776043117046356e-02 1.579883694648742676e-02 6.795142590999603271e-02 3.791286051273345947e-02 -1.764699071645736694e-02 -7.520029321312904358e-03 -8.714167028665542603e-02 -8.487010002136230469e-02 2.777790836989879608e-02 8.240769058465957642e-02 -9.133897721767425537e-02 1.306030452251434326e-01 5.778235569596290588e-02 -6.724413484334945679e-02 -1.082221120595932007e-01 -3.580787405371665955e-02 -1.183308660984039307e-02 2.315849810838699341e-02 9.207129478454589844e-02 5.942545086145401001e-02 -3.952255100011825562e-02 3.534806147217750549e-02 -1.375939580611884594e-03 -2.759637124836444855e-02 -1.439922582358121872e-02 6.675921380519866943e-02 -1.079926863312721252e-01 -6.731317192316055298e-02 6.108926981687545776e-02 4.405884072184562683e-02 1.048951223492622375e-01 -7.503443211317062378e-02 5.860096961259841919e-02 5.859801173210144043e-02 -5.497528612613677979e-02 -2.026821859180927277e-02 -7.446959614753723145e-02 -2.889320068061351776e-02 -1.152302138507366180e-02 5.533963441848754883e-02 9.866790473461151123e-02 1.431608293205499649e-02 3.187405318021774292e-02 -3.420842438936233521e-02 5.252872779965400696e-02 -7.691869139671325684e-02 -1.182264089584350586e-01 7.243856787681579590e-02 2.246712893247604370e-02 -5.500812828540802002e-02 -3.022271767258644104e-02 9.983137249946594238e-02 -1.044030487537384033e-02 -2.072854526340961456e-02 -7.946199178695678711e-02 -6.857053190469741821e-02 -4.780801013112068176e-02 -1.251408550888299942e-02 6.604516506195068359e-02 -2.831059321761131287e-02 -1.974373823031783104e-03 -6.141670420765876770e-02 -8.516930043697357178e-02 1.084572896361351013e-01 -3.636880218982696533e-02 -8.208643645048141479e-02 3.456217795610427856e-02 7.897306233644485474e-02 6.249332427978515625e-02 -3.315055742859840393e-02 -4.976322129368782043e-02 -8.170351386070251465e-02 -4.414182156324386597e-02 -4.074528068304061890e-02 3.084527701139450073e-02
2.914181724190711975e-02 -3.424575924873352051e-02 -4.451219365000724792e-02 1.145251989364624023e-01 -1.113315820693969727e-01 -8.530732989311218262e-02 2.711816318333148956e-02 7.439709454774856567e-02 7.243559509515762329e-02 8.473866432905197144e-02 5.137398838996887207e-02 4.796851426362991333e-03 -8.457581698894500732e-02 -4.549105092883110046e-02 -4.302531853318214417e-02 -9.252313524484634399e-02 -3.632352873682975769e-02 1.248626708984375000e-01 2.157581597566604614e-02 1.657792739570140839e-02 4.090156778693199158e-02 -4.892742261290550232e-02 -4.583193454891443253e-03 -9.776996076107025146e-02 -6.397719681262969971e-02 -2.167107909917831421e-02 -4.112171009182929993e-02 -1.173370331525802612e-01 8.475921303033828735e-02 -7.799818366765975952e-02 4.971555992960929871e-02 -8.596534281969070435e-02 -4.246861487627029419e-02 4.879600927233695984e-02 -9.370358288288116455e-02 -7.416527718305587769e-02 -3.473420441150665283e-02 -7.153908163309097290e-02 -5.164722446352243423e-03 -6.107601150870323181e-02 -1.174361109733581543e-01 -1.382711231708526611e-01 1.169496253132820129e-01 2.312929742038249969e-02 -3.512252494692802429e-02 -8.217872679233551025e-02 -6.503185629844665527e-02 -4.541613161563873291e-02 -2.572428062558174133e-02 3.278083726763725281e-02 -4.427956789731979370e-02 2.640795521438121796e-02 -3.608535230159759521e-02 -6.094739958643913269e-02 4.326336458325386047e-02 2.344666235148906708e-02 5.580888688564300537e-02 -1.962417922914028168e-02 -1.293259561061859131e-01 -8.524832874536514282e-02 1.135321147739887238e-02 1.152844876050949097e-01 -7.700227200984954834e-03 -9.078893810510635376e-02 1.698304414749145508e-01 1.538723409175872803e-01 -2.186692506074905396e-02 -6.761244684457778931e-02 -2.875862643122673035e-02 -7.422953844070434570e-02 5.991617590188980103e-02 2.872748859226703644e-02 7.623345404863357544e-02 1.755271106958389282e-03 1.469715386629104614e-01 -2.721904218196868896e-02 -6.128858402371406555e-02 3.482938930392265320e-02 -2.122919447720050812e-02 -8.834201097488403320e-02 2.427002973854541779e-02 -3.924083337187767029e-02 -5.922047421336174011e-02 4.042450711131095886e-02 -4.851457849144935608e-02 1.835102960467338562e-02 4.089666903018951416e-02 -4.674542322754859924e-02 -1.532025355845689774e-02 -3.954529762268066406e-02 -2.649541758000850677e-02 7.822503894567489624e-02 1.663823053240776062e-02 9.171409159898757935e-02 8.269399404525756836e-05 1.119098961353302002e-01 -1.221044138073921204e-01 5.497096851468086243e-02 -8.013066649436950684e-02 1.533876266330480576e-02 -1.032588928937911987e-01 2.991387806832790375e-02 -1.813127472996711731e-02 -5.588127672672271729e-02 1.518739312887191772e-01 5.604139342904090881e-02 7.062175869941711426e-02 -1.442291736602783203e-01 2.038243971765041351e-02 -8.012042939662933350e-02 -8.775644004344940186e-02 5.254251137375831604e-02 8.353152871131896973e-02 -7.981307059526443481e-02 -1.755522564053535461e-03 -3.791033476591110229e-02 2.028230018913745880e-02 4.943678155541419983e-02 -3.555353730916976929e-02 -7.294549047946929932e-02 -6.677815690636634827e-04 1.384679228067398071e-02 -6.375279277563095093e-02 -1.444480270147323608e-01 1.977356709539890289e-02 7.756652683019638062e-02 -7.585544139146804810e-02 6.008678674697875977e-02
-9.886660613119602203e-03 -4.198426380753517151e-03 -4.738676920533180237e-02 1.108409017324447632e-01 -1.083116307854652405e-01 3.946969285607337952e-02 -7.868489623069763184e-02 -3.627865016460418701e-02 7.428459078073501587e-02 9.669671207666397095e-02 1.295047551393508911e-01 7.204157114028930664e-02 6.132057681679725647e-02 1.065955404192209244e-02 6.127308681607246399e-02 -1.112882420420646667e-01 -7.764734327793121338e-02 6.446868926286697388e-02 -1.149837672710418701e-02 4.447118565440177917e-02 6.039740517735481262e-02 -4.118974879384040833e-02 8.086252957582473755e-03 1.807108893990516663e-02 1.920133642852306366e-02 8.950273692607879639e-02 -1.284882277250289917e-01 -2.837392129004001617e-02 -8.271554484963417053e-03 -1.349277794361114502e-01 7.996919564902782440e-03 -6.889710575342178345e-02 2.539832517504692078e-02 6.795525550842285156e-02 -5.746009200811386108e-02 -2.639594301581382751e-02 -2.241260930895805359e-02 7.713981904089450836e-03 -7.580658793449401855e-02 3.052313253283500671e-02 -2.001684717833995819e-02 -6.775805354118347168e-02 8.647410571575164795e-02 6.328311748802661896e-03 9.872987866401672363e-02 -1.796830072999000549e-02 -4.838889464735984802e-02 -5.382163077592849731e-02 -8.096816390752792358e-02 2.329659089446067810e-02 -2.095096930861473083e-02 7.615809142589569092e-02 2.090371400117874146e-02 7.906008511781692505e-02 1.498039811849594116e-01 2.916888892650604248e-02 -5.497704446315765381e-02 1.729439385235309601e-02 1.562276668846607208e-02 -1.004240363836288452e-01 9.346974082291126251e-03 2.024173922836780548e-02 1.561363190412521362e-01 5.326641350984573364e-02 7.428272813558578491e-02 2.314731851220130920e-02 -2.248032391071319580e-02 1.362944208085536957e-02 -4.753902927041053772e-02 -1.175418309867382050e-02 -5.807789042592048645e-02 3.632143512368202209e-02 -3.480563312768936157e-02 -1.106605958193540573e-02 4.216202348470687866e-02 -2.450714819133281708e-02 2.989098429679870605e-02 -1.142424810677766800e-02 5.175445973873138428e-02 1.139700319617986679e-02 -1.356419324874877930e-01 -6.739246100187301636e-02 3.058429248631000519e-02 -6.052791327238082886e-02 2.981854416429996490e-02 -3.807365894317626953e-02 9.082746505737304688e-02 -2.117120102047920227e-02 -1.445782138034701347e-03 -8.317992091178894043e-02 5.960633605718612671e-02 -4.554077982902526855e-02 7.406469434499740601e-02 1.992054283618927002e-02 -1.459012925624847412e-02 1.735528558492660522e-01 -1.191241666674613953e-01 7.019788771867752075e-02 9.883278608322143555e-02 -1.132698822766542435e-02 -2.897459827363491058e-02 8.641060441732406616e-02 -5.563686788082122803e-02 -4.797820001840591431e-02 1.047463193535804749e-01 4.816418886184692383e-02 4.018833488225936890e-02 -1.858483850955963135e-01 9.046030230820178986e-03 -3.949070349335670471e-02 -9.797510504722595215e-02 -8.848758041858673096e-02 2.344342321157455444e-02 -2.243064716458320618e-02 -2.413383126258850098e-02 -1.281772553920745850e-01 3.734412044286727905e-02 -7.167270034551620483e-02 1.149966847151517868e-03 -1.085945963859558105e-01 -3.415403515100479126e-02 1.618965156376361847e-02 -6.315384060144424438e-02 -2.251199446618556976e-02 2.529739029705524445e-02 -5.231691524386405945e-02 -5.196737870573997498e-02 4.069685935974121094e-02
7.125772535800933838e-02 -4.454339668154716492e-02 -3.249245882034301758e-02 1.363982260227203369e-01 3.104713931679725647e-02 4.624671489000320435e-02 1.375410589389503002e-03 1.712525822222232819e-02 -4.211707785725593567e-02 -1.447487622499465942e-02 7.981861941516399384e-03 -6.420677900314331055e-02 3.165313601493835449e-02 6.643290072679519653e-02 2.893634885549545288e-02 2.313067764043807983e-02 -7.573448866605758667e-02 -1.116118859499692917e-03 2.170689404010772705e-02 9.419335983693599701e-03 7.235797494649887085e-02 5.125713348388671875e-02 5.698001384735107422e-02 -9.633987210690975189e-03 -5.109982937574386597e-02 7.685495913028717041e-02 -1.183325424790382385e-01 -1.222856864333152771e-01 -5.359639599919319153e-02 -1.384180039167404175e-01 2.851051837205886841e-02 -1.181592512875795364e-02 2.319058775901794434e-02 -4.213629290461540222e-02 -1.138477027416229248e-01 -3.956857603043317795e-03 -6.350581347942352295e-02 1.296030264347791672e-02 -1.073442921042442322e-01 9.247586131095886230e-03 -9.160235524177551270e-03 -9.549574553966522217e-02 9.110087901353836060e-02 4.174767527729272842e-03 1.094524469226598740e-02 1.524810586124658585e-02 5.700433999300003052e-02 -1.401145011186599731e-02 5.980020854622125626e-03 2.350397035479545593e-02 6.493181735277175903e-02 4.311702400445938110e-02 -7.824015617370605469e-02 -3.871861554216593504e-04 1.873165667057037354e-01 -8.199094794690608978e-03 2.517593652009963989e-02 2.394184097647666931e-02 -2.921989932656288147e-02 -3.099297732114791870e-02 6.499591469764709473e-02 5.854632705450057983e-02 1.432249099016189575e-01 1.081213578581809998e-01 5.545842275023460388e-02 1.417324990034103394e-01 2.995082177221775055e-04 2.135896589607000351e-03 -6.075284257531166077e-02 -6.340794265270233154e-02 4.097166284918785095e-02 -3.641588240861892700e-02 -7.646456360816955566e-02 -6.170733645558357239e-02 1.520157754421234131e-01 8.418128639459609985e-02 3.655625879764556885e-02 -1.916876761242747307e-03 -6.562452763319015503e-02 -8.022882044315338135e-02 -4.311611130833625793e-02 -5.517775192856788635e-02 -6.198378279805183411e-02 -9.890870004892349243e-02 5.133160203695297241e-02 3.024386800825595856e-02 1.090793311595916748e-02 -4.547792300581932068e-02 8.453951776027679443e-02 9.662447869777679443e-02 3.183459863066673279e-02 4.640248790383338928e-02 -4.080554097890853882e-02 1.079980581998825073e-01 1.188431680202484131e-02 9.899798780679702759e-02 -7.647282630205154419e-02 -5.007971078157424927e-02 7.951896637678146362e-02 2.537265606224536896e-02 -5.894402973353862762e-03 3.417707234621047974e-02 2.145512402057647705e-02 -5.359608307480812073e-02 -3.443406894803047180e-03 1.524806302040815353e-02 8.187626302242279053e-02 -9.204851835966110229e-02 -2.668656781315803528e-02 -1.279224455356597900e-02 -2.957460284233093262e-02 -2.445102669298648834e-02 5.255425348877906799e-02 2.030453272163867950e-02 -7.868576794862747192e-02 -8.259044587612152100e-02 6.759258359670639038e-02 -3.926627710461616516e-02 5.464987829327583313e-02 5.340503156185150146e-02 3.374934569001197815e-02 -8.061338216066360474e-02 -1.601339131593704224e-02 -9.320205450057983398e-02 -5.072037875652313232e-02 1.825174316763877869e-02 -4.785371478646993637e-03 1.598882302641868591e-02
-6.079287268221378326e-03 2.532705105841159821e-02 -1.160963065922260284e-02 4.209426417946815491e-02 5.593021865934133530e-03 -5.837022513151168823e-02 -8.186672627925872803e-02 -7.094864733517169952e-03 2.742345817387104034e-02 -5.782740656286478043e-03 1.295857429504394531e-01 -2.769794687628746033e-02 7.010916620492935181e-02 2.715605683624744415e-02 -4.611920937895774841e-02 -8.357492089271545410e-02 -1.544361282140016556e-02 1.192296370863914490e-01 3.051417320966720581e-02 -5.421376973390579224e-02 -2.693128958344459534e-02 -5.562690272927284241e-02 -6.955251097679138184e-02 3.315465524792671204e-02 -6.503757089376449585e-02 4.667713865637779236e-02 -1.278055757284164429e-01 2.020754478871822357e-02 1.619560830295085907e-02 -1.236746162176132202e-01 -2.448794431984424591e-02 -5.137734115123748779e-02 9.450101107358932495e-02 -5.883443728089332581e-02 -5.365966632962226868e-02 -4.184883087873458862e-02 -2.388356439769268036e-02 -3.509528562426567078e-02 2.979468926787376404e-02 -1.379614043980836868e-02 -1.114146485924720764e-01 -1.617396920919418335e-01 1.516284346580505371e-01 -1.153215169906616211e-01 1.024357080459594727e-01 -3.655838593840599060e-02 -4.636314883828163147e-02 2.990648895502090454e-02 -2.955080941319465637e-03 -4.739426821470260620e-02 -3.044178150594234467e-02 4.019175469875335693e-02 -4.230820760130882263e-02 -7.727861404418945312e-02 1.635777205228805542e-01 -9.916818886995315552e-02 3.233512490987777710e-02 1.653673313558101654e-02 -9.654082357883453369e-03 -1.351475566625595093e-01 1.024932190775871277e-01 -1.198796369135379791e-02 5.526619404554367065e-02 1.572480425238609314e-02 4.618318006396293640e-02 -2.394029311835765839e-02 5.435284227132797241e-02 -3.169109299778938293e-02 -1.595601812005043030e-02 4.684136062860488892e-02 -3.809744119644165039e-02 -4.834688152186572552e-04 -3.995553776621818542e-02 -1.407709270715713501e-01 4.706654697656631470e-02 8.428440988063812256e-02 4.292559996247291565e-02 1.107882428914308548e-02 9.220700711011886597e-03 -5.832578986883163452e-02 -1.521723158657550812e-02 -5.015050247311592102e-02 -3.569803014397621155e-02 -2.007844857871532440e-02 2.242188900709152222e-02 -3.545868769288063049e-02 6.954897195100784302e-02 8.161230385303497314e-02 9.056777926161885262e-04 8.333037048578262329e-02 -2.817888511344790459e-03 -8.436281979084014893e-02 -2.281518653035163879e-02 4.767488315701484680e-02 -1.870255172252655029e-02 8.261445909738540649e-02 -4.554072022438049316e-02 -6.045613065361976624e-02 1.956377550959587097e-02 6.473058462142944336e-02 5.427121743559837341e-02 -5.025991704314947128e-03 5.797880515456199646e-02 5.046487599611282349e-02 -6.561496295034885406e-03 -2.109015826135873795e-03 1.002778187394142151e-01 -9.206105768680572510e-02 -6.675024330615997314e-02 -4.515823721885681152e-02 -8.342998102307319641e-03 1.717564766295254230e-03 -1.990162208676338196e-02 4.586144536733627319e-02 -1.290396228432655334e-02 -1.472378969192504883e-01 1.004582941532135010e-01 4.124655947089195251e-02 3.633826225996017456e-02 -4.778734222054481506e-02 5.441491678357124329e-02 -5.538999661803245544e-02 -5.929974466562271118e-02 -6.346795707941055298e-02 6.198465824127197266e-02 3.781627491116523743e-02 -3.941697627305984497e-02 -5.698731541633605957e-02
-1.561811566352844238e-02 -7.730443030595779419e-02 1.097692549228668213e-02 8.557149022817611694e-02 -3.035556711256504059e-02 2.517163753509521484e-02 -9.911343455314636230e-03 -5.129786208271980286e-02 1.466104388236999512e-02 -1.265035569667816162e-01 1.251598149538040161e-01 -7.892575114965438843e-02 7.043295353651046753e-02 -9.932129830121994019e-02 -1.902482472360134125e-02 1.329500675201416016e-01 6.688537448644638062e-02 -1.152982115745544434e-01 -2.770317718386650085e-02 1.389727648347616196e-02 3.119295835494995117e-02 -5.648812651634216309e-02 -4.750364273786544800e-02 -1.067718490958213806e-01 -5.021032691001892090e-02 -3.790754079818725586e-02 7.097300142049789429e-02 2.666435390710830688e-02 -1.195531710982322693e-01 1.016681715846061707e-01 -3.971854597330093384e-02 -2.196251042187213898e-02 4.852896183729171753e-02 4.525355994701385498e-03 3.442768007516860962e-02 6.486414372920989990e-02 -4.372742399573326111e-02 -7.573805749416351318e-03 1.494489610195159912e-01 -4.429819434881210327e-02 2.348496019840240479e-02 3.346214443445205688e-02 -7.775588426738977432e-03 4.515698924660682678e-02 -1.511545032262802124e-01 7.853637635707855225e-02 5.606137961149215698e-02 -2.316096052527427673e-02 -4.242640361189842224e-02 -1.002396866679191589e-01 -1.400990318506956100e-02 -4.378669336438179016e-02 3.698840737342834473e-04 7.213297765702009201e-03 8.752064779400825500e-03 -4.146280512213706970e-02 6.741717457771301270e-03 3.028845787048339844e-02 -1.300389319658279419e-01 9.361910820007324219e-02 -8.212573826313018799e-02 1.117186471819877625e-01 1.131463330239057541e-02 -2.070576511323451996e-02 -1.016944944858551025e-01 -5.127610638737678528e-03 2.314023673534393311e-03 5.861896649003028870e-02 1.757848262786865234e-02 2.162762731313705444e-02 1.336935069411993027e-02 4.414995014667510986e-02 7.344713062047958374e-02 2.436095476150512695e-02 -6.926705688238143921e-02 -2.426669187843799591e-02 7.028532773256301880e-02 -4.035528749227523804e-02 9.358309209346771240e-03 2.139725722372531891e-02 -1.128153726458549500e-01 6.614566780626773834e-03 -6.845355033874511719e-02 -1.094495654106140137e-01 -8.050474524497985840e-02 7.356826215982437134e-02 3.691645711660385132e-02 -8.398842066526412964e-02 1.213195100426673889e-01 -3.751710057258605957e-02 -7.948056794703006744e-03 -2.697273343801498413e-02 3.926332294940948486e-02 5.365942418575286865e-02 -1.094021648168563843e-02 7.535775750875473022e-02 -2.403624169528484344e-02 8.021693676710128784e-03 1.565264165401458740e-02 1.084674969315528870e-01 -6.522303074598312378e-02 -1.056941822171211243e-01 -6.979091465473175049e-02 -9.026896208524703979e-02 -4.242114350199699402e-02 -2.087941765785217285e-02 -2.710748836398124695e-02 -6.400591880083084106e-02 5.072049051523208618e-02 -3.813437372446060181e-02 -2.695374749600887299e-02 -8.299328386783599854e-02 1.505077779293060303e-01 -1.042377552948892117e-03 -6.239684298634529114e-02 -1.267671585083007812e-02 -7.555443048477172852e-02 8.087491244077682495e-02 3.289820253849029541e-02 -1.534978393465280533e-02 2.488636039197444916e-02 2.715296298265457153e-02 6.743524223566055298e-02 -6.876526772975921631e-02 -3.482990339398384094e-02 6.254795938730239868e-02 6.873473525047302246e-02 5.740932002663612366e-02
-1.873886957764625549e-02 -8.847482502460479736e-03 1.333227008581161499e-02 -7.480882108211517334e-02 8.685382455587387085e-02 8.535906672477722168e-03 -7.803502678871154785e-02 5.141184106469154358e-02 -7.436753809452056885e-02 -3.158213570713996887e-02 -3.251114115118980408e-02 -6.122274324297904968e-02 -4.420019686222076416e-03 3.719058632850646973e-02 -6.737866252660751343e-02 1.371951401233673096e-01 4.874046891927719116e-02 -5.976887419819831848e-02 -1.419676840305328369e-02 4.527470842003822327e-02 -4.650663211941719055e-02 -3.701880574226379395e-02 -3.900219872593879700e-02 2.966232970356941223e-02 -1.649941504001617432e-02 -4.050259664654731750e-02 3.784987702965736389e-02 -5.452440679073333740e-02 2.554865181446075439e-02 -9.398605674505233765e-03 -4.625961184501647949e-02 -5.160231143236160278e-02 2.530101314187049866e-02 1.602655649185180664e-02 5.292924866080284119e-02 -6.011277064681053162e-02 -8.519948460161685944e-03 5.911316722631454468e-02 -1.492858678102493286e-02 -1.151166018098592758e-02 2.233907021582126617e-02 1.284978985786437988e-01 -9.421157091856002808e-02 -1.150764301419258118e-01 -1.017102301120758057e-01 1.519266068935394287e-01 -4.815652593970298767e-02 4.163298010826110840e-02 4.329629987478256226e-02 6.759305018931627274e-03 3.436981514096260071e-02 1.218967139720916748e-01 6.792876869440078735e-02 -2.830977551639080048e-02 -1.190045382827520370e-02 -3.087063878774642944e-02 6.673993915319442749e-02 1.083461195230484009e-02 -1.028702408075332642e-01 3.589001297950744629e-02 -4.068302921950817108e-03 9.664512239396572113e-03 7.608116418123245239e-02 3.219647333025932312e-02 -3.415217250585556030e-02 3.868266195058822632e-02 4.920331388711929321e-02 4.018360003829002380e-02 -6.640444695949554443e-02 -6.490501761436462402e-02 1.851498894393444061e-02 4.246478900313377380e-02 5.121695250272750854e-02 1.058582365512847900e-01 -1.898347400128841400e-02 -9.818046540021896362e-02 4.716987162828445435e-02 -3.098165988922119141e-02 5.637402087450027466e-02 1.106930314563214779e-03 1.887182891368865967e-02 4.535744711756706238e-02 -8.242592960596084595e-02 -9.493734687566757202e-02 -5.845925584435462952e-02 -6.356389820575714111e-02 3.765477240085601807e-02 1.089245900511741638e-01 4.359372705221176147e-02 -1.170627549290657043e-01 -7.799702137708663940e-02 4.781308025121688843e-02 4.276899248361587524e-02 -5.487060174345970154e-02 1.459299214184284210e-02 -5.895107984542846680e-02 -8.516282588243484497e-02 -1.528572663664817810e-02 -2.339811436831951141e-02 8.410800248384475708e-02 -4.140489548444747925e-02 -7.212544232606887817e-02 -5.474417656660079956e-02 2.189087495207786560e-02 -1.465133428573608398e-01 -5.174499377608299255e-02 6.346058845520019531e-02 -4.611261561512947083e-02 3.669504076242446899e-02 -2.686451375484466553e-02 1.045152842998504639e-01 -1.953918486833572388e-02 1.828635931015014648e-01 4.050011187791824341e-02 -1.633001491427421570e-03 -1.016974449157714844e-01 9.398368746042251587e-02 1.141982525587081909e-02 6.914790719747543335e-02 -2.987264096736907959e-02 -8.762869983911514282e-02 5.188636481761932373e-03 5.236541479825973511e-02 -2.955796569585800171e-02 7.066232711076736450e-02 -1.433456223458051682e-02 9.842472150921821594e-03 1.396581232547760010e-01
