1.361956447362899780e-01 -2.990914583206176758e-01 -2.384101599454879761e-01 -2.622042298316955566e-01 1.819050754420459270e-03 2.401985824108123779e-01 -1.504376828670501709e-01 -1.378008276224136353e-01 -4.268632829189300537e-02 2.055496349930763245e-02
1.512633711099624634e-01 6.571115925908088684e-03 -1.522204428911209106e-01 -2.372042685747146606e-01 -3.263903781771659851e-02 -2.327608913183212280e-01 -1.348005980253219604e-01 5.327180773019790649e-02 -2.760383486747741699e-01 -8.124830573797225952e-02
-2.347097247838973999e-01 2.858185470104217529e-01 -4.855819512158632278e-03 -8.208253979682922363e-02 4.205746576189994812e-02 2.584313750267028809e-01 -3.004662096500396729e-01 -1.671285480260848999e-01 -8.727257698774337769e-02 2.630060315132141113e-01
-1.350086629390716553e-01 -2.878574728965759277e-01 -2.921510636806488037e-01 -8.841698616743087769e-02 -1.494595408439636230e-01 6.600436568260192871e-02 1.386250853538513184e-01 -4.522942379117012024e-02 2.898145839571952820e-02 -6.592434644699096680e-02
-2.815347611904144287e-01 2.019702941179275513e-01 2.387305796146392822e-01 -2.336981296539306641e-01 -2.334790378808975220e-01 -4.503275081515312195e-02 1.474739983677864075e-02 1.791146099567413330e-01 -2.072821557521820068e-01 -1.643107831478118896e-01
-2.159119583666324615e-02 5.261566117405891418e-02 -1.751068383455276489e-01 -2.665179371833801270e-01 1.637536734342575073e-01 1.985596269369125366e-01 1.530765742063522339e-01 7.131778448820114136e-02 -1.478514373302459717e-01 2.095419680699706078e-03
2.215491980314254761e-01 -3.021083474159240723e-01 1.563082635402679443e-01 -2.271640151739120483e-01 -3.684976398944854736e-01 -1.203535422682762146e-01 2.443374246358871460e-01 -2.519817352294921875e-01 1.671067923307418823e-01 -3.692783117294311523e-01
-1.693746745586395264e-01 -7.992277853190898895e-03 8.213932067155838013e-02 2.388257235288619995e-01 -2.027125842869281769e-02 -3.728225231170654297e-01 6.853062659502029419e-02 -2.283145189285278320e-01 -2.259776182472705841e-02 -2.234980463981628418e-01
2.049827575683593750e-01 -1.005930900573730469e-01 1.752283275127410889e-01 8.568814396858215332e-02 -1.020853742957115173e-01 1.179275661706924438e-01 -5.648346617817878723e-02 -1.421716362237930298e-01 2.607997059822082520e-01 -1.215207055211067200e-01
-1.578291803598403931e-01 -6.485331803560256958e-02 -3.434718549251556396e-01 -3.754824697971343994e-01 6.460861302912235260e-03 -2.353909313678741455e-01 -6.799079477787017822e-02 8.002458512783050537e-02 -7.124333828687667847e-02 4.818200133740901947e-03
-1.640872955322265625e-01 1.935726553201675415e-01 -1.510732322931289673e-01 -1.595171689987182617e-01 -1.268894523382186890e-01 2.622287571430206299e-01 5.475633963942527771e-02 -1.242554932832717896e-01 -5.978311877697706223e-03 1.511684507131576538e-01
-6.728658452630043030e-03 1.588137000799179077e-01 -1.978169083595275879e-01 -9.047024697065353394e-02 5.921406205743551254e-03 3.560941293835639954e-02 1.688429117202758789e-01 -2.151422649621963501e-01 5.858280882239341736e-02 2.285558916628360748e-02
6.374951452016830444e-02 1.602108962833881378e-02 -2.999676167964935303e-01 1.511508524417877197e-01 1.549627482891082764e-01 2.618921399116516113e-01 2.749274373054504395e-01 1.602401882410049438e-01 1.922174240462481976e-03 -1.332748830318450928e-01
-2.892514169216156006e-01 1.896897703409194946e-01 -1.851423382759094238e-01 -1.986697614192962646e-01 1.761629432439804077e-02 -3.159201443195343018e-01 3.044548258185386658e-02 1.669508069753646851e-01 -1.003209501504898071e-01 -1.343780308961868286e-01
4.420055076479911804e-02 2.600497603416442871e-01 -1.675826758146286011e-01 -4.818241298198699951e-02 -6.653645634651184082e-02 -1.970329554751515388e-03 -2.090523988008499146e-01 6.147662550210952759e-02 -3.030670583248138428e-01 -2.667851373553276062e-02
9.270707517862319946e-02 1.960367150604724884e-02 -3.454031795263290405e-02 -2.713273167610168457e-01 1.335976570844650269e-01 -2.912371754646301270e-01 -1.192787289619445801e-01 1.338173896074295044e-01 -7.606413215398788452e-03 -2.839724123477935791e-01
-1.653676033020019531e-01 5.798513814806938171e-02 1.912147849798202515e-01 -3.286125063896179199e-01 1.620371788740158081e-01 -2.449995428323745728e-01 1.411698311567306519e-01 -2.811200618743896484e-01 7.057528942823410034e-03 2.040125131607055664e-01
-2.218661755323410034e-01 -1.564832925796508789e-01 8.132323622703552246e-03 -1.174489408731460571e-01 -1.273197773844003677e-02 1.164433658123016357e-01 2.327605634927749634e-01 -1.371636092662811279e-01 2.276584208011627197e-01 2.462569475173950195e-01
-3.388919234275817871e-01 -7.032284885644912720e-02 -9.998031705617904663e-02 7.126218080520629883e-02 2.824446558952331543e-01 1.497091352939605713e-01 -9.502533078193664551e-02 -7.915648818016052246e-02 9.268964082002639771e-02 -1.983281224966049194e-01
1.403241753578186035e-01 -2.660710513591766357e-01 1.350981742143630981e-01 1.738953888416290283e-01 -2.662022411823272705e-01 1.011346951127052307e-01 2.297597080469131470e-01 1.369521915912628174e-01 -2.971012890338897705e-01 1.470396667718887329e-01
3.299444541335105896e-02 -2.557468414306640625e-01 1.583986282348632812e-01 1.736665517091751099e-01 -1.632068678736686707e-02 2.241645306348800659e-01 1.644502729177474976e-01 2.724945843219757080e-01 4.649155586957931519e-02 -8.728087693452835083e-02
-2.141644358634948730e-01 -1.485176086425781250e-01 2.655811049044132233e-02 2.659359574317932129e-01 1.661429405212402344e-01 9.558646008372306824e-03 -3.948341012001037598e-01 -1.945636272430419922e-01 2.415299862623214722e-01 2.804740965366363525e-01
-1.699477434158325195e-01 -1.831454783678054810e-01 -3.854149878025054932e-01 1.258376687765121460e-01 2.130888998508453369e-01 -7.392957061529159546e-02 -2.335568666458129883e-01 -2.562820315361022949e-01 -1.040601953864097595e-01 -1.244160979986190796e-01
-2.681505978107452393e-01 -4.178582131862640381e-02 4.326128214597702026e-02 1.376622766256332397e-01 2.105117440223693848e-01 2.340956181287765503e-01 -6.063323002308607101e-03 -3.232440650463104248e-01 -4.734311997890472412e-02 -6.855373084545135498e-02
-3.944060206413269043e-01 -1.479319483041763306e-01 1.507691890001296997e-01 1.239049881696701050e-01 1.069194152951240540e-01 -2.331562489271163940e-01 -5.373179540038108826e-02 3.712492436170578003e-02 3.875221684575080872e-02 -2.427559792995452881e-01
-1.890723258256912231e-01 -2.034807354211807251e-01 -1.445447951555252075e-01 1.060413569211959839e-01 -1.352953165769577026e-01 2.488451004028320312e-01 2.435897588729858398e-01 1.817370802164077759e-01 8.507522940635681152e-02 -1.441466063261032104e-01
1.337030231952667236e-01 6.949955970048904419e-02 2.178136706352233887e-01 1.061571314930915833e-01 -1.171077713370323181e-01 -1.251425035297870636e-02 -1.349357068538665771e-01 -3.195420801639556885e-01 -1.207063645124435425e-01 3.902316465973854065e-02
-2.379764616489410400e-01 -3.132340312004089355e-01 -7.386987656354904175e-02 2.735719084739685059e-01 -1.123350411653518677e-01 1.251217871904373169e-01 -1.762318164110183716e-01 -2.952197194099426270e-01 1.811560541391372681e-01 -1.528935879468917847e-01
9.006202965974807739e-02 4.928525071591138840e-03 1.050183549523353577e-01 2.266333103179931641e-01 -2.541355788707733154e-01 8.548697084188461304e-02 3.124204576015472412e-01 -2.805072367191314697e-01 -9.544372558593750000e-03 1.016204208135604858e-01
-2.838773429393768311e-01 -4.697565734386444092e-02 1.374083310365676880e-01 -6.325578689575195312e-02 -3.240690827369689941e-01 -1.160358712077140808e-01 -7.331626117229461670e-02 -2.490656971931457520e-01 2.695783041417598724e-02 -1.735752671957015991e-01
3.975944593548774719e-02 5.322070047259330750e-02 -1.252695620059967041e-01 -1.368753612041473389e-01 -1.687166690826416016e-01 1.426453702151775360e-02 -1.737424880266189575e-01 -1.446765512228012085e-01 -2.751881182193756104e-01 7.171268016099929810e-02
2.147466242313385010e-01 -2.003194838762283325e-01 5.821659695357084274e-03 -2.782197296619415283e-01 -3.375998511910438538e-02 -1.319139301776885986e-01 2.414651662111282349e-01 -1.342593133449554443e-01 -5.293907225131988525e-02 -3.463043272495269775e-02
4.224956780672073364e-02 -3.168339133262634277e-01 7.926677353680133820e-03 2.026371061801910400e-01 2.189687192440032959e-01 -7.349780946969985962e-02 -1.263942420482635498e-01 -2.256602495908737183e-01 5.427174642682075500e-02 -2.785075008869171143e-01
-2.758769690990447998e-01 1.482117176055908203e-01 -2.930957376956939697e-01 1.264010816812515259e-01 7.481886446475982666e-02 -2.264571636915206909e-01 -3.291358649730682373e-01 -2.022258639335632324e-01 1.804451495409011841e-01 -2.418360263109207153e-01
-1.097758859395980835e-01 1.982700638473033905e-02 -1.306154727935791016e-01 1.742189675569534302e-01 -3.452979922294616699e-01 5.573192611336708069e-02 -2.282706946134567261e-01 2.210922539234161377e-01 6.311445683240890503e-02 2.936378121376037598e-01
1.570020020008087158e-01 -2.141043394804000854e-01 -3.091675043106079102e-01 1.971921026706695557e-01 -3.308515250682830811e-02 -3.620023280382156372e-02 1.250456124544143677e-01 -1.426833719015121460e-01 6.986987590789794922e-02 1.764457076787948608e-01
-1.354525685310363770e-01 1.296105086803436279e-01 1.309874802827835083e-01 7.524397969245910645e-02 -3.577693700790405273e-01 -2.760739922523498535e-01 -1.818900108337402344e-01 2.543760091066360474e-02 -1.029481738805770874e-01 -6.199695635586977005e-03
-1.116769015789031982e-01 1.802510917186737061e-01 -1.976085007190704346e-01 1.007342059165239334e-02 -2.931412160396575928e-01 -1.469027847051620483e-01 2.373076379299163818e-01 2.211152315139770508e-01 2.496531158685684204e-01 6.776547059416770935e-03
1.608326882123947144e-01 2.287766337394714355e-01 -2.694386541843414307e-01 -2.105149030685424805e-01 6.465869396924972534e-02 2.566558495163917542e-02 -5.645826924592256546e-03 1.346064452081918716e-02 -1.818644851446151733e-01 4.891465604305267334e-02
1.437391191720962524e-01 -2.229281514883041382e-01 1.318198591470718384e-01 -5.000093951821327209e-02 -2.723353505134582520e-01 -6.765269488096237183e-02 1.797801256179809570e-02 -3.422266244888305664e-01 -2.588488161563873291e-01 2.709032297134399414e-01
-3.939050808548927307e-02 1.721868067979812622e-01 2.478601336479187012e-01 -2.996712028980255127e-01 -2.580442726612091064e-01 -3.332717120647430420e-01 -1.688224077224731445e-01 -3.858174383640289307e-01 1.310105025768280029e-01 -2.866074144840240479e-01
7.372108846902847290e-02 -2.588146924972534180e-01 4.220084846019744873e-02 -3.429232537746429443e-01 8.296436816453933716e-02 1.317630708217620850e-01 -1.544972211122512817e-01 -2.482286691665649414e-01 -2.044475525617599487e-01 -2.583313882350921631e-01
-2.428345382213592529e-01 -7.624147087335586548e-02 -2.252108156681060791e-01 -3.383220434188842773e-01 -5.450631305575370789e-02 -2.895843386650085449e-01 -2.812786698341369629e-01 1.762181520462036133e-01 2.710192278027534485e-02 -7.750932127237319946e-02
1.560870558023452759e-01 -1.743284612894058228e-01 1.985639184713363647e-01 -2.138190418481826782e-01 -1.073410585522651672e-01 -7.395368814468383789e-02 1.980288513004779816e-02 1.017562076449394226e-01 1.770273596048355103e-01 1.361505091190338135e-01
1.891377270221710205e-01 -1.858627200126647949e-01 -7.886518537998199463e-02 -3.200510442256927490e-01 2.058705836534500122e-01 -1.302814334630966187e-01 1.674949079751968384e-01 -2.422623187303543091e-01 -2.460245788097381592e-01 -1.110068783164024353e-01
9.291629493236541748e-02 -2.279811948537826538e-01 9.730646759271621704e-02 -1.153573840856552124e-01 1.044798120856285095e-01 -3.240878582000732422e-01 2.150386273860931396e-01 -2.495791018009185791e-01 -2.193094193935394287e-01 2.090754546225070953e-02
-3.160426616668701172e-01 -1.190413720905780792e-02 -2.842626273632049561e-01 -1.316347718238830566e-01 -1.680997312068939209e-01 9.318648278713226318e-02 -3.020992577075958252e-01 -4.709350690245628357e-02 2.019699513912200928e-01 7.097445428371429443e-02
1.056683436036109924e-02 -1.988432258367538452e-01 -3.161917924880981445e-01 -2.692297399044036865e-01 2.491820901632308960e-01 -2.489927262067794800e-01 -1.621963828802108765e-01 6.205779686570167542e-02 2.656796202063560486e-02 1.303876936435699463e-01
-1.696420907974243164e-01 7.100388407707214355e-02 2.731140255928039551e-01 -9.892684966325759888e-02 8.929539471864700317e-02 -2.130848467350006104e-01 7.393903285264968872e-02 -2.335024774074554443e-01 -2.600057423114776611e-01 7.270178943872451782e-02
3.114521205425262451e-01 4.874440282583236694e-02 -1.214298084378242493e-01 -3.780777454376220703e-01 8.509258925914764404e-02 1.584553718566894531e-01 2.115391790866851807e-01 2.602815255522727966e-02 -1.672356575727462769e-02 -1.384512428194284439e-02
-8.254889398813247681e-02 2.499896883964538574e-01 -1.177092269062995911e-01 2.641442231833934784e-02 -1.033286452293395996e-01 2.977629378437995911e-02 -1.200467571616172791e-01 -1.531985104084014893e-01 9.242726117372512817e-02 7.815015502274036407e-03
9.406615793704986572e-02 -2.067538648843765259e-01 7.327236235141754150e-02 2.616932988166809082e-01 -2.153275012969970703e-01 -9.995251893997192383e-02 -6.452657282352447510e-02 -1.856063008308410645e-01 -2.396108657121658325e-01 1.778650134801864624e-01
-3.334693014621734619e-01 -3.194508552551269531e-01 1.655941829085350037e-02 1.006961837410926819e-01 8.146345615386962891e-02 -2.405983209609985352e-01 4.450164735317230225e-02 1.246364638209342957e-01 1.155950725078582764e-01 -3.142921626567840576e-01
-2.207357734441757202e-01 -9.414277225732803345e-02 -5.087853968143463135e-02 1.665766090154647827e-01 -2.993560433387756348e-01 2.385667115449905396e-01 2.135004103183746338e-01 6.763117015361785889e-02 -8.477133512496948242e-02 -3.780618011951446533e-01
2.624200880527496338e-01 2.387313544750213623e-02 2.229742407798767090e-01 -3.013517558574676514e-01 8.417184650897979736e-02 -1.927538812160491943e-01 -3.210018575191497803e-01 -1.066080778837203979e-01 9.443651139736175537e-02 -1.453347653150558472e-01
-3.340391814708709717e-01 -2.257713228464126587e-01 -2.212015092372894287e-01 -3.038972914218902588e-01 5.680850148200988770e-02 -1.733723133802413940e-01 -1.470345705747604370e-01 1.536296773701906204e-02 -5.924015119671821594e-02 -2.593892514705657959e-01
1.317785531282424927e-01 -1.693894863128662109e-01 -1.850333511829376221e-01 2.075063250958919525e-02 2.350329905748367310e-01 7.476537674665451050e-02 3.070702850818634033e-01 -7.889058440923690796e-02 2.377657294273376465e-01 -2.636641263961791992e-01
-1.494680345058441162e-01 2.075692266225814819e-01 -3.512868881225585938e-01 6.864741444587707520e-02 -1.366387158632278442e-01 3.268780931830406189e-02 -3.218176960945129395e-01 1.039015427231788635e-01 -1.461053341627120972e-01 4.205764457583427429e-02
-1.381665468215942383e-01 -8.472791314125061035e-02 -5.071078613400459290e-02 7.550915330648422241e-02 -3.459517657756805420e-01 1.131332442164421082e-01 3.524076193571090698e-02 2.815794944763183594e-01 -5.284971743822097778e-02 1.127593591809272766e-02
-2.414754927158355713e-01 -4.805994778871536255e-02 6.782536208629608154e-02 -1.770703196525573730e-01 2.094574570655822754e-01 3.553907200694084167e-02 -9.789992868900299072e-02 -3.269090652465820312e-01 2.263073325157165527e-01 -2.377203106880187988e-01
1.708716005086898804e-01 1.037878468632698059e-01 1.538561284542083740e-01 -1.893319636583328247e-01 -3.759621679782867432e-01 -2.691745460033416748e-01 7.213550806045532227e-02 6.489551812410354614e-02 2.165700048208236694e-01 2.089098095893859863e-01
7.047463208436965942e-02 2.516621351242065430e-01 -1.663922369480133057e-01 8.661627769470214844e-02 -9.472474455833435059e-02 -2.384290397167205811e-01 9.514015913009643555e-02 8.208969980478286743e-02 -1.829104274511337280e-01 -2.842705547809600830e-01
-3.506066203117370605e-01 -1.209939345717430115e-01 -1.469763070344924927e-01 -1.307605504989624023e-01 3.622642159461975098e-02 -2.419825792312622070e-01 -2.593098878860473633e-01 1.701424717903137207e-01 1.295395940542221069e-01 5.656927824020385742e-03
1.007100939750671387e-01 1.798056960105895996e-01 -2.112844139337539673e-01 1.798874884843826294e-01 -3.142651319503784180e-01 5.156077072024345398e-02 -3.074642121791839600e-01 -2.040251158177852631e-02 -2.806661725044250488e-01 -1.856510937213897705e-01
