-5.042257905006408691e-02
2.854555845260620117e-02
3.790276870131492615e-02
-2.961690723896026611e-02
-1.132490797317586839e-04
-1.797576434910297394e-02
6.535897264257073402e-04
-8.358041755855083466e-03
3.937859088182449341e-02
2.063246071338653564e-02
-4.467545542865991592e-03
-1.865477859973907471e-02
-1.699897274374961853e-02
2.703449130058288574e-02
1.258760411292314529e-02
4.383527487516403198e-02
-3.589859604835510254e-02
-3.839661926031112671e-02
1.046649180352687836e-02
-7.083282805979251862e-03
-4.834923148155212402e-02
4.020957741886377335e-03
-8.507735095918178558e-03
3.323994204401969910e-02
2.956511080265045166e-02
2.369119087234139442e-03
-1.581578142940998077e-02
1.958263665437698364e-02
-2.826713956892490387e-03
9.826292283833026886e-03
-2.399080432951450348e-03
-4.045207425951957703e-02
1.232165098190307617e-02
1.830132305622100830e-02
6.355204153805971146e-03
-1.585018262267112732e-02
3.092091344296932220e-02
1.535429270006716251e-03
3.254238516092300415e-02
4.014111473225057125e-04
5.627804994583129883e-02
5.884856800548732281e-04
-1.099675707519054413e-02
1.772908121347427368e-02
-1.874747313559055328e-02
-2.138251438736915588e-02
-1.197931449860334396e-02
-1.959132961928844452e-02
-2.001613378524780273e-02
3.209916502237319946e-02
1.859988830983638763e-02
1.128736510872840881e-02
3.120356239378452301e-02
-1.384195499122142792e-02
2.745226398110389709e-02
3.133491054177284241e-02
-1.921990327537059784e-02
6.248949840664863586e-02
-7.483337540179491043e-03
1.194356940686702728e-03
3.012251108884811401e-02
7.534638512879610062e-03
7.115721236914396286e-03
1.362205855548381805e-02
