-1.102655287832021713e-02
-9.876354597508907318e-03
-9.617794305086135864e-03
-1.993654109537601471e-02
7.540997583419084549e-03
-1.012255158275365829e-02
-1.543213240802288055e-02
7.108703721314668655e-03
-1.333507057279348373e-02
-1.671977457590401173e-03
2.356072142720222473e-02
-1.376741193234920502e-02
-8.447020314633846283e-03
-3.750539384782314301e-03
3.252578899264335632e-02
1.391704101115465164e-02
1.322659570723772049e-02
-2.857756428420543671e-02
-5.187564529478549957e-03
9.441721340408548713e-05
-2.104699984192848206e-02
-1.407120656222105026e-02
-9.985892102122306824e-03
-7.901199860498309135e-04
-1.212135329842567444e-02
-7.242301106452941895e-02
2.780905179679393768e-02
-1.919778063893318176e-02
-3.683996200561523438e-02
3.068561106920242310e-02
-8.917666040360927582e-03
1.060544606298208237e-02
4.143853730056434870e-04
-1.170502230525016785e-02
1.138992980122566223e-02
-8.801347576081752777e-03
1.272320281714200974e-02
-1.161902304738759995e-02
2.700515463948249817e-02
-5.085426941514015198e-02
-1.713111624121665955e-02
2.506234915927052498e-03
7.735746446996927261e-03
3.003105986863374710e-03
-1.078577525913715363e-02
-3.172744065523147583e-02
-1.138195209205150604e-02
-8.446304127573966980e-03
-1.630701869726181030e-02
-3.633684664964675903e-02
-4.544603824615478516e-02
8.597468025982379913e-03
-2.547481097280979156e-02
-1.072353869676589966e-02
-1.794929965399205685e-03
-1.054662466049194336e-02
-5.113038234412670135e-03
-9.126465767621994019e-03
4.547411575913429260e-03
-2.121451776474714279e-03
2.980695851147174835e-02
8.887805975973606110e-03
1.233478169888257980e-02
-3.436504304409027100e-02
5.629878491163253784e-03
-4.297429695725440979e-02
-1.043943781405687332e-02
4.200789611786603928e-03
-1.023807097226381302e-02
-6.005311384797096252e-03
-3.410723060369491577e-02
3.188629634678363800e-03
-5.161343142390251160e-03
1.923374831676483154e-02
-2.717268839478492737e-02
3.863282734528183937e-03
-8.744901977479457855e-03
-1.042793132364749908e-02
-1.307334564626216888e-02
9.926412254571914673e-03
2.287813089787960052e-02
2.585299313068389893e-02
-9.779280982911586761e-03
2.489593997597694397e-02
-5.112568847835063934e-03
2.701214328408241272e-02
-3.746808040887117386e-03
-7.881959900259971619e-03
7.682965137064456940e-03
-1.715844683349132538e-02
-1.010889373719692230e-02
-7.060981355607509613e-03
-5.476157180964946747e-03
7.435739506036043167e-03
-1.061303727328777313e-02
9.832904674112796783e-03
3.269915282726287842e-02
-1.087198313325643539e-02
1.225909218192100525e-02
1.369728893041610718e-02
3.215394541621208191e-02
-4.204568639397621155e-02
-1.081795245409011841e-02
-4.114968236535787582e-03
1.859336346387863159e-02
1.190240494906902313e-02
1.146481093019247055e-02
3.347756713628768921e-02
-1.158060692250728607e-02
-6.930120754987001419e-03
1.353356800973415375e-02
-9.457285515964031219e-03
9.070329833775758743e-04
-7.531087379902601242e-03
-7.017337717115879059e-03
7.536049932241439819e-03
-2.031776122748851776e-02
-8.168152533471584320e-03
-5.228654947131872177e-03
-3.365482436493039131e-03
3.089788183569908142e-02
-5.558748729526996613e-03
-7.714706007391214371e-03
2.958670025691390038e-03
-1.515176799148321152e-02
5.589238554239273071e-02
1.746101304888725281e-02
2.247894555330276489e-02
